{"type":"GRU","options":{"inputSize":28,"inputRange":28,"hiddenLayers":[20,20],"outputSize":28,"decayRate":0.999,"smoothEps":1e-8,"regc":0.000001,"clipval":5,"maxPredictionLength":100,"dataFormatter":{"values":["Please add a dark mode for nighttime use.","This app is a lifesaver for tracking expenses.","actionable","unactionable"],"indexTable":{"P":0,"l":1,"e":2,"a":3,"s":4," ":5,"d":6,"r":7,"k":8,"m":9,"o":10,"f":11,"n":12,"i":13,"g":14,"h":15,"t":16,"u":17,".":18,"T":19,"p":20,"v":21,"c":22,"x":23,"b":24,"stop-input":25,"start-output":26,"unrecognized":27},"characterTable":{"0":"P","1":"l","2":"e","3":"a","4":"s","5":" ","6":"d","7":"r","8":"k","9":"m","10":"o","11":"f","12":"n","13":"i","14":"g","15":"h","16":"t","17":"u","18":".","19":"T","20":"p","21":"v","22":"c","23":"x","24":"b","25":null,"26":null,"27":null},"characters":["P","l","e","a","s"," ","d","r","k","m","o","f","n","i","g","h","t","u",".","T","p","v","c","x","b","stop-input","start-output","unrecognized"],"specialIndexes":[25,26,27]}},"input":{"rows":29,"columns":28,"weights":{"0":0.7792534828186035,"1":-0.45084571838378906,"2":0.7203298807144165,"3":0.09772580862045288,"4":0.27513986825942993,"5":0.6216478943824768,"6":0.9992690682411194,"7":2.105015516281128,"8":-0.467659056186676,"9":-1.2470438480377197,"10":0.2427101582288742,"11":0.6651143431663513,"12":1.3073643445968628,"13":-0.19582755863666534,"14":-0.8015007376670837,"15":-1.679532527923584,"16":0.6169995665550232,"17":-0.6335383057594299,"18":1.2364518642425537,"19":-2.532317638397217,"20":2.443284034729004,"21":-1.4284194707870483,"22":-1.1261087656021118,"23":0.2518872916698456,"24":-0.16797490417957306,"25":-1.373351812362671,"26":-1.4530045986175537,"27":1.120769739151001,"28":-0.28327223658561707,"29":-4.213663578033447,"30":2.5177767276763916,"31":1.2172768115997314,"32":1.7681846618652344,"33":-0.6463732719421387,"34":1.6089768409729004,"35":1.88880455493927,"36":0.5138810276985168,"37":2.210184097290039,"38":0.1863040179014206,"39":-0.041206762194633484,"40":0.7275574803352356,"41":2.071805953979492,"42":0.3919900059700012,"43":0.27398964762687683,"44":1.0325208902359009,"45":-0.8106322288513184,"46":-1.6010032892227173,"47":2.549579620361328,"48":-0.34812676906585693,"49":-1.3174878358840942,"50":-2.441302537918091,"51":-1.198765516281128,"52":2.9661502838134766,"53":-0.5000433325767517,"54":-0.33645790815353394,"55":-1.872475028038025,"56":0.12085387855768204,"57":2.09883975982666,"58":-1.5654628276824951,"59":-1.4815857410430908,"60":0.04592591151595116,"61":0.6530377268791199,"62":-2.151602268218994,"63":0.7860285043716431,"64":-0.12317675352096558,"65":2.4898808002471924,"66":0.06284382939338684,"67":1.9738458395004272,"68":-2.0743155479431152,"69":-0.835433304309845,"70":0.7021490931510925,"71":0.430825412273407,"72":0.6505738496780396,"73":0.23011086881160736,"74":-0.599561870098114,"75":1.2900604009628296,"76":-0.7895655632019043,"77":2.601734161376953,"78":2.113757610321045,"79":0.7228544354438782,"80":-2.861636161804199,"81":-0.46065521240234375,"82":0.6227493286132812,"83":0.551832914352417,"84":1.2319519519805908,"85":0.41592541337013245,"86":-1.3322275876998901,"87":0.48379582166671753,"88":1.057152509689331,"89":0.1320362240076065,"90":1.416369080543518,"91":-2.4031615257263184,"92":0.03735712915658951,"93":0.5342698097229004,"94":-0.2264060527086258,"95":0.06599608063697815,"96":-1.1102685928344727,"97":0.6112415194511414,"98":0.08286159485578537,"99":1.006190538406372,"100":-0.9664292335510254,"101":-0.5772386193275452,"102":0.6059463620185852,"103":-0.309639036655426,"104":-0.10282155871391296,"105":-0.21698947250843048,"106":0.12050029635429382,"107":0.5794625282287598,"108":0.07446067035198212,"109":-0.9378004670143127,"110":0.43400776386260986,"111":0.23512884974479675,"112":-0.8926002979278564,"113":-0.16460305452346802,"114":0.049298644065856934,"115":1.1920061111450195,"116":3.318894624710083,"117":2.930938482284546,"118":2.8922741413116455,"119":-1.9592547416687012,"120":1.2906469106674194,"121":0.0060414718464016914,"122":-0.7662829160690308,"123":-1.08969247341156,"124":-0.02400778979063034,"125":-0.6109633445739746,"126":-0.5325933694839478,"127":1.0330661535263062,"128":-2.5728423595428467,"129":1.729216456413269,"130":0.6293949484825134,"131":0.7170851230621338,"132":-0.06279419362545013,"133":-1.9212127923965454,"134":-0.20354461669921875,"135":1.1791893243789673,"136":1.6105477809906006,"137":-3.511732578277588,"138":-1.1600862741470337,"139":1.2229114770889282,"140":2.2675092220306396,"141":-0.32402560114860535,"142":1.707643985748291,"143":-0.5731552243232727,"144":2.4015250205993652,"145":1.6070724725723267,"146":-0.086505226790905,"147":-0.8862526416778564,"148":-1.0949753522872925,"149":0.6641614437103271,"150":-0.8208058476448059,"151":-1.3287650346755981,"152":1.2425312995910645,"153":-0.9692133665084839,"154":0.22743278741836548,"155":-0.29591459035873413,"156":0.8060470223426819,"157":-1.0381470918655396,"158":-0.2891451120376587,"159":1.1413668394088745,"160":0.2685404419898987,"161":-0.00548583036288619,"162":0.9406300783157349,"163":1.0852333307266235,"164":0.65887850522995,"165":-1.9634321928024292,"166":0.2895345985889435,"167":-1.8173561096191406,"168":1.3863385915756226,"169":1.188313603401184,"170":1.5334827899932861,"171":2.653945207595825,"172":2.6885809898376465,"173":-0.498026967048645,"174":0.9871570467948914,"175":0.5064165592193604,"176":-0.9183609485626221,"177":-0.05754975602030754,"178":-0.6091776490211487,"179":0.441919207572937,"180":-1.8625154495239258,"181":-1.3620401620864868,"182":-0.40689724683761597,"183":0.9225731492042542,"184":1.252312183380127,"185":-0.339161217212677,"186":-0.6879705786705017,"187":1.6148045063018799,"188":-0.7417505979537964,"189":-0.7855746746063232,"190":-2.5893430709838867,"191":1.0219383239746094,"192":-0.466304212808609,"193":-1.2577214241027832,"194":2.4316494464874268,"195":-0.4994018077850342,"196":2.7840731143951416,"197":-1.853137493133545,"198":-4.374331951141357,"199":-3.239910125732422,"200":-1.6344977617263794,"201":-1.028857946395874,"202":-1.7602699995040894,"203":1.9841119050979614,"204":3.5453174114227295,"205":1.8991143703460693,"206":-0.48085808753967285,"207":0.9651856422424316,"208":-0.9847625494003296,"209":2.0251858234405518,"210":-0.6769943833351135,"211":-0.2166169434785843,"212":1.848344326019287,"213":1.3590168952941895,"214":2.0965542793273926,"215":1.0295783281326294,"216":-0.8579846620559692,"217":-0.997347891330719,"218":0.45089495182037354,"219":-1.4324018955230713,"220":-0.895585834980011,"221":0.7947959899902344,"222":-3.2821881771087646,"223":0.38532474637031555,"224":0.9980732202529907,"225":-0.6360369920730591,"226":-0.7530714273452759,"227":0.22811800241470337,"228":1.610499620437622,"229":1.2973262071609497,"230":-1.4872617721557617,"231":-4.1760478019714355,"232":-0.8487367630004883,"233":0.40151578187942505,"234":-2.0931456089019775,"235":-1.9290711879730225,"236":0.5690856575965881,"237":-1.4075558185577393,"238":-0.04549579694867134,"239":-0.04548841342329979,"240":1.5853248834609985,"241":1.2202510833740234,"242":-0.8404737114906311,"243":2.1977169513702393,"244":-3.0823428630828857,"245":1.9161196947097778,"246":1.4362903833389282,"247":0.556780993938446,"248":-0.8900483846664429,"249":-1.0728204250335693,"250":2.1223626136779785,"251":0.7148498892784119,"252":1.0730379819869995,"253":0.245824933052063,"254":-0.7904168963432312,"255":-0.9413162469863892,"256":-2.096479654312134,"257":-2.356109857559204,"258":-1.140819787979126,"259":-0.2750578820705414,"260":-3.584709405899048,"261":-0.028321772813796997,"262":-0.19263702630996704,"263":0.31456464529037476,"264":-0.41160982847213745,"265":1.4676364660263062,"266":-2.2333016395568848,"267":0.17662650346755981,"268":-1.4495604038238525,"269":-0.32137489318847656,"270":-1.0433677434921265,"271":0.24275782704353333,"272":1.1612857580184937,"273":0.635643482208252,"274":-1.823979139328003,"275":-0.33128008246421814,"276":-0.951743483543396,"277":2.007507801055908,"278":0.7370736598968506,"279":-0.3797273635864258,"280":-0.4116594195365906,"281":-0.9935235381126404,"282":1.0500743389129639,"283":-1.1406238079071045,"284":-1.188881516456604,"285":0.8219069838523865,"286":1.2505367994308472,"287":-2.322453022003174,"288":1.5858205556869507,"289":-1.9616014957427979,"290":-0.2569759786128998,"291":0.31626224517822266,"292":-0.325147420167923,"293":-1.2830700874328613,"294":-1.7298868894577026,"295":0.4530557692050934,"296":0.8866087794303894,"297":-2.358875036239624,"298":2.391373634338379,"299":0.17486509680747986,"300":-0.566794753074646,"301":0.28862541913986206,"302":1.468016266822815,"303":0.41304126381874084,"304":0.24680431187152863,"305":0.12929700314998627,"306":0.41063395142555237,"307":1.9426285028457642,"308":-0.8570160269737244,"309":-2.58134126663208,"310":1.3178932666778564,"311":1.8014613389968872,"312":1.0976148843765259,"313":-0.7490928173065186,"314":-0.41240936517715454,"315":0.15802307426929474,"316":1.7910404205322266,"317":0.8397320508956909,"318":2.3183932304382324,"319":-0.2649787664413452,"320":-0.878496527671814,"321":-0.24634605646133423,"322":-0.35009488463401794,"323":2.0870959758758545,"324":0.7167457938194275,"325":-0.6819006204605103,"326":-1.245453953742981,"327":1.9840587377548218,"328":-0.13320514559745789,"329":-0.7108055949211121,"330":-0.07102776318788528,"331":-0.7491007447242737,"332":1.617584466934204,"333":-0.08174344152212143,"334":-0.4050690233707428,"335":-0.3709680140018463,"336":-2.555804491043091,"337":-1.1163417100906372,"338":1.0766764879226685,"339":3.3111612796783447,"340":1.2999000549316406,"341":1.3183358907699585,"342":0.4341115653514862,"343":0.3981259763240814,"344":0.858948290348053,"345":-0.41321805119514465,"346":-0.4540659487247467,"347":-0.9863125681877136,"348":0.7481891512870789,"349":0.5256063938140869,"350":-1.8287917375564575,"351":-0.2893378734588623,"352":-0.9181737303733826,"353":-2.095451593399048,"354":2.393615961074829,"355":-2.375136375427246,"356":-1.1699837446212769,"357":-0.5982426404953003,"358":0.15729284286499023,"359":0.40429750084877014,"360":1.078325629234314,"361":-2.475590944290161,"362":-1.4203331470489502,"363":-0.16572065651416779,"364":0.0834583044052124,"365":-0.07289320230484009,"366":0.9201209545135498,"367":0.38691285252571106,"368":0.037387870252132416,"369":-0.8046835064888,"370":-0.5320625305175781,"371":0.015020119026303291,"372":0.7774117588996887,"373":1.319122314453125,"374":-0.5121923685073853,"375":0.22805601358413696,"376":-2.9927170276641846,"377":2.2041432857513428,"378":0.7715857028961182,"379":0.7783766388893127,"380":2.068112373352051,"381":-0.4172378182411194,"382":0.14985643327236176,"383":1.5603617429733276,"384":-2.5966057777404785,"385":0.10680026561021805,"386":1.5777082443237305,"387":-2.9809062480926514,"388":-1.9135496616363525,"389":1.4385120868682861,"390":0.005026277154684067,"391":1.547967553138733,"392":-1.208784818649292,"393":-0.12522819638252258,"394":-0.7930813431739807,"395":1.486024022102356,"396":1.8265200853347778,"397":1.772740125656128,"398":2.5250205993652344,"399":-2.659701108932495,"400":1.1786229610443115,"401":-1.7445034980773926,"402":0.011717895045876503,"403":-0.34223511815071106,"404":0.007783590815961361,"405":-1.2186343669891357,"406":-2.6075613498687744,"407":0.47232645750045776,"408":-0.26302018761634827,"409":-0.035853635519742966,"410":0.2550400495529175,"411":0.30773502588272095,"412":0.3703611195087433,"413":0.49423667788505554,"414":-1.0207781791687012,"415":0.37691301107406616,"416":3.7689530849456787,"417":-1.8342905044555664,"418":-0.1897854506969452,"419":1.505279302597046,"420":-0.07134335488080978,"421":1.7700071334838867,"422":1.1422693729400635,"423":-1.5210704803466797,"424":1.8157143592834473,"425":1.130998969078064,"426":0.023946158587932587,"427":0.30112719535827637,"428":0.4004029333591461,"429":0.4949474632740021,"430":0.47916293144226074,"431":0.7307674288749695,"432":-0.10358113050460815,"433":-0.0030991274397820234,"434":3.8984854221343994,"435":-1.3823492527008057,"436":0.06268216669559479,"437":2.4591710567474365,"438":-0.4706715941429138,"439":1.8465638160705566,"440":0.2518470883369446,"441":-2.328860282897949,"442":1.5453965663909912,"443":0.687919020652771,"444":-1.997812032699585,"445":0.0861322283744812,"446":0.37585559487342834,"447":1.6491049528121948,"448":1.824485182762146,"449":2.693873643875122,"450":-0.6277371048927307,"451":0.9042922854423523,"452":4.24812650680542,"453":3.0384016036987305,"454":-0.9808006286621094,"455":-0.7858913540840149,"456":0.7686396837234497,"457":-0.6144660115242004,"458":0.879173755645752,"459":0.1663566380739212,"460":-1.5186529159545898,"461":-1.7005338668823242,"462":0.4632760286331177,"463":0.7389428615570068,"464":0.5293886065483093,"465":-0.11676029115915298,"466":-0.3540325164794922,"467":-0.7303069829940796,"468":1.4097609519958496,"469":-0.07261427491903305,"470":-0.24236121773719788,"471":1.9987047910690308,"472":0.188335582613945,"473":-3.163153648376465,"474":1.0357383489608765,"475":-0.6024124622344971,"476":-0.8362787961959839,"477":0.14427277445793152,"478":0.6173416376113892,"479":-2.179752826690674,"480":0.7155987024307251,"481":1.4303221702575684,"482":-0.715345561504364,"483":0.49128419160842896,"484":3.904944658279419,"485":0.6058889031410217,"486":2.248446464538574,"487":1.478731393814087,"488":-0.6555342674255371,"489":-0.8486974239349365,"490":1.1507501602172852,"491":0.3815465569496155,"492":1.5350228548049927,"493":1.2348421812057495,"494":0.6574721336364746,"495":1.4876505136489868,"496":-1.2381584644317627,"497":0.8860362768173218,"498":-0.576344907283783,"499":0.8448016047477722,"500":0.5748579502105713,"501":-0.07789572328329086,"502":-0.4517681300640106,"503":-0.034919559955596924,"504":-2.1132583618164062,"505":-0.6227225065231323,"506":0.8479642868041992,"507":0.8755385279655457,"508":2.1409149169921875,"509":2.917367696762085,"510":0.845052182674408,"511":-2.272710084915161,"512":3.0773673057556152,"513":2.1982765197753906,"514":1.4486438035964966,"515":2.7543516159057617,"516":-0.833266019821167,"517":-0.6462334394454956,"518":1.535096287727356,"519":2.4224817752838135,"520":2.34281325340271,"521":1.546751618385315,"522":-0.9865328073501587,"523":1.7389086484909058,"524":-1.2674450874328613,"525":-0.2821614444255829,"526":1.6544508934020996,"527":0.5307665467262268,"528":1.327411413192749,"529":-2.3689537048339844,"530":-0.1183289885520935,"531":3.3528778553009033,"532":-1.7715331315994263,"533":-1.7915868759155273,"534":0.8026256561279297,"535":4.057557106018066,"536":2.2523486614227295,"537":0.6318166255950928,"538":0.6292570233345032,"539":1.6440025568008423,"540":1.9947214126586914,"541":1.4791167974472046,"542":0.5522496700286865,"543":1.522017240524292,"544":-0.09196298569440842,"545":-0.28254568576812744,"546":0.9044682383537292,"547":1.6219260692596436,"548":0.5820326805114746,"549":-0.2876805365085602,"550":-1.153262972831726,"551":-0.7404426336288452,"552":-2.010100841522217,"553":-0.021992506459355354,"554":0.0037084324285387993,"555":-0.1097722128033638,"556":-1.0920524597167969,"557":-1.8239197731018066,"558":1.317349910736084,"559":3.3109042644500732,"560":3.336958646774292,"561":-0.9127199053764343,"562":-1.3484495878219604,"563":-2.4099011421203613,"564":1.2409865856170654,"565":3.819705009460449,"566":1.535120964050293,"567":1.0733779668807983,"568":2.1242835521698,"569":-1.523805856704712,"570":-0.021309247240424156,"571":-0.8937100768089294,"572":0.2018650621175766,"573":1.6435879468917847,"574":-0.4943176507949829,"575":1.1828770637512207,"576":-0.4343811273574829,"577":-0.05859118327498436,"578":-2.869852066040039,"579":5.760385513305664,"580":2.93481707572937,"581":-0.32272419333457947,"582":-1.1065270900726318,"583":-1.72746741771698,"584":1.1100298166275024,"585":0.9447627663612366,"586":-0.278240829706192,"587":-1.821018934249878,"588":0.6501522064208984,"589":-4.367678642272949,"590":-0.8120104074478149,"591":0.4586588740348816,"592":-3.8545126914978027,"593":-1.1514121294021606,"594":-0.26035594940185547,"595":-0.25519001483917236,"596":-0.31992125511169434,"597":-4.581315994262695,"598":4.507214546203613,"599":-2.0717074871063232,"600":4.453246116638184,"601":1.6602824926376343,"602":-5.215773105621338,"603":-1.1529293060302734,"604":0.3171670734882355,"605":-1.4780349731445312,"606":1.5990102291107178,"607":-4.5883002281188965,"608":3.9716386795043945,"609":-3.7164459228515625,"610":1.3995157480239868,"611":-2.32840633392334,"612":2.604135751724243,"613":0.9238319396972656,"614":-0.7921028733253479,"615":1.2008675336837769,"616":0.5512360334396362,"617":1.4021950960159302,"618":-1.0030004978179932,"619":-0.2783556878566742,"620":-3.314863920211792,"621":-0.5505308508872986,"622":-0.8826493620872498,"623":-2.1428720951080322,"624":-2.1268725395202637,"625":-0.560748815536499,"626":-1.5969630479812622,"627":-1.4181840419769287,"628":-0.8914656043052673,"629":-2.41125226020813,"630":-1.148544430732727,"631":0.2860795259475708,"632":-1.004813551902771,"633":1.6005494594573975,"634":4.242473602294922,"635":-1.4712913036346436,"636":-0.027158888056874275,"637":-0.6186556220054626,"638":-1.2312442064285278,"639":-1.3470265865325928,"640":-0.9796063303947449,"641":-0.38745182752609253,"642":-1.5405149459838867,"643":1.849537968635559,"644":-3.4951488971710205,"645":-1.3648616075515747,"646":2.1717095375061035,"647":-1.0890612602233887,"648":1.8926559686660767,"649":0.058561600744724274,"650":1.8120518922805786,"651":-1.2347195148468018,"652":1.7911255359649658,"653":0.27822500467300415,"654":1.867544174194336,"655":1.154858946800232,"656":1.9607480764389038,"657":-1.798113226890564,"658":1.1555174589157104,"659":-0.5161657929420471,"660":0.31096312403678894,"661":-0.2101651132106781,"662":-0.5911242961883545,"663":-2.332002639770508,"664":-0.7878865003585815,"665":1.0164018869400024,"666":1.5361359119415283,"667":1.7225463390350342,"668":0.21148686110973358,"669":-1.952141523361206,"670":1.1556081771850586,"671":-0.023893674835562706,"672":-1.303819179534912,"673":-2.569976568222046,"674":0.005953456275165081,"675":0.7906911373138428,"676":-2.2574243545532227,"677":-2.9498984813690186,"678":3.4574224948883057,"679":3.9890365600585938,"680":-1.522863507270813,"681":-0.2968476116657257,"682":1.0059484243392944,"683":-4.198719501495361,"684":3.69256329536438,"685":2.0351996421813965,"686":-4.316542148590088,"687":-0.653833270072937,"688":-0.04738571494817734,"689":-1.2356312274932861,"690":0.7188202738761902,"691":-1.3270124197006226,"692":2.764852285385132,"693":-2.8171207904815674,"694":-4.045258522033691,"695":-2.460350513458252,"696":2.158059597015381,"697":1.4573259353637695,"698":-1.658118724822998,"699":0.3451463282108307,"700":0.6571300029754639,"701":-2.828286647796631,"702":1.1190941333770752,"703":1.6580787897109985,"704":-0.7595851421356201,"705":-3.985869884490967,"706":1.1027510166168213,"707":3.1506595611572266,"708":-0.45350685715675354,"709":-2.8176324367523193,"710":1.9859631061553955,"711":0.02661467157304287,"712":0.17657209932804108,"713":0.7312244772911072,"714":-1.9487100839614868,"715":-0.6204164624214172,"716":-0.18610094487667084,"717":-0.41270682215690613,"718":1.2273913621902466,"719":-0.027496337890625,"720":0.1336420625448227,"721":-0.8908960223197937,"722":-2.288372755050659,"723":-1.2404590845108032,"724":0.07954143732786179,"725":-0.22427998483181,"726":-0.616155207157135,"727":-1.2664687633514404,"728":0.6528727412223816,"729":1.3050373792648315,"730":-1.1430659294128418,"731":0.14470040798187256,"732":-0.5600641369819641,"733":0.21807974576950073,"734":-2.7353720664978027,"735":-1.7645710706710815,"736":1.5012526512145996,"737":1.4798076152801514,"738":-2.8192505836486816,"739":0.5776262283325195,"740":-2.263490676879883,"741":-2.3047773838043213,"742":-0.31055018305778503,"743":1.808283805847168,"744":0.627987802028656,"745":-0.1834903210401535,"746":-1.0675034523010254,"747":-1.4908745288848877,"748":0.2230256199836731,"749":2.485945701599121,"750":1.146789312362671,"751":2.88765549659729,"752":-0.9156953692436218,"753":-0.8878797888755798,"754":1.166029453277588,"755":0.10750856250524521,"756":-1.2612119913101196,"757":-1.4796701669692993,"758":1.005268931388855,"759":1.0589919090270996,"760":-0.5537747144699097,"761":-1.6705200672149658,"762":-0.5034894943237305,"763":1.9057830572128296,"764":0.0321885347366333,"765":1.2614737749099731,"766":0.4891394376754761,"767":-0.39612364768981934,"768":-1.4892295598983765,"769":2.511463165283203,"770":1.6441235542297363,"771":-0.003119763918220997,"772":1.0017130374908447,"773":-0.9165398478507996,"774":0.1921745389699936,"775":-0.35628634691238403,"776":-2.719136953353882,"777":0.24192418158054352,"778":0.599102258682251,"779":-2.957381010055542,"780":-1.8948436975479126,"781":1.868897795677185,"782":-1.1055060625076294,"783":2.03977108001709,"784":0.032159797847270966,"785":0.025746678933501244,"786":0.06227439269423485,"787":0.0460779182612896,"788":0.0369567796587944,"789":-0.009513024240732193,"790":0.010364854708313942,"791":0.03608694672584534,"792":-0.07398337870836258,"793":0.0419808104634285,"794":0.01797771267592907,"795":-0.0558258593082428,"796":-0.030643044039607048,"797":-0.036382708698511124,"798":0.07168678194284439,"799":0.06766577064990997,"800":0.014685089699923992,"801":-0.0031345896422863007,"802":-0.07102134823799133,"803":0.025576312094926834,"804":0.03724544867873192,"805":0.003783588297665119,"806":-0.0617501474916935,"807":0.008903233334422112,"808":-0.020929472520947456,"809":-0.05959073454141617,"810":0.03453389182686806,"811":0.01173428725451231}},"hiddenLayers":[{"updateGateInputMatrix":{"rows":20,"columns":28,"weights":{"0":0.8229969143867493,"1":-2.044133186340332,"2":-0.4049103260040283,"3":-0.04719087481498718,"4":-3.1407275199890137,"5":-2.7310657501220703,"6":-0.45021533966064453,"7":-1.741681694984436,"8":-0.6384947896003723,"9":-1.3629294633865356,"10":-0.34537583589553833,"11":-1.5872018337249756,"12":-0.4279029369354248,"13":2.2150752544403076,"14":-0.8196132779121399,"15":0.9284812808036804,"16":0.21280384063720703,"17":-0.7265768051147461,"18":1.1608704328536987,"19":0.876640796661377,"20":0.5648691654205322,"21":-0.7841848134994507,"22":-0.7807655930519104,"23":-3.112494945526123,"24":-0.46234431862831116,"25":2.601989507675171,"26":0.25389668345451355,"27":1.0571155548095703,"28":-0.9720683097839355,"29":1.4153451919555664,"30":-0.2272246927022934,"31":1.48797607421875,"32":-2.695901870727539,"33":-1.5248311758041382,"34":-0.0358794704079628,"35":1.4153786897659302,"36":-1.155916452407837,"37":-1.069615364074707,"38":-0.47943705320358276,"39":-1.8043389320373535,"40":-0.07549211382865906,"41":2.2663071155548096,"42":-0.8877687454223633,"43":-1.7582004070281982,"44":-1.0978516340255737,"45":-0.03286781907081604,"46":1.3777071237564087,"47":-1.6142677068710327,"48":1.2104371786117554,"49":-1.587119698524475,"50":-0.474295973777771,"51":-1.0732777118682861,"52":-2.3932888507843018,"53":1.3794431686401367,"54":-0.7435850501060486,"55":0.9787570834159851,"56":-1.2229515314102173,"57":2.642343759536743,"58":1.379497766494751,"59":-2.924170732498169,"60":1.3699445724487305,"61":3.2421915531158447,"62":1.494526743888855,"63":-2.535529851913452,"64":-0.4668802320957184,"65":-2.5656955242156982,"66":-1.8017635345458984,"67":-1.0504021644592285,"68":0.38750314712524414,"69":-3.797023296356201,"70":-0.2034335732460022,"71":-2.3702192306518555,"72":-1.1866040229797363,"73":1.394800066947937,"74":-0.6494321823120117,"75":0.7962430715560913,"76":-0.14897185564041138,"77":1.0505266189575195,"78":1.3252147436141968,"79":3.6002097129821777,"80":-0.15742309391498566,"81":-1.2771415710449219,"82":2.1352345943450928,"83":-1.3078118562698364,"84":1.782344102859497,"85":1.3706120252609253,"86":-2.451568365097046,"87":1.2492737770080566,"88":-1.4390606880187988,"89":-0.9104620218276978,"90":-0.698935329914093,"91":1.609668493270874,"92":-0.12578944861888885,"93":2.676791191101074,"94":-0.06613792479038239,"95":0.7190751433372498,"96":-0.6704376339912415,"97":-0.019622743129730225,"98":-1.9475276470184326,"99":1.730996012687683,"100":-0.22909031808376312,"101":-0.5422542691230774,"102":0.41516348719596863,"103":-0.8458178639411926,"104":1.2192628383636475,"105":-1.0934276580810547,"106":-1.5129952430725098,"107":0.4298170804977417,"108":1.523734450340271,"109":-1.5147112607955933,"110":-1.883980393409729,"111":-2.1941263675689697,"112":2.3922009468078613,"113":0.4953377842903137,"114":1.0028122663497925,"115":0.05017111450433731,"116":1.2336057424545288,"117":2.41506028175354,"118":-2.742546558380127,"119":0.841767430305481,"120":2.218555212020874,"121":0.6293068528175354,"122":-0.5345942378044128,"123":-2.1447033882141113,"124":-1.2244925498962402,"125":-2.0883262157440186,"126":0.9467133283615112,"127":0.35973942279815674,"128":1.3581743240356445,"129":1.8039333820343018,"130":0.07756022363901138,"131":2.490318536758423,"132":0.9961535930633545,"133":-1.0315848588943481,"134":3.646148681640625,"135":0.3653966784477234,"136":-0.2542369067668915,"137":-0.37224823236465454,"138":-1.3780936002731323,"139":1.4294072389602661,"140":2.94435453414917,"141":-1.481902837753296,"142":0.9016945958137512,"143":-0.02779141440987587,"144":-0.784910261631012,"145":-1.0626904964447021,"146":1.4728485345840454,"147":-0.578741192817688,"148":-1.1814366579055786,"149":-0.22523941099643707,"150":-0.2376725971698761,"151":-0.5584513545036316,"152":-0.8557682037353516,"153":4.218836307525635,"154":-0.3278582990169525,"155":0.010376940481364727,"156":-2.098879098892212,"157":-2.970327615737915,"158":1.3386081457138062,"159":0.12692905962467194,"160":-0.13321708142757416,"161":-2.826082706451416,"162":1.3071465492248535,"163":-4.3766188621521,"164":0.26581010222435,"165":1.5615798234939575,"166":-1.457658052444458,"167":-1.3880314826965332,"168":2.0072028636932373,"169":0.6620808839797974,"170":-0.7633575797080994,"171":1.388399362564087,"172":2.3110504150390625,"173":-0.062171489000320435,"174":1.5401901006698608,"175":0.7229412794113159,"176":-2.51426100730896,"177":-1.391890525817871,"178":-0.2791236340999603,"179":-1.2747057676315308,"180":1.6278302669525146,"181":0.191137433052063,"182":-1.596041202545166,"183":-1.1188956499099731,"184":-0.2846546471118927,"185":0.3852028548717499,"186":-0.40933021903038025,"187":0.7174459099769592,"188":2.316774845123291,"189":0.31240344047546387,"190":-3.141660451889038,"191":-0.15557949244976044,"192":2.0206801891326904,"193":-0.173379585146904,"194":-0.28527259826660156,"195":-1.82048499584198,"196":-1.616377353668213,"197":-0.25308820605278015,"198":-0.15145747363567352,"199":-2.270540237426758,"200":-0.9292381405830383,"201":-0.22754943370819092,"202":-0.8680875897407532,"203":-0.8936202526092529,"204":-0.00025597415515221655,"205":0.1936149001121521,"206":-0.2939244210720062,"207":-0.423753023147583,"208":2.0885300636291504,"209":-1.2459567785263062,"210":-0.23787173628807068,"211":-1.8024652004241943,"212":0.6112768054008484,"213":0.4415759742259979,"214":-2.5050292015075684,"215":-0.39822250604629517,"216":-0.16642317175865173,"217":3.6061227321624756,"218":0.4984128475189209,"219":1.5732102394104004,"220":-1.568982481956482,"221":-0.3824671506881714,"222":2.179791212081909,"223":-1.9292248487472534,"224":-2.13789701461792,"225":-2.8854172229766846,"226":0.45348650217056274,"227":1.1869860887527466,"228":0.3052643835544586,"229":-0.314324289560318,"230":1.0984594821929932,"231":0.5299641489982605,"232":3.2717254161834717,"233":-0.419127881526947,"234":1.0765620470046997,"235":-0.5558139681816101,"236":0.7383150458335876,"237":1.644851803779602,"238":-2.4070253372192383,"239":0.16611188650131226,"240":0.8774316310882568,"241":-1.2257578372955322,"242":3.164026975631714,"243":-0.9301643371582031,"244":-0.5343624949455261,"245":-1.6227234601974487,"246":1.3604376316070557,"247":-1.2739990949630737,"248":1.1041250228881836,"249":0.39208054542541504,"250":-2.3550546169281006,"251":2.7425172328948975,"252":3.123500347137451,"253":2.362243175506592,"254":-1.8164393901824951,"255":-2.3940439224243164,"256":0.4864848256111145,"257":2.3905038833618164,"258":0.8711466193199158,"259":-1.81986403465271,"260":0.11064174771308899,"261":-0.25790292024612427,"262":-2.5618884563446045,"263":-0.015054155141115189,"264":-3.049745559692383,"265":-1.0377658605575562,"266":-0.20613904297351837,"267":1.6538606882095337,"268":0.026182744652032852,"269":0.019370118156075478,"270":0.7111049890518188,"271":2.725602865219116,"272":1.3659285306930542,"273":0.6129400730133057,"274":1.2154028415679932,"275":1.1810340881347656,"276":-0.27286961674690247,"277":0.9426037669181824,"278":0.309661328792572,"279":0.46445220708847046,"280":-0.27136892080307007,"281":-2.4987261295318604,"282":1.195774793624878,"283":1.449241042137146,"284":0.28709906339645386,"285":-0.43185707926750183,"286":0.44828036427497864,"287":0.7589772343635559,"288":-0.08452621847391129,"289":-0.8595672845840454,"290":0.7492755651473999,"291":0.4484487473964691,"292":-0.03558153286576271,"293":1.5337997674942017,"294":-1.8180934190750122,"295":0.3083822429180145,"296":0.6919388771057129,"297":-0.853448748588562,"298":-0.6332882046699524,"299":1.0716389417648315,"300":0.005682860501110554,"301":-0.499820739030838,"302":0.13196487724781036,"303":-2.6383869647979736,"304":1.6982426643371582,"305":0.49899864196777344,"306":-2.5767629146575928,"307":-0.8275710940361023,"308":2.0985400676727295,"309":-0.023474063724279404,"310":-1.5159837007522583,"311":0.27238065004348755,"312":-2.2498128414154053,"313":-0.9963104724884033,"314":1.1454881429672241,"315":0.03644973412156105,"316":-1.5554860830307007,"317":-2.070590019226074,"318":-0.5238346457481384,"319":-0.32953497767448425,"320":1.177397608757019,"321":0.9008510112762451,"322":-2.0084307193756104,"323":0.27687814831733704,"324":-1.995544195175171,"325":-0.04894023388624191,"326":2.365983009338379,"327":-0.11236140131950378,"328":2.352299928665161,"329":-1.751620888710022,"330":-1.0982505083084106,"331":-0.3760612905025482,"332":0.6423551440238953,"333":-0.22642618417739868,"334":-1.2926520109176636,"335":-1.4323921203613281,"336":1.4719287157058716,"337":-1.7608680725097656,"338":-1.900659203529358,"339":-0.6392861008644104,"340":-0.76319819688797,"341":0.12520042061805725,"342":0.12385391443967819,"343":2.3954555988311768,"344":0.10915759205818176,"345":-1.2341222763061523,"346":-0.10143376141786575,"347":-0.8134943246841431,"348":2.3855841159820557,"349":-0.3767467737197876,"350":0.3442832827568054,"351":-1.9245331287384033,"352":0.20412325859069824,"353":1.2427655458450317,"354":0.6956965923309326,"355":0.3042997717857361,"356":1.9877303838729858,"357":-0.5600572228431702,"358":-0.8100027441978455,"359":-1.5078550577163696,"360":-0.24413061141967773,"361":0.2750210762023926,"362":-1.469681978225708,"363":-2.4665307998657227,"364":0.33536019921302795,"365":2.6680405139923096,"366":0.7568212747573853,"367":0.1483193337917328,"368":1.2712643146514893,"369":1.6181144714355469,"370":3.9434800148010254,"371":0.10589899867773056,"372":-0.29977136850357056,"373":-1.323434829711914,"374":-0.6672384142875671,"375":-1.150190830230713,"376":0.7007718086242676,"377":-0.22415532171726227,"378":1.9200081825256348,"379":-0.43957197666168213,"380":-1.8692433834075928,"381":-0.7723036408424377,"382":1.532333493232727,"383":-1.4712589979171753,"384":1.6580244302749634,"385":-1.6825693845748901,"386":-1.3063136339187622,"387":2.520737648010254,"388":1.3824316263198853,"389":-2.0546958446502686,"390":1.0799367427825928,"391":-1.8400825262069702,"392":-0.9992557764053345,"393":0.24972720444202423,"394":1.0980943441390991,"395":-2.6639404296875,"396":-2.527798891067505,"397":-2.482579231262207,"398":-1.3326143026351929,"399":3.154515266418457,"400":-0.7921534776687622,"401":0.6190133094787598,"402":0.13037043809890747,"403":2.094742774963379,"404":-0.6912427544593811,"405":1.4047750234603882,"406":-0.2814768850803375,"407":-2.0398597717285156,"408":0.3413994610309601,"409":0.2309577763080597,"410":0.7403206825256348,"411":0.10303034633398056,"412":-0.3405088484287262,"413":-2.350619077682495,"414":0.9498614072799683,"415":-2.3625400066375732,"416":-2.5783941745758057,"417":2.4519460201263428,"418":-1.500549554824829,"419":3.3336336612701416,"420":2.322930097579956,"421":1.0764638185501099,"422":-2.943601369857788,"423":-1.0716034173965454,"424":-1.3780165910720825,"425":-2.03901743888855,"426":-1.1216233968734741,"427":-2.2899606227874756,"428":-1.7588324546813965,"429":2.830632448196411,"430":-1.948906660079956,"431":2.0577759742736816,"432":-2.0039501190185547,"433":2.5168232917785645,"434":0.0663742944598198,"435":0.9768049716949463,"436":-1.5449295043945312,"437":-0.6522048711776733,"438":0.6838756203651428,"439":-1.0072320699691772,"440":-2.3366904258728027,"441":2.513025999069214,"442":0.2706947922706604,"443":-1.0534121990203857,"444":-2.5841786861419678,"445":1.4224739074707031,"446":-0.32154732942581177,"447":-0.1685781031847,"448":0.4123597741127014,"449":0.6190413236618042,"450":0.3616768717765808,"451":-0.5208435654640198,"452":-0.773708164691925,"453":-0.3862026631832123,"454":-0.8411555290222168,"455":2.170576333999634,"456":-1.2815314531326294,"457":0.2810842990875244,"458":-0.6796442866325378,"459":-1.1857258081436157,"460":0.7701559066772461,"461":1.4355148077011108,"462":-0.6254462599754333,"463":0.6909888982772827,"464":0.05535189062356949,"465":-0.331667423248291,"466":-3.032982110977173,"467":0.3972260653972626,"468":0.7408735156059265,"469":-0.22036941349506378,"470":-1.5021171569824219,"471":-0.8897969722747803,"472":1.4614697694778442,"473":0.8235994577407837,"474":0.4120381474494934,"475":-1.9279041290283203,"476":-2.8253071308135986,"477":-0.4548322260379791,"478":2.093026638031006,"479":-1.6722419261932373,"480":-0.6786043643951416,"481":1.0138529539108276,"482":-0.19164520502090454,"483":0.39154019951820374,"484":0.823728621006012,"485":-2.740908622741699,"486":0.5169460773468018,"487":-0.6027840375900269,"488":1.2266125679016113,"489":-1.7446280717849731,"490":-1.4726289510726929,"491":-0.6660954356193542,"492":0.5103286504745483,"493":0.122902512550354,"494":2.3411171436309814,"495":-0.9723745584487915,"496":0.4278867840766907,"497":-0.09058056026697159,"498":-0.5249508023262024,"499":-0.017700321972370148,"500":2.889488697052002,"501":0.19374701380729675,"502":0.12344615161418915,"503":-1.2680758237838745,"504":0.6344910264015198,"505":0.5339640378952026,"506":-0.2679896354675293,"507":-2.912341356277466,"508":-0.7791866660118103,"509":-0.9845240712165833,"510":-3.197887420654297,"511":3.5759286880493164,"512":1.4683486223220825,"513":0.07776698470115662,"514":0.5548145771026611,"515":1.0860850811004639,"516":-2.128657341003418,"517":0.35930904746055603,"518":0.7915884256362915,"519":-1.0737380981445312,"520":-0.6005969643592834,"521":0.2766489088535309,"522":-0.31133323907852173,"523":1.392653465270996,"524":1.1066862344741821,"525":0.2502783238887787,"526":0.8935341835021973,"527":-0.028240133076906204,"528":-2.617321252822876,"529":2.8208463191986084,"530":-1.7577910423278809,"531":-0.4983711242675781,"532":0.81319260597229,"533":0.9183669090270996,"534":-1.4161114692687988,"535":-1.16392183303833,"536":-1.124340295791626,"537":0.2897898852825165,"538":0.34041932225227356,"539":-1.7488001585006714,"540":-0.8681482076644897,"541":-1.4229843616485596,"542":0.1021694764494896,"543":-0.6171274185180664,"544":0.8726404905319214,"545":-0.4320545196533203,"546":-0.4849933385848999,"547":-0.11243672668933868,"548":-0.7930814027786255,"549":0.5893324017524719,"550":-0.3341185748577118,"551":0.021163908764719963,"552":1.7286325693130493,"553":0.3173694312572479,"554":-2.403625726699829,"555":-0.5697490572929382,"556":0.9520735740661621,"557":2.093832015991211,"558":1.690536618232727,"559":-1.373659610748291}},"updateGateHiddenMatrix":{"rows":20,"columns":20,"weights":{"0":-0.27369534969329834,"1":0.163873091340065,"2":-2.51798415184021,"3":0.665359616279602,"4":-1.7437933683395386,"5":0.8257483839988708,"6":-0.9157893657684326,"7":1.2465544939041138,"8":0.3906594514846802,"9":-2.4355549812316895,"10":2.460742235183716,"11":-0.3933110535144806,"12":-0.3889461159706116,"13":-0.101546511054039,"14":-4.159623622894287,"15":-0.3553541898727417,"16":-1.9407581090927124,"17":-1.0398920774459839,"18":-0.12316132336854935,"19":-0.9342405796051025,"20":-0.35883498191833496,"21":-3.224050283432007,"22":1.6907862424850464,"23":2.897592782974243,"24":-1.8247021436691284,"25":-0.4021804928779602,"26":2.139345169067383,"27":-2.5308916568756104,"28":-1.0938389301300049,"29":-0.5570390820503235,"30":-1.3415303230285645,"31":1.7845818996429443,"32":-0.6982442140579224,"33":-1.6117119789123535,"34":-0.8510644435882568,"35":-1.1740353107452393,"36":1.560287594795227,"37":-2.5012893676757812,"38":-1.0911506414413452,"39":1.8818713426589966,"40":-0.09275846928358078,"41":0.3200989365577698,"42":-2.5235471725463867,"43":2.8600690364837646,"44":-2.3691444396972656,"45":1.1826303005218506,"46":-0.5929625034332275,"47":1.6217012405395508,"48":-1.9250489473342896,"49":0.9939366579055786,"50":0.25702741742134094,"51":-0.6126610636711121,"52":-1.4602230787277222,"53":1.698752522468567,"54":-0.790091335773468,"55":-1.4061954021453857,"56":1.1801373958587646,"57":2.150299549102783,"58":0.711471438407898,"59":-0.9513503909111023,"60":0.3855396509170532,"61":-2.4781031608581543,"62":2.0156209468841553,"63":-0.04013882949948311,"64":-2.316498041152954,"65":-1.9314732551574707,"66":-0.7522674798965454,"67":-0.7541822195053101,"68":-0.7243112325668335,"69":0.2492990493774414,"70":0.4612353444099426,"71":1.499193787574768,"72":-2.143259286880493,"73":2.328751564025879,"74":2.944520950317383,"75":-1.0911380052566528,"76":0.9460039734840393,"77":1.7088443040847778,"78":-2.134711503982544,"79":2.3848304748535156,"80":1.1551179885864258,"81":1.5504119396209717,"82":-1.2589062452316284,"83":0.8374078869819641,"84":3.135887384414673,"85":-2.5121686458587646,"86":-0.5085341334342957,"87":-1.745259165763855,"88":-1.717478632926941,"89":-0.06596113741397858,"90":-1.401655912399292,"91":-0.06337147951126099,"92":0.0827256441116333,"93":3.183729410171509,"94":-2.659196615219116,"95":1.6543982028961182,"96":0.12231171131134033,"97":-1.2501683235168457,"98":1.1267890930175781,"99":0.6205548644065857,"100":-0.9626922607421875,"101":0.6453479528427124,"102":-0.4628739356994629,"103":3.280012369155884,"104":0.6700120568275452,"105":-0.5489903688430786,"106":-0.37912625074386597,"107":0.4730658233165741,"108":1.2790108919143677,"109":0.480904221534729,"110":-1.1633230447769165,"111":0.26915913820266724,"112":-0.02632756717503071,"113":-1.3293737173080444,"114":0.9564657807350159,"115":-1.3627420663833618,"116":0.8285582661628723,"117":0.8499860763549805,"118":0.47289302945137024,"119":1.6640300750732422,"120":-1.7921375036239624,"121":-1.0493628978729248,"122":-0.5903553366661072,"123":2.4108591079711914,"124":0.2666443884372711,"125":1.7161216735839844,"126":-1.926900029182434,"127":1.1279480457305908,"128":1.5988218784332275,"129":0.9421113729476929,"130":1.2180148363113403,"131":-1.8051776885986328,"132":-2.0266761779785156,"133":1.4034194946289062,"134":-0.04580462723970413,"135":-1.3825671672821045,"136":-0.40008166432380676,"137":1.787937045097351,"138":-0.6234461069107056,"139":-0.10861320048570633,"140":-1.1545658111572266,"141":-2.148813486099243,"142":-1.9064642190933228,"143":1.1073282957077026,"144":0.2833266854286194,"145":-1.7515971660614014,"146":2.2212109565734863,"147":0.7869412302970886,"148":-0.2373381406068802,"149":-2.8309030532836914,"150":0.6142441630363464,"151":2.61262845993042,"152":1.881245493888855,"153":1.904094934463501,"154":1.516131043434143,"155":0.7535926103591919,"156":-2.912693977355957,"157":-0.15805363655090332,"158":0.8282309174537659,"159":-3.181436538696289,"160":-1.2146008014678955,"161":1.2147066593170166,"162":0.49745550751686096,"163":1.4152765274047852,"164":0.5873534083366394,"165":0.6305814981460571,"166":-1.1600545644760132,"167":-1.453021764755249,"168":-0.9333018660545349,"169":-0.3795378804206848,"170":1.648275375366211,"171":1.6262762546539307,"172":-1.7252743244171143,"173":-3.869889974594116,"174":-0.704377293586731,"175":1.0830129384994507,"176":2.8078768253326416,"177":-1.920686960220337,"178":-1.387627124786377,"179":2.3478260040283203,"180":-2.0091395378112793,"181":-0.6894241571426392,"182":-0.7953041195869446,"183":2.028956651687622,"184":-0.3564399182796478,"185":1.8029855489730835,"186":-3.5087571144104004,"187":1.0060573816299438,"188":-1.3285330533981323,"189":0.9670592546463013,"190":1.6423101425170898,"191":-0.8760064840316772,"192":-1.338658332824707,"193":-2.1919102668762207,"194":-0.35095685720443726,"195":-1.4503023624420166,"196":-1.9558523893356323,"197":0.4489859938621521,"198":1.2529760599136353,"199":0.31283268332481384,"200":-2.2095704078674316,"201":2.566218852996826,"202":-0.36442771553993225,"203":-0.533198356628418,"204":-1.6000776290893555,"205":2.0160367488861084,"206":0.11391473561525345,"207":-1.215489149093628,"208":-0.22799524664878845,"209":0.1352393478155136,"210":1.1876425743103027,"211":-1.7330760955810547,"212":0.19490477442741394,"213":1.386366605758667,"214":-3.1105425357818604,"215":-4.399606704711914,"216":-1.8059580326080322,"217":1.9296852350234985,"218":0.6629433631896973,"219":-1.648498296737671,"220":-1.3145023584365845,"221":2.237952947616577,"222":-0.5630624294281006,"223":-0.3284588158130646,"224":-0.3808639645576477,"225":2.569549322128296,"226":-0.250507652759552,"227":1.3971301317214966,"228":0.24430714547634125,"229":-0.8520171642303467,"230":2.031794548034668,"231":-3.7384912967681885,"232":-1.2090626955032349,"233":-1.2865959405899048,"234":-1.0358216762542725,"235":-1.669369101524353,"236":-2.4624998569488525,"237":1.0031145811080933,"238":0.8616735339164734,"239":1.185293436050415,"240":-1.7741485834121704,"241":1.4652488231658936,"242":2.3385941982269287,"243":-0.2656570076942444,"244":-0.4360540211200714,"245":0.4653455317020416,"246":3.0567915439605713,"247":0.2867010533809662,"248":2.6085591316223145,"249":-0.25193479657173157,"250":0.8408055901527405,"251":0.2701070308685303,"252":0.015620555728673935,"253":0.6521922945976257,"254":-4.8736186027526855,"255":1.8385376930236816,"256":0.21791087090969086,"257":-2.6483588218688965,"258":0.39933258295059204,"259":0.47536006569862366,"260":0.5848363041877747,"261":-0.21174700558185577,"262":0.3331048786640167,"263":0.7529609799385071,"264":2.0059282779693604,"265":0.9066743850708008,"266":1.541953444480896,"267":-0.9245594143867493,"268":0.9507882595062256,"269":1.1323258876800537,"270":-0.9512073397636414,"271":0.7921226024627686,"272":1.6607835292816162,"273":1.8434032201766968,"274":-0.424885630607605,"275":-0.4180071949958801,"276":0.7187312841415405,"277":-1.1797153949737549,"278":1.6413168907165527,"279":0.30230212211608887,"280":2.6693408489227295,"281":-1.22490394115448,"282":-1.105381727218628,"283":-0.9444113373756409,"284":0.37952375411987305,"285":-1.5527591705322266,"286":2.039088010787964,"287":-2.1959142684936523,"288":0.01705053448677063,"289":-0.3084537982940674,"290":-2.5006978511810303,"291":2.2452735900878906,"292":-0.15408098697662354,"293":2.1443514823913574,"294":2.280569553375244,"295":0.8137536644935608,"296":-2.740521192550659,"297":0.4445454180240631,"298":2.331214666366577,"299":-0.1584167778491974,"300":-3.157379388809204,"301":-1.2067010402679443,"302":-0.19593438506126404,"303":-0.44315657019615173,"304":0.7452734112739563,"305":-1.1208959817886353,"306":1.9123339653015137,"307":-0.7900166511535645,"308":1.1892162561416626,"309":0.8215581774711609,"310":0.8473872542381287,"311":1.0559487342834473,"312":0.5826172232627869,"313":0.7844502925872803,"314":0.10431263595819473,"315":-0.019261077046394348,"316":1.369140625,"317":1.4036848545074463,"318":-1.291553020477295,"319":-0.5506753921508789,"320":2.357745885848999,"321":-1.6160366535186768,"322":0.0281060803681612,"323":-1.016289234161377,"324":-1.019142985343933,"325":-0.6750704646110535,"326":1.410156011581421,"327":0.8468029499053955,"328":0.7287073731422424,"329":-1.7135510444641113,"330":-5.692455768585205,"331":1.8836936950683594,"332":-0.0427926704287529,"333":1.3106509447097778,"334":0.20548634231090546,"335":0.7664011120796204,"336":-4.538865566253662,"337":-0.30648747086524963,"338":-2.3426551818847656,"339":1.6248250007629395,"340":-0.3081819713115692,"341":-4.477366924285889,"342":3.1816399097442627,"343":1.6031254529953003,"344":1.5302350521087646,"345":-2.4580531120300293,"346":1.6944304704666138,"347":-2.1711480617523193,"348":-2.4161386489868164,"349":0.8826468586921692,"350":-0.5097282528877258,"351":0.5411128401756287,"352":0.8324751853942871,"353":-1.9836571216583252,"354":2.3340210914611816,"355":-0.5445407629013062,"356":0.8655967116355896,"357":0.8354433178901672,"358":-0.6705171465873718,"359":2.052375078201294,"360":-1.5702075958251953,"361":1.9180207252502441,"362":0.5480955839157104,"363":1.2594794034957886,"364":-1.5518261194229126,"365":0.5376979112625122,"366":0.6103964447975159,"367":-1.0060486793518066,"368":0.37343472242355347,"369":-1.4630918502807617,"370":2.091184139251709,"371":-0.33931997418403625,"372":1.6198304891586304,"373":1.3897756338119507,"374":-2.283539056777954,"375":2.6680071353912354,"376":-0.13253018260002136,"377":-0.9864412546157837,"378":-3.098867893218994,"379":-2.027597665786743,"380":-3.6361641883850098,"381":-1.1101046800613403,"382":3.8689897060394287,"383":-2.027961254119873,"384":-2.293480396270752,"385":0.5520124435424805,"386":0.8642573356628418,"387":1.7067666053771973,"388":-1.8475967645645142,"389":1.0879464149475098,"390":0.8372893929481506,"391":1.3785865306854248,"392":-2.6767618656158447,"393":-3.455359697341919,"394":-0.550449550151825,"395":-0.0988527238368988,"396":-2.5611801147460938,"397":0.505845844745636,"398":1.2857924699783325,"399":-1.0880279541015625}},"updateGateBias":{"rows":20,"columns":1,"weights":{"0":0,"1":0,"2":0,"3":0,"4":0,"5":0,"6":0,"7":0,"8":0,"9":0,"10":0,"11":0,"12":0,"13":0,"14":0,"15":0,"16":0,"17":0,"18":0,"19":0}},"resetGateInputMatrix":{"rows":20,"columns":28,"weights":{"0":1.8507899045944214,"1":2.237722635269165,"2":-0.038541071116924286,"3":-1.1242828369140625,"4":-2.3749442100524902,"5":0.15686939656734467,"6":0.4249645173549652,"7":0.5084633827209473,"8":-2.4164018630981445,"9":-0.1413588970899582,"10":-1.8102796077728271,"11":1.4419010877609253,"12":-1.6062875986099243,"13":-0.14432041347026825,"14":-0.2653675079345703,"15":1.343239665031433,"16":-2.1049137115478516,"17":-1.2133862972259521,"18":1.1767222881317139,"19":-0.8373264670372009,"20":1.2561661005020142,"21":1.4749181270599365,"22":-0.5272865891456604,"23":0.8285424113273621,"24":-1.366890788078308,"25":-0.020943602547049522,"26":1.3850864171981812,"27":-2.2373483180999756,"28":1.4805086851119995,"29":2.6338915824890137,"30":-1.7898786067962646,"31":-2.7895491123199463,"32":1.8844783306121826,"33":2.235600233078003,"34":2.417663097381592,"35":-2.18941593170166,"36":0.5393080115318298,"37":1.4597734212875366,"38":0.4521327018737793,"39":1.6338374614715576,"40":-0.2455105483531952,"41":-1.4228520393371582,"42":-0.20824451744556427,"43":-0.644856333732605,"44":-0.06998240947723389,"45":1.925561785697937,"46":1.7593764066696167,"47":1.9230443239212036,"48":0.5767298340797424,"49":-0.788749098777771,"50":-0.04674466699361801,"51":3.537057399749756,"52":-0.40866759419441223,"53":-1.9831352233886719,"54":2.317955493927002,"55":3.3971095085144043,"56":-1.6768596172332764,"57":-0.5454136729240417,"58":3.4642598628997803,"59":0.26966729760169983,"60":0.7454506158828735,"61":-0.12508422136306763,"62":-0.2878313660621643,"63":0.47788429260253906,"64":0.9986189603805542,"65":1.120259165763855,"66":1.623521089553833,"67":-0.436460018157959,"68":-1.6807891130447388,"69":-0.3061988055706024,"70":0.18629713356494904,"71":0.051469188183546066,"72":1.323045015335083,"73":0.15719817578792572,"74":-1.7031910419464111,"75":-0.9616254568099976,"76":-1.705199122428894,"77":-1.144761323928833,"78":-0.022999560460448265,"79":-0.3474932610988617,"80":-1.5782965421676636,"81":0.15015999972820282,"82":1.5540541410446167,"83":0.28240856528282166,"84":1.1234859228134155,"85":1.886191964149475,"86":-0.8170252442359924,"87":1.7604767084121704,"88":0.1093580424785614,"89":1.5053949356079102,"90":-1.0080910921096802,"91":-0.9508143067359924,"92":-1.5076215267181396,"93":0.1485947072505951,"94":-2.1575939655303955,"95":-1.2534432411193848,"96":0.5028722286224365,"97":-0.8134765625,"98":0.8255007863044739,"99":-1.2213854789733887,"100":0.3217011094093323,"101":-0.8333680629730225,"102":0.3266046345233917,"103":-0.9052019715309143,"104":-0.5414764285087585,"105":2.0991570949554443,"106":0.17426593601703644,"107":-0.6680855751037598,"108":-1.9481348991394043,"109":-1.8842672109603882,"110":2.82114315032959,"111":-0.5685944557189941,"112":1.6308679580688477,"113":0.1388094425201416,"114":0.08372918516397476,"115":-0.07171957939863205,"116":-0.34390130639076233,"117":0.10532525926828384,"118":-2.1245510578155518,"119":-0.913322389125824,"120":0.1887039691209793,"121":-0.9269084334373474,"122":-2.3874361515045166,"123":-0.6659584641456604,"124":-1.6639460325241089,"125":0.8118983507156372,"126":-0.46062278747558594,"127":1.0333867073059082,"128":0.6929018497467041,"129":-0.6848655939102173,"130":0.1188240572810173,"131":1.2984647750854492,"132":-1.2627997398376465,"133":1.9774857759475708,"134":2.131533622741699,"135":-0.14641863107681274,"136":0.2323501706123352,"137":0.3564417064189911,"138":1.344308853149414,"139":0.23809181153774261,"140":-1.5150362253189087,"141":0.33061426877975464,"142":1.0968655347824097,"143":0.1275540143251419,"144":0.946585476398468,"145":-1.6126219034194946,"146":-1.156581997871399,"147":-0.781247079372406,"148":1.703204870223999,"149":-0.7182379364967346,"150":0.4794171452522278,"151":-0.5970906019210815,"152":-1.2651562690734863,"153":-1.0439894199371338,"154":-0.6969282627105713,"155":0.1965402215719223,"156":2.403071165084839,"157":-0.9273101687431335,"158":-1.726830244064331,"159":-0.007172171957790852,"160":0.5853406190872192,"161":2.83636736869812,"162":-0.038999807089567184,"163":1.3857002258300781,"164":-0.758649468421936,"165":0.2508791983127594,"166":2.663564920425415,"167":-1.8808146715164185,"168":-0.4039267301559448,"169":1.1280722618103027,"170":-0.7709426879882812,"171":-0.02610517106950283,"172":0.1411212533712387,"173":0.4512862265110016,"174":-0.11078032851219177,"175":-0.5667577981948853,"176":0.608246922492981,"177":0.5618910193443298,"178":0.5870494246482849,"179":1.0023468732833862,"180":-1.189864158630371,"181":2.221031904220581,"182":0.24749277532100677,"183":-0.2059372514486313,"184":-0.3103059232234955,"185":0.968826413154602,"186":-0.2557726204395294,"187":-1.2864793539047241,"188":-0.9588419198989868,"189":-0.756985604763031,"190":0.3151622414588928,"191":0.14466556906700134,"192":1.5248488187789917,"193":1.4481250047683716,"194":-1.8652703762054443,"195":-1.2968748807907104,"196":1.303059697151184,"197":1.1107293367385864,"198":0.03050495684146881,"199":1.3212205171585083,"200":1.7426161766052246,"201":1.2757004499435425,"202":-0.3374031186103821,"203":0.783848226070404,"204":-0.6186757683753967,"205":0.23925012350082397,"206":-1.0245202779769897,"207":-1.6454322338104248,"208":0.2528318166732788,"209":-1.0243158340454102,"210":-0.3831162750720978,"211":-0.5958942770957947,"212":1.2150400876998901,"213":2.1145308017730713,"214":-1.9095500707626343,"215":3.086361885070801,"216":0.8890034556388855,"217":0.4825625419616699,"218":-1.512648105621338,"219":0.2876635789871216,"220":0.12132973223924637,"221":-0.15724889934062958,"222":1.2115931510925293,"223":-1.5710054636001587,"224":1.2201828956604004,"225":1.0248650312423706,"226":1.5510740280151367,"227":1.9202792644500732,"228":0.921140193939209,"229":-0.3192421495914459,"230":1.0237696170806885,"231":1.1579102277755737,"232":-0.8345550298690796,"233":-2.5625271797180176,"234":-2.269803285598755,"235":-0.7654851675033569,"236":0.29180747270584106,"237":0.9022461175918579,"238":-3.0866549015045166,"239":-1.5416598320007324,"240":0.4227050840854645,"241":-1.1651602983474731,"242":-0.18623189628124237,"243":0.5018650889396667,"244":2.720386505126953,"245":-0.4197017550468445,"246":-1.1116294860839844,"247":1.4735947847366333,"248":2.4098739624023438,"249":-3.0440261363983154,"250":0.15810789167881012,"251":-2.5513737201690674,"252":0.6627185940742493,"253":-0.5524775981903076,"254":2.8909080028533936,"255":-1.7583892345428467,"256":2.2213425636291504,"257":1.4769097566604614,"258":1.819323182106018,"259":1.0025441646575928,"260":2.170666456222534,"261":-0.5304511785507202,"262":1.9194397926330566,"263":1.1711417436599731,"264":-1.2042080163955688,"265":0.25844234228134155,"266":0.761085569858551,"267":1.5702265501022339,"268":-0.0379500575363636,"269":-0.07664492726325989,"270":1.517812967300415,"271":2.61334490776062,"272":-0.6835790276527405,"273":-1.5162155628204346,"274":0.49791398644447327,"275":0.5669213533401489,"276":3.315986394882202,"277":0.625613808631897,"278":-1.2014130353927612,"279":-1.6494101285934448,"280":-0.654262900352478,"281":0.1925182193517685,"282":1.0692392587661743,"283":-1.5412662029266357,"284":-1.0908637046813965,"285":0.7597314119338989,"286":-1.5716681480407715,"287":-0.9224684238433838,"288":1.779086709022522,"289":0.7761147618293762,"290":-0.2658013701438904,"291":1.6016514301300049,"292":0.493723064661026,"293":0.7712805867195129,"294":1.8957115411758423,"295":-0.2122732549905777,"296":2.170711040496826,"297":0.3578217923641205,"298":3.570841073989868,"299":0.8866487145423889,"300":1.1149429082870483,"301":-2.7101235389709473,"302":2.605661392211914,"303":0.1291355937719345,"304":0.5811501145362854,"305":1.7288087606430054,"306":-2.5944128036499023,"307":-0.4717530906200409,"308":-0.03104800172150135,"309":0.03520328924059868,"310":-1.6775134801864624,"311":-3.3814284801483154,"312":-0.5095536708831787,"313":0.2159615159034729,"314":-2.1184818744659424,"315":-0.3703264594078064,"316":-0.3204183578491211,"317":1.209558367729187,"318":-0.2752145826816559,"319":-0.8953881859779358,"320":1.8173624277114868,"321":-0.6759360432624817,"322":1.492959976196289,"323":-3.4914872646331787,"324":0.6608913540840149,"325":2.8229689598083496,"326":-1.6278760433197021,"327":-1.4641507863998413,"328":0.20347964763641357,"329":1.5774537324905396,"330":1.0575978755950928,"331":1.2284586429595947,"332":-1.5170074701309204,"333":0.14721396565437317,"334":1.315950632095337,"335":0.49389734864234924,"336":-0.9588152766227722,"337":0.8609321713447571,"338":-1.5607510805130005,"339":-0.07181540876626968,"340":-0.7753000259399414,"341":-0.26541876792907715,"342":1.5094311237335205,"343":-1.605607509613037,"344":-0.1252710372209549,"345":-2.152740240097046,"346":-0.5613799691200256,"347":0.48903289437294006,"348":0.09632222354412079,"349":1.2083981037139893,"350":-1.388460636138916,"351":-1.732606291770935,"352":-2.1313905715942383,"353":-1.48096764087677,"354":0.5121456384658813,"355":-2.2956228256225586,"356":2.608002185821533,"357":2.6060218811035156,"358":0.6696717143058777,"359":0.36530768871307373,"360":0.09028276056051254,"361":0.14067493379116058,"362":2.287519931793213,"363":0.9481621384620667,"364":-0.7349101901054382,"365":1.0838303565979004,"366":2.231015920639038,"367":-0.6993966698646545,"368":-0.5266785621643066,"369":0.3657448887825012,"370":-1.761763572692871,"371":2.2639026641845703,"372":1.7286113500595093,"373":1.7938165664672852,"374":1.0029679536819458,"375":1.3556376695632935,"376":-0.6896701455116272,"377":0.1408541351556778,"378":2.4213063716888428,"379":-0.706861674785614,"380":1.9027588367462158,"381":0.14047007262706757,"382":-0.028879359364509583,"383":-1.529487133026123,"384":-0.15952742099761963,"385":0.4825229346752167,"386":-0.9633718132972717,"387":0.9290221333503723,"388":-1.2248352766036987,"389":-0.4076601266860962,"390":-0.25120609998703003,"391":-2.829404830932617,"392":0.971084713935852,"393":-0.7638569474220276,"394":-2.783942222595215,"395":-1.0623384714126587,"396":-1.2760136127471924,"397":-0.9174368977546692,"398":-2.908708095550537,"399":-2.750640869140625,"400":1.279599905014038,"401":0.08649706840515137,"402":-2.9216575622558594,"403":-0.2677741050720215,"404":-1.8532938957214355,"405":0.7475072145462036,"406":-0.5128782987594604,"407":1.053443431854248,"408":1.0371770858764648,"409":-0.3974054455757141,"410":-0.09916877746582031,"411":-0.021636631339788437,"412":0.30469855666160583,"413":1.353710412979126,"414":1.692933440208435,"415":-1.0717099905014038,"416":-3.9677677154541016,"417":1.0887292623519897,"418":1.0152307748794556,"419":2.6560657024383545,"420":1.9961186647415161,"421":0.0742851197719574,"422":-0.4928721487522125,"423":-2.588994026184082,"424":-0.8024548292160034,"425":0.19245441257953644,"426":1.9938569068908691,"427":-1.1275283098220825,"428":0.82524573802948,"429":-0.5803035497665405,"430":-1.811173439025879,"431":-0.30489522218704224,"432":-0.7476747035980225,"433":1.628212332725525,"434":0.6671642661094666,"435":0.7395140528678894,"436":0.15018287301063538,"437":-0.6031988859176636,"438":2.357945203781128,"439":2.14949893951416,"440":-1.6113035678863525,"441":3.4364206790924072,"442":0.13402090966701508,"443":-0.42839476466178894,"444":-0.13992838561534882,"445":0.4504438042640686,"446":1.7251557111740112,"447":-0.4989190995693207,"448":-0.8081191182136536,"449":0.40135782957077026,"450":-1.2729403972625732,"451":-0.677973747253418,"452":-0.3645899295806885,"453":-0.6468837261199951,"454":2.387720823287964,"455":0.5588369369506836,"456":-0.9608392715454102,"457":0.32013389468193054,"458":0.1455555111169815,"459":0.5148749947547913,"460":0.8903356194496155,"461":3.1463444232940674,"462":-0.492135614156723,"463":-0.7212982773780823,"464":-1.5373693704605103,"465":-0.37369781732559204,"466":-1.5140584707260132,"467":-1.6647430658340454,"468":1.9794994592666626,"469":1.015725016593933,"470":-1.3205076456069946,"471":-1.679754614830017,"472":0.2708433270454407,"473":2.2670371532440186,"474":-0.0003529693349264562,"475":-0.7909306883811951,"476":-0.3488917052745819,"477":-2.158367872238159,"478":-1.668241262435913,"479":0.1598048061132431,"480":0.4586643874645233,"481":-0.3443346321582794,"482":-0.08824678510427475,"483":-1.0968990325927734,"484":1.8066362142562866,"485":-0.008802888914942741,"486":-1.4238547086715698,"487":-0.34305378794670105,"488":0.41065356135368347,"489":1.70656418800354,"490":-0.5589030385017395,"491":0.40587565302848816,"492":-1.5932621955871582,"493":-1.426343321800232,"494":-0.5611519813537598,"495":-0.05166022852063179,"496":-1.3401927947998047,"497":2.976034164428711,"498":1.4520273208618164,"499":-1.2185715436935425,"500":1.6806222200393677,"501":0.560859739780426,"502":1.9310840368270874,"503":0.5847233533859253,"504":-1.8587020635604858,"505":-1.472510576248169,"506":-0.9982563853263855,"507":-2.1059608459472656,"508":-1.5731433629989624,"509":-2.3483128547668457,"510":-0.3214587867259979,"511":1.317238450050354,"512":-0.9017378687858582,"513":-5.1894917488098145,"514":-0.5406650304794312,"515":-2.995999336242676,"516":2.615838050842285,"517":-0.6167344450950623,"518":-4.518027305603027,"519":-3.490251064300537,"520":-0.6545785665512085,"521":0.151630237698555,"522":1.9580459594726562,"523":-2.1978228092193604,"524":1.7605571746826172,"525":0.8430953025817871,"526":-0.8209400177001953,"527":-0.4277708828449249,"528":0.11919177323579788,"529":0.7268595695495605,"530":-0.8260949850082397,"531":0.5140760540962219,"532":-0.3090874254703522,"533":-0.5970777869224548,"534":2.2595574855804443,"535":0.1743939071893692,"536":-0.43909838795661926,"537":0.28092628717422485,"538":2.0854501724243164,"539":-0.7798596620559692,"540":-2.5390284061431885,"541":-1.0225163698196411,"542":-3.646951198577881,"543":-2.1011130809783936,"544":2.117767572402954,"545":0.5916978716850281,"546":-1.4282644987106323,"547":-2.4131152629852295,"548":-0.7076407074928284,"549":-0.8485575914382935,"550":-2.5857772827148438,"551":0.07266013324260712,"552":-0.966109037399292,"553":2.6703217029571533,"554":-0.8046292662620544,"555":1.019119381904602,"556":1.060226559638977,"557":-1.0070514678955078,"558":2.0107333660125732,"559":-2.701692581176758}},"resetGateHiddenMatrix":{"rows":20,"columns":20,"weights":{"0":1.0870094299316406,"1":1.0572201013565063,"2":-0.4718809425830841,"3":1.5958420038223267,"4":2.1044135093688965,"5":-2.5024592876434326,"6":-0.7450464963912964,"7":-0.4223520755767822,"8":-0.1198577806353569,"9":1.9638681411743164,"10":1.595166802406311,"11":-0.3813769817352295,"12":-1.8986806869506836,"13":-0.3378257751464844,"14":-2.670750141143799,"15":0.03162192180752754,"16":3.397432565689087,"17":-1.0683033466339111,"18":-0.07300138473510742,"19":2.2358081340789795,"20":0.6088959574699402,"21":-0.559005618095398,"22":-1.3103772401809692,"23":0.19895845651626587,"24":-0.43445608019828796,"25":0.4243455231189728,"26":-1.3431880474090576,"27":0.9429487586021423,"28":-0.3712935447692871,"29":0.43154585361480713,"30":1.1946865320205688,"31":-1.1712961196899414,"32":0.5913094878196716,"33":-0.5300111770629883,"34":0.19037601351737976,"35":-0.9725589156150818,"36":0.33813443779945374,"37":-0.11954621225595474,"38":-0.9677671194076538,"39":0.8937617540359497,"40":1.2350455522537231,"41":-1.2909172773361206,"42":2.699737310409546,"43":1.781697392463684,"44":1.769858956336975,"45":-2.63742995262146,"46":1.5846458673477173,"47":-0.27837225794792175,"48":1.2626705169677734,"49":-0.4474264979362488,"50":-1.2451444864273071,"51":0.8333824276924133,"52":1.1343145370483398,"53":1.2344741821289062,"54":-1.3445515632629395,"55":0.9990971088409424,"56":0.4573390781879425,"57":-2.0811607837677,"58":4.115982532501221,"59":3.3602895736694336,"60":3.374150514602661,"61":2.0202579498291016,"62":0.33086204528808594,"63":-0.8146491646766663,"64":-2.1786484718322754,"65":-1.0406278371810913,"66":1.5417251586914062,"67":-1.8840452432632446,"68":1.5280472040176392,"69":0.36151593923568726,"70":-1.7069153785705566,"71":0.274713397026062,"72":0.15068939328193665,"73":0.5567889213562012,"74":-0.08594269305467606,"75":2.138582468032837,"76":0.27278485894203186,"77":-1.8776607513427734,"78":0.9412612318992615,"79":0.725477933883667,"80":1.0554007291793823,"81":1.8074259757995605,"82":0.6490335464477539,"83":-2.5569725036621094,"84":2.04620361328125,"85":2.3572373390197754,"86":-0.539853572845459,"87":1.7066919803619385,"88":0.45562779903411865,"89":-0.16446520388126373,"90":0.9887139797210693,"91":1.4262117147445679,"92":1.9121243953704834,"93":-0.8289126753807068,"94":-3.3665809631347656,"95":2.604508399963379,"96":0.5867368578910828,"97":0.6016793847084045,"98":1.8275737762451172,"99":3.355045795440674,"100":1.371789813041687,"101":-0.6294112205505371,"102":0.33970510959625244,"103":0.46783646941185,"104":1.9516525268554688,"105":-2.737049102783203,"106":1.1172221899032593,"107":0.8707624077796936,"108":2.649113893508911,"109":-2.033491849899292,"110":-2.660078763961792,"111":-2.6938788890838623,"112":2.7720675468444824,"113":0.18658870458602905,"114":1.4604686498641968,"115":0.004449259489774704,"116":0.93426513671875,"117":-1.5151692628860474,"118":0.6572476029396057,"119":-0.02156720496714115,"120":-1.6127955913543701,"121":4.622270107269287,"122":0.8494398593902588,"123":-0.10363464057445526,"124":-1.3526341915130615,"125":3.135559558868408,"126":2.3580546379089355,"127":-2.0977649688720703,"128":-0.4285227656364441,"129":2.5160348415374756,"130":0.669580340385437,"131":-1.2862522602081299,"132":-1.2271740436553955,"133":-2.3535397052764893,"134":0.8219301104545593,"135":3.872248888015747,"136":-0.4847754240036011,"137":1.5840052366256714,"138":-1.2379814386367798,"139":2.597054958343506,"140":0.0712602287530899,"141":-0.7812856435775757,"142":2.249509811401367,"143":-1.910065770149231,"144":1.1513104438781738,"145":-1.3693511486053467,"146":-0.3131459653377533,"147":-0.5587610006332397,"148":0.007724536117166281,"149":0.9070777893066406,"150":-1.2615187168121338,"151":4.159341335296631,"152":-0.364033579826355,"153":0.8553315997123718,"154":1.7772706747055054,"155":-0.45199668407440186,"156":0.2377753108739853,"157":-0.7309917211532593,"158":1.8036421537399292,"159":2.0889170169830322,"160":-1.7533568143844604,"161":1.6530863046646118,"162":0.8960193991661072,"163":0.5006064176559448,"164":0.40157219767570496,"165":0.1299341768026352,"166":-0.08444200456142426,"167":0.6513506770133972,"168":0.3437652289867401,"169":-0.2743156850337982,"170":1.7461503744125366,"171":-2.3271524906158447,"172":-0.22713273763656616,"173":-0.8052060008049011,"174":-1.5633090734481812,"175":0.9616783261299133,"176":-2.494227409362793,"177":-1.5858819484710693,"178":-2.0970840454101562,"179":0.8025578856468201,"180":1.1908358335494995,"181":0.19221049547195435,"182":-0.4825645685195923,"183":1.1925990581512451,"184":1.1848262548446655,"185":-3.183523416519165,"186":-3.316981077194214,"187":-1.0636343955993652,"188":-1.2843612432479858,"189":0.055583756417036057,"190":0.5668480396270752,"191":-0.7084695100784302,"192":0.5530839562416077,"193":-0.5664203763008118,"194":-0.9186040163040161,"195":0.22932571172714233,"196":-1.385855793952942,"197":1.711837649345398,"198":1.8565778732299805,"199":1.011858582496643,"200":-1.57797372341156,"201":2.9575376510620117,"202":-0.7393855452537537,"203":1.3310956954956055,"204":1.5717302560806274,"205":1.7898966073989868,"206":-0.837414026260376,"207":-1.761396884918213,"208":-2.69048810005188,"209":-1.8176181316375732,"210":0.5591416954994202,"211":0.010427849367260933,"212":0.5808070302009583,"213":0.20318561792373657,"214":-3.5884127616882324,"215":-0.038604509085416794,"216":0.7358360886573792,"217":1.1583014726638794,"218":0.32300296425819397,"219":-0.9617226719856262,"220":0.10819398611783981,"221":-0.9787389636039734,"222":1.7728731632232666,"223":-0.5686773061752319,"224":1.804184913635254,"225":0.06078825518488884,"226":-1.0934840440750122,"227":0.9982322454452515,"228":0.9735562205314636,"229":1.360107660293579,"230":-0.08130384981632233,"231":-1.5222716331481934,"232":-1.6570935249328613,"233":-0.4908061623573303,"234":-0.19061069190502167,"235":1.2695363759994507,"236":-2.267540216445923,"237":-2.2430152893066406,"238":3.804683208465576,"239":-0.28812944889068604,"240":-1.662243366241455,"241":-2.6468749046325684,"242":2.1207852363586426,"243":-0.6174273490905762,"244":0.9391319751739502,"245":2.4500768184661865,"246":2.547433376312256,"247":1.367819905281067,"248":0.34661170840263367,"249":1.3854615688323975,"250":1.63523530960083,"251":-0.6838863492012024,"252":0.21484848856925964,"253":-1.6161818504333496,"254":-1.6468560695648193,"255":3.7451300621032715,"256":-2.0889949798583984,"257":-1.9524128437042236,"258":-0.854745090007782,"259":0.511845588684082,"260":-0.5115242600440979,"261":-0.6996141672134399,"262":3.142894983291626,"263":-0.6712786555290222,"264":0.9018837213516235,"265":0.323837012052536,"266":1.6459598541259766,"267":-0.533486545085907,"268":1.9597618579864502,"269":0.9232028722763062,"270":-1.9272775650024414,"271":1.9750477075576782,"272":0.24520473182201385,"273":-2.3899319171905518,"274":-0.7936192154884338,"275":1.427348017692566,"276":-0.6076787114143372,"277":-0.8844279646873474,"278":2.3108716011047363,"279":3.234126567840576,"280":1.211409568786621,"281":-2.206315517425537,"282":-0.022535692900419235,"283":1.174616813659668,"284":0.15232597291469574,"285":-0.39326396584510803,"286":2.175865888595581,"287":-1.3104305267333984,"288":0.5391728281974792,"289":-1.039170742034912,"290":-2.929381847381592,"291":1.05707585811615,"292":-0.7326801419258118,"293":-1.6187149286270142,"294":0.5112072825431824,"295":0.2184230387210846,"296":-1.1971772909164429,"297":-1.5341695547103882,"298":0.2792315185070038,"299":0.6466067433357239,"300":-0.3367970287799835,"301":-1.7462505102157593,"302":-1.2183374166488647,"303":3.085279703140259,"304":1.6451103687286377,"305":-0.5590945482254028,"306":1.4629707336425781,"307":1.3167799711227417,"308":3.71427321434021,"309":-1.0655509233474731,"310":0.9380488395690918,"311":1.2216055393218994,"312":0.03770922124385834,"313":0.06533019989728928,"314":0.6702839732170105,"315":-1.3905010223388672,"316":2.056931734085083,"317":-2.178194522857666,"318":-0.13505053520202637,"319":-1.2213196754455566,"320":-2.1234538555145264,"321":0.27903902530670166,"322":2.2878880500793457,"323":-3.2586779594421387,"324":-1.3899034261703491,"325":1.0868934392929077,"326":3.8142786026000977,"327":-1.2004531621932983,"328":-0.5159024000167847,"329":-1.462463140487671,"330":-1.438828706741333,"331":2.6804943084716797,"332":-0.5062508583068848,"333":-0.40396586060523987,"334":-0.0366007536649704,"335":0.2573002874851227,"336":3.924314498901367,"337":2.076862096786499,"338":-0.458560973405838,"339":0.6254757642745972,"340":3.2175731658935547,"341":2.174971342086792,"342":-3.06689453125,"343":-0.2580235004425049,"344":0.07891704142093658,"345":1.0206242799758911,"346":2.0064916610717773,"347":0.7361762523651123,"348":-0.4293811023235321,"349":-3.6420798301696777,"350":1.313922643661499,"351":-3.112889289855957,"352":1.1331334114074707,"353":2.043111562728882,"354":0.3509109914302826,"355":-3.1246635913848877,"356":1.8981108665466309,"357":-0.4971633851528168,"358":-2.811960220336914,"359":-3.705956220626831,"360":-1.0442571640014648,"361":0.17877309024333954,"362":-0.03488761931657791,"363":-0.9946069717407227,"364":1.0577105283737183,"365":0.35107171535491943,"366":1.2091397047042847,"367":1.4273146390914917,"368":1.5439695119857788,"369":0.631165087223053,"370":-0.5297865867614746,"371":0.44496840238571167,"372":0.7328890562057495,"373":0.30004969239234924,"374":-0.5408623218536377,"375":-0.1173495203256607,"376":-1.7152721881866455,"377":-2.351135492324829,"378":2.4346747398376465,"379":1.1324108839035034,"380":-0.20824499428272247,"381":-3.850752592086792,"382":-0.8311743140220642,"383":0.13764066994190216,"384":2.305840492248535,"385":-0.8999449610710144,"386":0.3946252465248108,"387":0.6899043321609497,"388":0.04117245599627495,"389":-1.1467872858047485,"390":-1.100377082824707,"391":0.46272337436676025,"392":0.5275059342384338,"393":-0.362833172082901,"394":0.41307908296585083,"395":-0.8652311563491821,"396":-0.2150839865207672,"397":1.183230996131897,"398":0.7482487559318542,"399":-1.0074687004089355}},"resetGateBias":{"rows":20,"columns":1,"weights":{"0":0,"1":0,"2":0,"3":0,"4":0,"5":0,"6":0,"7":0,"8":0,"9":0,"10":0,"11":0,"12":0,"13":0,"14":0,"15":0,"16":0,"17":0,"18":0,"19":0}},"cellWriteInputMatrix":{"rows":20,"columns":28,"weights":{"0":0.7906516194343567,"1":-0.7660226225852966,"2":-0.703183114528656,"3":-0.1693335920572281,"4":-1.0567635297775269,"5":0.27467095851898193,"6":0.18293160200119019,"7":-1.4096587896347046,"8":-1.3526840209960938,"9":-0.17131632566452026,"10":0.03381694480776787,"11":-0.8591122031211853,"12":0.6919655799865723,"13":-0.08306685835123062,"14":-0.4809213876724243,"15":-0.11333005130290985,"16":-0.3273108899593353,"17":1.2599519491195679,"18":1.1650079488754272,"19":0.5885851979255676,"20":1.4629930257797241,"21":-1.1109354496002197,"22":0.0891222283244133,"23":-1.0884205102920532,"24":-0.5604583024978638,"25":0.4793147146701813,"26":-0.6290907263755798,"27":0.9377750158309937,"28":0.47669893503189087,"29":-0.34711185097694397,"30":0.4574572443962097,"31":0.05770449712872505,"32":0.6374341249465942,"33":0.6725599765777588,"34":0.9087545871734619,"35":-0.9481507539749146,"36":-0.5025038123130798,"37":0.4127909243106842,"38":-2.009117364883423,"39":1.0107073783874512,"40":-0.7698741555213928,"41":0.26397761702537537,"42":-0.11048409342765808,"43":1.1522761583328247,"44":-0.6897915005683899,"45":-3.361745834350586,"46":-3.2487411499023438,"47":-0.33795925974845886,"48":-1.0782495737075806,"49":2.0489368438720703,"50":-0.8558775782585144,"51":0.07935905456542969,"52":0.4311943054199219,"53":-1.0111584663391113,"54":3.0399224758148193,"55":-1.4225220680236816,"56":2.50911283493042,"57":0.946380078792572,"58":-1.7112855911254883,"59":-1.833573579788208,"60":-0.026035821065306664,"61":0.4281727969646454,"62":0.019967680796980858,"63":-0.7487377524375916,"64":-0.20832104980945587,"65":0.4908575415611267,"66":-1.4759656190872192,"67":0.5508512258529663,"68":-0.9551787376403809,"69":0.8106032013893127,"70":-0.6861196160316467,"71":1.4389055967330933,"72":-0.27157971262931824,"73":-0.8432210087776184,"74":-0.7138751149177551,"75":1.8794795274734497,"76":-0.747646152973175,"77":2.574594020843506,"78":-1.1422456502914429,"79":0.3840494751930237,"80":-0.2644340693950653,"81":2.335608959197998,"82":1.103641152381897,"83":-0.30767470598220825,"84":1.2320343255996704,"85":1.2213131189346313,"86":-0.9756304025650024,"87":-1.0727108716964722,"88":1.5917878150939941,"89":0.9207419157028198,"90":1.4796522855758667,"91":0.517432451248169,"92":0.47103792428970337,"93":-1.3425706624984741,"94":0.192952960729599,"95":0.3888705372810364,"96":1.478804588317871,"97":-0.48889631032943726,"98":-0.7381867170333862,"99":-1.6034175157546997,"100":0.16160792112350464,"101":-0.17386861145496368,"102":0.689009964466095,"103":-0.9762374758720398,"104":0.9272394180297852,"105":-0.48510241508483887,"106":-0.09117437899112701,"107":1.770967960357666,"108":0.5582104921340942,"109":-0.7182261347770691,"110":0.013240212574601173,"111":-1.8178703784942627,"112":-0.8344340324401855,"113":-2.114671230316162,"114":1.6644842624664307,"115":0.005297662690281868,"116":-1.3803876638412476,"117":-0.4042065441608429,"118":0.12277437001466751,"119":-0.16999848186969757,"120":-0.8041833639144897,"121":-0.5670120120048523,"122":-1.0307246446609497,"123":-2.0352067947387695,"124":1.6821634769439697,"125":0.49538135528564453,"126":-0.9532375931739807,"127":-1.409420132637024,"128":-0.5169989466667175,"129":-1.5415092706680298,"130":0.016140922904014587,"131":-0.8727839589118958,"132":-0.1226121336221695,"133":-1.125880479812622,"134":1.1362124681472778,"135":-1.2506294250488281,"136":-0.5520890951156616,"137":1.1423583030700684,"138":0.15917524695396423,"139":-0.7119932770729065,"140":-0.5951874256134033,"141":0.2033393681049347,"142":-1.0220448970794678,"143":0.1608193814754486,"144":-0.6546464562416077,"145":-0.29000937938690186,"146":-1.1844334602355957,"147":-1.693778157234192,"148":-0.6974820494651794,"149":-0.8058410882949829,"150":-1.176448106765747,"151":-0.7198542356491089,"152":-0.06906800717115402,"153":-1.3513211011886597,"154":-1.692194938659668,"155":0.21346844732761383,"156":1.1033217906951904,"157":0.5158311724662781,"158":1.5834121704101562,"159":0.09090825170278549,"160":0.5693374872207642,"161":1.747787594795227,"162":0.021044239401817322,"163":0.4049209654331207,"164":-0.906927764415741,"165":-0.15731608867645264,"166":1.4525178670883179,"167":0.6836135983467102,"168":-0.614134669303894,"169":-0.21745875477790833,"170":-0.9273790121078491,"171":-1.546509027481079,"172":-0.4544726610183716,"173":0.9075319766998291,"174":-1.0575417280197144,"175":1.6405832767486572,"176":0.09939132630825043,"177":-1.0750924348831177,"178":1.4052010774612427,"179":0.025470685213804245,"180":1.1364245414733887,"181":0.7240990400314331,"182":-1.3920854330062866,"183":-1.069108009338379,"184":0.03994302824139595,"185":1.0551680326461792,"186":1.7637066841125488,"187":-0.19113689661026,"188":1.3772135972976685,"189":-0.6319952607154846,"190":-1.827601671218872,"191":-0.19316798448562622,"192":0.6495550870895386,"193":-0.29067954421043396,"194":-1.8083813190460205,"195":-0.3308231234550476,"196":0.27291813492774963,"197":1.6765776872634888,"198":1.2052594423294067,"199":-0.4122123420238495,"200":-0.40979763865470886,"201":-0.3972030282020569,"202":0.6161711812019348,"203":1.089110255241394,"204":-3.0308806896209717,"205":-0.09489443153142929,"206":0.5357450246810913,"207":1.2383861541748047,"208":0.8203510046005249,"209":0.09127858281135559,"210":0.8907662630081177,"211":-1.4300438165664673,"212":-0.05423036962747574,"213":0.214316725730896,"214":-1.6217542886734009,"215":-0.5505549907684326,"216":1.2152034044265747,"217":0.49516135454177856,"218":-1.0277422666549683,"219":0.8041877150535583,"220":-0.447290301322937,"221":0.6205982565879822,"222":0.03771812096238136,"223":-3.1532509326934814,"224":0.12271112948656082,"225":-0.8501477241516113,"226":0.1793140470981598,"227":0.18514561653137207,"228":-0.655598521232605,"229":-0.16856904327869415,"230":1.093434453010559,"231":0.385855495929718,"232":0.060086362063884735,"233":0.5521481037139893,"234":-0.23149840533733368,"235":0.5874254107475281,"236":2.517003297805786,"237":1.8442946672439575,"238":-0.5549368262290955,"239":-0.47615087032318115,"240":-1.4509084224700928,"241":-0.4079856276512146,"242":-0.7925633788108826,"243":1.1830430030822754,"244":3.08453369140625,"245":0.4247046709060669,"246":-0.8524069786071777,"247":-0.03172190859913826,"248":2.7689058780670166,"249":0.7474943399429321,"250":0.21663987636566162,"251":-3.415278673171997,"252":-0.7664682269096375,"253":-1.4182907342910767,"254":0.7173604965209961,"255":0.6868712306022644,"256":1.2730766534805298,"257":-0.09830362349748611,"258":-0.2505262792110443,"259":1.071716070175171,"260":1.8284335136413574,"261":0.7387210726737976,"262":-0.006421323865652084,"263":1.971997618675232,"264":-1.0514159202575684,"265":0.32921263575553894,"266":0.2542567551136017,"267":1.8115887641906738,"268":-0.03915754333138466,"269":-0.6055924296379089,"270":-0.8676201701164246,"271":-0.6129368543624878,"272":-2.470783233642578,"273":0.8154252767562866,"274":-0.5309975147247314,"275":-0.31245890259742737,"276":1.6268420219421387,"277":0.3836997151374817,"278":-0.7011335492134094,"279":-1.5968304872512817,"280":-0.14140315353870392,"281":0.46478450298309326,"282":0.2320794016122818,"283":1.3399381637573242,"284":0.7236493229866028,"285":0.5230177640914917,"286":-0.47633299231529236,"287":-2.3462443351745605,"288":-2.4245269298553467,"289":0.47387000918388367,"290":-0.7321318984031677,"291":1.1798402070999146,"292":-0.6062783598899841,"293":-0.4056723117828369,"294":0.27286264300346375,"295":2.649280309677124,"296":0.9786458611488342,"297":-2.334564447402954,"298":-1.3097003698349,"299":-0.8956143260002136,"300":-0.08899054676294327,"301":2.833804130554199,"302":-0.5815477967262268,"303":0.8174770474433899,"304":0.7425115704536438,"305":-1.4939050674438477,"306":3.0382907390594482,"307":-1.0906699895858765,"308":-1.3951441049575806,"309":-0.49479836225509644,"310":1.353825330734253,"311":-0.8277263045310974,"312":-1.5044081211090088,"313":-1.2274307012557983,"314":-0.898304283618927,"315":1.5195417404174805,"316":0.34624752402305603,"317":0.7280927300453186,"318":1.5755568742752075,"319":0.10092080384492874,"320":-1.65532386302948,"321":1.0947389602661133,"322":-0.8301541209220886,"323":1.1231106519699097,"324":-0.13632045686244965,"325":-0.4433983862400055,"326":3.2874865531921387,"327":-0.7925929427146912,"328":-1.2636661529541016,"329":0.8427477478981018,"330":-1.6348421573638916,"331":-1.060612440109253,"332":0.9106252789497375,"333":2.2633068561553955,"334":-4.066734313964844,"335":-0.4325418174266815,"336":-0.8585141897201538,"337":-2.290862798690796,"338":0.17591100931167603,"339":1.0712249279022217,"340":-1.4461865425109863,"341":-0.08852658420801163,"342":-0.10023152083158493,"343":-0.002344341017305851,"344":-0.7328532338142395,"345":-2.358027458190918,"346":0.6506970524787903,"347":-0.8668126463890076,"348":0.557348906993866,"349":0.3398236930370331,"350":-2.4682765007019043,"351":-0.6037400364875793,"352":0.5206189155578613,"353":-0.21147611737251282,"354":-1.111596703529358,"355":-0.5796765685081482,"356":1.1474535465240479,"357":-0.17806954681873322,"358":0.10974369198083878,"359":-1.6093758344650269,"360":1.4448628425598145,"361":2.53440260887146,"362":-1.4292160272598267,"363":-1.6954724788665771,"364":-2.197134256362915,"365":-1.3359266519546509,"366":1.1918678283691406,"367":0.5333117842674255,"368":1.3828036785125732,"369":-0.10756091773509979,"370":2.6636452674865723,"371":-1.0921664237976074,"372":0.7150846719741821,"373":-0.4149602949619293,"374":1.30452299118042,"375":1.137351155281067,"376":1.346741795539856,"377":-0.6995201110839844,"378":-1.0761573314666748,"379":-0.959367573261261,"380":-0.7815405130386353,"381":-0.6079643964767456,"382":0.4046967923641205,"383":-0.3889137804508209,"384":0.48728254437446594,"385":-0.27931126952171326,"386":-0.2966795265674591,"387":0.1861249953508377,"388":1.6086593866348267,"389":-1.2721308469772339,"390":-0.4021013677120209,"391":-0.6823297142982483,"392":-0.13479189574718475,"393":0.47788387537002563,"394":1.505731225013733,"395":-1.8210761547088623,"396":0.5636327862739563,"397":-0.07755956053733826,"398":1.5722202062606812,"399":0.3539297580718994,"400":0.7024542689323425,"401":-1.4389939308166504,"402":0.6551402807235718,"403":0.9240623116493225,"404":0.37086641788482666,"405":-1.500301718711853,"406":-1.441287875175476,"407":-1.072414517402649,"408":1.7657842636108398,"409":1.0567004680633545,"410":-1.1922633647918701,"411":1.839215874671936,"412":1.7695043087005615,"413":-1.5578882694244385,"414":-0.479798287153244,"415":0.7926136255264282,"416":0.6589487195014954,"417":0.5485350489616394,"418":-0.43273383378982544,"419":-0.0032815062440931797,"420":-0.022341342642903328,"421":-0.20315144956111908,"422":0.7015826106071472,"423":1.2930704355239868,"424":0.042138297110795975,"425":-1.7715212106704712,"426":1.3129764795303345,"427":0.15481725335121155,"428":0.20593112707138062,"429":0.21612165868282318,"430":-0.12203916907310486,"431":-0.11945068091154099,"432":-1.6797579526901245,"433":1.8557311296463013,"434":0.6523212194442749,"435":0.7573503851890564,"436":-0.730890154838562,"437":-0.6951766610145569,"438":-1.0775576829910278,"439":1.1139873266220093,"440":-0.25408896803855896,"441":-0.46125468611717224,"442":-1.840135931968689,"443":-1.0454071760177612,"444":-0.7753159999847412,"445":1.1724101305007935,"446":0.6277097463607788,"447":0.7339938879013062,"448":-0.4081326723098755,"449":-0.16197869181632996,"450":-0.617299497127533,"451":-1.4844857454299927,"452":-2.1061594486236572,"453":0.7416769862174988,"454":-0.3964524567127228,"455":-0.11330577731132507,"456":1.143292784690857,"457":-1.3175029754638672,"458":-1.824698805809021,"459":-0.3874388337135315,"460":0.7702845931053162,"461":0.6414510011672974,"462":-1.2671276330947876,"463":-0.7840350866317749,"464":-0.9830357432365417,"465":0.135701984167099,"466":2.065131425857544,"467":-2.454023838043213,"468":1.458964467048645,"469":-0.6094943881034851,"470":-0.5033425688743591,"471":-0.0901300311088562,"472":0.24848151206970215,"473":0.8943482637405396,"474":-1.5020856857299805,"475":0.6683684587478638,"476":-1.7241616249084473,"477":-0.9046140909194946,"478":2.1026477813720703,"479":0.8447471261024475,"480":1.8054144382476807,"481":1.113789677619934,"482":-0.5892708897590637,"483":1.0005160570144653,"484":1.4891797304153442,"485":0.9793047904968262,"486":0.36997783184051514,"487":-0.3104057013988495,"488":0.0729997381567955,"489":-2.4010348320007324,"490":1.5687689781188965,"491":0.7754583358764648,"492":2.220078945159912,"493":-0.8277686834335327,"494":-1.0743242502212524,"495":1.1741992235183716,"496":-1.915304183959961,"497":0.670320451259613,"498":0.585340678691864,"499":1.5590039491653442,"500":-0.3235310912132263,"501":-1.2175226211547852,"502":1.4421709775924683,"503":1.3585025072097778,"504":-1.362033724784851,"505":0.5605334043502808,"506":-2.556821823120117,"507":-0.8257205486297607,"508":-0.49475014209747314,"509":0.40980854630470276,"510":-0.11360536515712738,"511":-1.2158819437026978,"512":0.5549129247665405,"513":0.6402881741523743,"514":1.0724316835403442,"515":0.06879754364490509,"516":1.2917205095291138,"517":1.0254417657852173,"518":0.16715577244758606,"519":-0.05089597404003143,"520":-1.4087042808532715,"521":1.4816616773605347,"522":0.17441901564598083,"523":1.120754599571228,"524":1.4235894680023193,"525":-0.16006818413734436,"526":0.5772459506988525,"527":-2.2698802947998047,"528":1.3961907625198364,"529":0.8607105612754822,"530":-0.7328853011131287,"531":-0.2124558836221695,"532":0.8433130979537964,"533":0.9996639490127563,"534":-0.7257828116416931,"535":-1.2726824283599854,"536":-1.6011985540390015,"537":0.9343744516372681,"538":-1.142913579940796,"539":0.8765665292739868,"540":-0.36665722727775574,"541":-0.1358695775270462,"542":0.3734668493270874,"543":0.4099465012550354,"544":1.2779916524887085,"545":2.501695394515991,"546":0.5417172908782959,"547":-1.0018070936203003,"548":1.095954179763794,"549":0.6479623317718506,"550":-0.8872978687286377,"551":-0.31192514300346375,"552":0.7093656659126282,"553":0.6052372455596924,"554":0.25867924094200134,"555":-2.207324266433716,"556":-1.8735805749893188,"557":1.1988428831100464,"558":-0.4144042134284973,"559":0.41563141345977783}},"cellWriteHiddenMatrix":{"rows":20,"columns":20,"weights":{"0":-1.4553509950637817,"1":-0.6338794827461243,"2":1.9994847774505615,"3":-1.7001725435256958,"4":0.30310818552970886,"5":-0.4186260998249054,"6":0.6232055425643921,"7":-1.8399790525436401,"8":-2.521824359893799,"9":0.9025747179985046,"10":-0.03375326469540596,"11":0.04845096170902252,"12":-1.2830613851547241,"13":0.13284650444984436,"14":2.3993659019470215,"15":0.33624762296676636,"16":-0.6031742691993713,"17":2.0082762241363525,"18":-0.6538236737251282,"19":-3.1377956867218018,"20":0.6472342610359192,"21":0.4579949378967285,"22":-0.47895240783691406,"23":0.23906424641609192,"24":-0.23626361787319183,"25":-1.6356900930404663,"26":-0.6692542433738708,"27":0.17610660195350647,"28":0.6066389083862305,"29":-0.2814256548881531,"30":-0.27922266721725464,"31":-0.7773236632347107,"32":-0.6057340502738953,"33":0.7280979752540588,"34":0.6756414175033569,"35":-1.1335482597351074,"36":-0.5297419428825378,"37":0.8636265397071838,"38":0.07460972666740417,"39":-0.48361626267433167,"40":-0.33928433060646057,"41":-0.31003835797309875,"42":-0.6666218638420105,"43":-0.4358849823474884,"44":-1.0784311294555664,"45":0.26034706830978394,"46":0.261636346578598,"47":0.43104276061058044,"48":-1.044785499572754,"49":0.6507585048675537,"50":-0.1207805946469307,"51":-0.41337040066719055,"52":-1.1463158130645752,"53":0.22970548272132874,"54":1.4158865213394165,"55":0.20925834774971008,"56":-0.23702400922775269,"57":-0.09695111215114594,"58":0.4396052658557892,"59":1.2237153053283691,"60":-0.4136282801628113,"61":2.155747175216675,"62":-0.5394116044044495,"63":-0.7915852665901184,"64":-0.937712550163269,"65":1.300034999847412,"66":-1.4712177515029907,"67":-0.48629647493362427,"68":-1.8765766620635986,"69":1.8852813243865967,"70":1.8024919033050537,"71":-1.96528959274292,"72":-3.1303820610046387,"73":-1.9327279329299927,"74":-1.5618377923965454,"75":-2.553612470626831,"76":2.429170608520508,"77":1.107077717781067,"78":-0.9068611264228821,"79":-2.8810160160064697,"80":-0.2992604970932007,"81":-1.9937139749526978,"82":0.21193267405033112,"83":1.52676522731781,"84":-1.696673035621643,"85":-1.3858901262283325,"86":-0.9267123937606812,"87":0.317705363035202,"88":1.5309150218963623,"89":2.3201732635498047,"90":1.5300654172897339,"91":1.814879059791565,"92":-0.3894702196121216,"93":0.19263488054275513,"94":1.1458085775375366,"95":0.5285270810127258,"96":-0.2769635021686554,"97":-2.4897711277008057,"98":-0.41027358174324036,"99":0.7040839791297913,"100":-0.41812655329704285,"101":0.213752880692482,"102":-0.48946866393089294,"103":-0.8243629932403564,"104":0.4633575975894928,"105":1.3267308473587036,"106":-0.6805021166801453,"107":0.8919766545295715,"108":-0.035915251821279526,"109":-2.3120105266571045,"110":-1.8226248025894165,"111":1.125558614730835,"112":-0.4511052668094635,"113":0.3013191223144531,"114":-0.1302032321691513,"115":-0.5555444955825806,"116":-0.2749391794204712,"117":0.44836747646331787,"118":-0.7373297214508057,"119":1.6884400844573975,"120":-2.291954517364502,"121":-2.0809967517852783,"122":0.29007530212402344,"123":-0.8543147444725037,"124":-0.6883070468902588,"125":-0.7248915433883667,"126":-1.0976451635360718,"127":0.5917369723320007,"128":1.567185878753662,"129":-1.7032105922698975,"130":1.272917628288269,"131":-0.9702799320220947,"132":2.7951276302337646,"133":0.9973772168159485,"134":-1.2659509181976318,"135":-1.3122148513793945,"136":-1.075618863105774,"137":-1.7250112295150757,"138":-1.6122585535049438,"139":0.4275774359703064,"140":-0.6446866989135742,"141":-0.9617513418197632,"142":2.2274773120880127,"143":-1.4005255699157715,"144":-2.6452417373657227,"145":-0.27464091777801514,"146":0.052400197833776474,"147":-2.7717108726501465,"148":-0.16080178320407867,"149":1.705474615097046,"150":-0.7761107683181763,"151":0.6963962316513062,"152":-0.19466345012187958,"153":-1.9683444499969482,"154":0.2744801342487335,"155":0.14409993588924408,"156":-0.23591241240501404,"157":-0.2960975170135498,"158":1.2032463550567627,"159":-3.023048162460327,"160":-0.08091212809085846,"161":-0.007695890963077545,"162":0.2685737609863281,"163":-1.5480473041534424,"164":0.06419340521097183,"165":-0.7566682696342468,"166":1.199088215827942,"167":-0.9849665760993958,"168":-1.1506887674331665,"169":-1.7395906448364258,"170":0.4200064539909363,"171":-1.033219814300537,"172":-0.5764524340629578,"173":2.4508614540100098,"174":0.10503316670656204,"175":-0.35632947087287903,"176":1.2678568363189697,"177":0.9730208516120911,"178":0.4684998691082001,"179":0.11118672043085098,"180":1.157847285270691,"181":-0.28802940249443054,"182":-1.4162981510162354,"183":1.9013140201568604,"184":-0.3364371359348297,"185":0.158925399184227,"186":-0.5232974290847778,"187":0.3272179365158081,"188":0.5606077909469604,"189":0.9690948724746704,"190":-0.6085814833641052,"191":0.2830979526042938,"192":0.15461397171020508,"193":-0.4115101993083954,"194":-0.19394347071647644,"195":0.7434242367744446,"196":-0.25499507784843445,"197":0.3631970286369324,"198":-1.5872938632965088,"199":2.4950740337371826,"200":-0.8018593192100525,"201":-0.04482563957571983,"202":0.9964627623558044,"203":-1.212630271911621,"204":-0.82997065782547,"205":-0.466792494058609,"206":-0.9882365465164185,"207":0.6703733801841736,"208":-0.4461418390274048,"209":-1.1500351428985596,"210":1.076440691947937,"211":-0.588998556137085,"212":-1.7543596029281616,"213":0.06540025025606155,"214":-1.420386552810669,"215":1.0235564708709717,"216":0.3278769254684448,"217":0.09944773465394974,"218":1.332491397857666,"219":0.30938202142715454,"220":1.0531795024871826,"221":0.26029518246650696,"222":0.49604231119155884,"223":-0.3108295500278473,"224":-0.6168782711029053,"225":-1.822651982307434,"226":0.9058645367622375,"227":0.9262357354164124,"228":-0.24297396838665009,"229":-1.0240833759307861,"230":0.4199047088623047,"231":-1.0020450353622437,"232":1.1114392280578613,"233":0.8194839954376221,"234":-0.8641099333763123,"235":-0.8899607062339783,"236":0.6806394457817078,"237":-0.873988151550293,"238":0.04798288643360138,"239":1.790540337562561,"240":-0.8210816979408264,"241":1.5729526281356812,"242":2.3388450145721436,"243":-1.9544776678085327,"244":-1.2828919887542725,"245":2.5069079399108887,"246":0.3193524479866028,"247":1.1221941709518433,"248":-1.4346064329147339,"249":1.722790002822876,"250":-0.3009260296821594,"251":-0.1162838414311409,"252":-2.4004788398742676,"253":0.04426708444952965,"254":-0.4493594169616699,"255":0.5563848614692688,"256":-0.26950207352638245,"257":0.4100227653980255,"258":0.6098572611808777,"259":0.6519349813461304,"260":0.553338885307312,"261":0.20308701694011688,"262":1.8982232809066772,"263":-1.18130362033844,"264":-0.24841876327991486,"265":-1.6529620885849,"266":0.8765929341316223,"267":1.7726584672927856,"268":0.15285976231098175,"269":2.549506425857544,"270":0.9242011308670044,"271":-2.7281124591827393,"272":1.0923526287078857,"273":2.1644482612609863,"274":0.8305853605270386,"275":-0.0020082946866750717,"276":0.5973303914070129,"277":-0.32922741770744324,"278":-0.34202271699905396,"279":0.6292280554771423,"280":-1.0772453546524048,"281":-1.1621270179748535,"282":0.9235634207725525,"283":-2.82540225982666,"284":-2.2294254302978516,"285":-0.3618089258670807,"286":-0.5780121684074402,"287":-1.6260602474212646,"288":-2.026578187942505,"289":0.08423599600791931,"290":0.7057589888572693,"291":-0.12692759931087494,"292":-0.5637400150299072,"293":-1.001478910446167,"294":0.36834287643432617,"295":-1.697636365890503,"296":-1.02817964553833,"297":0.812421977519989,"298":-0.7544631361961365,"299":-0.17024333775043488,"300":0.8784784078598022,"301":-1.9908456802368164,"302":-1.729149580001831,"303":1.3665920495986938,"304":1.068759799003601,"305":-2.7754204273223877,"306":0.859995424747467,"307":0.3465404808521271,"308":3.2140743732452393,"309":-0.8654743432998657,"310":-0.3521704077720642,"311":0.8831707239151001,"312":0.8022120594978333,"313":1.2938401699066162,"314":-0.7470321655273438,"315":-0.554763674736023,"316":-0.4910220801830292,"317":-1.7858492136001587,"318":-1.4698536396026611,"319":-1.2870029211044312,"320":-2.009655237197876,"321":1.954416036605835,"322":1.4161498546600342,"323":-1.8547205924987793,"324":-1.0157251358032227,"325":2.2201313972473145,"326":-1.0701829195022583,"327":-1.5255959033966064,"328":-1.0240100622177124,"329":-0.5129510164260864,"330":-1.0647597312927246,"331":-0.5988651514053345,"332":-1.964856743812561,"333":1.7454960346221924,"334":0.43878868222236633,"335":0.29052191972732544,"336":-1.4853144884109497,"337":1.3917192220687866,"338":-1.4594478607177734,"339":-1.1690704822540283,"340":-0.13946108520030975,"341":-0.14272302389144897,"342":0.3855530619621277,"343":0.6318275332450867,"344":-0.47969844937324524,"345":-3.7375574111938477,"346":-1.0199602842330933,"347":0.6760510206222534,"348":0.558964192867279,"349":-0.8027753233909607,"350":0.7027420997619629,"351":-0.4185898005962372,"352":0.7998806238174438,"353":-0.9350453019142151,"354":0.18839004635810852,"355":0.25370922684669495,"356":0.8059345483779907,"357":-0.2952978014945984,"358":-0.38198527693748474,"359":-0.7310138940811157,"360":-0.7620304226875305,"361":3.009063482284546,"362":0.699250340461731,"363":-1.6001129150390625,"364":-0.10262297838926315,"365":1.1017192602157593,"366":-0.3624204993247986,"367":-2.8774187564849854,"368":0.4739139974117279,"369":1.7036184072494507,"370":-0.743662416934967,"371":-0.06633667647838593,"372":-0.26699739694595337,"373":0.6796811819076538,"374":-1.6800659894943237,"375":3.671205520629883,"376":2.8915178775787354,"377":0.815085768699646,"378":-2.5906238555908203,"379":-0.9937888383865356,"380":0.08197922259569168,"381":0.8288879990577698,"382":1.2200970649719238,"383":-0.5192581415176392,"384":-1.843106985092163,"385":2.4242165088653564,"386":1.1672487258911133,"387":0.26111000776290894,"388":1.9541583061218262,"389":0.7747010588645935,"390":-0.1544388234615326,"391":2.727215051651001,"392":-0.8230639100074768,"393":2.3837146759033203,"394":-0.6409755945205688,"395":0.7790630459785461,"396":0.6786653995513916,"397":-1.5845650434494019,"398":-1.6593447923660278,"399":-0.09274912625551224}},"cellWriteBias":{"rows":20,"columns":1,"weights":{"0":-0.4766862988471985,"1":0.3244621455669403,"2":0.07876265048980713,"3":0.5403914451599121,"4":-0.26151812076568604,"5":-0.3873664438724518,"6":0.45106980204582214,"7":0.5658946633338928,"8":0.011934683658182621,"9":-0.3889954090118408,"10":-0.5780641436576843,"11":0.26852312684059143,"12":-0.6161687970161438,"13":0.2270074039697647,"14":-0.41449978947639465,"15":1.5105592012405396,"16":0.710914134979248,"17":-0.369539350271225,"18":0.3483821153640747,"19":0.5037252306938171}}},{"updateGateInputMatrix":{"rows":20,"columns":20,"weights":{"0":0.7035014629364014,"1":-2.441138982772827,"2":2.2333147525787354,"3":-1.354233741760254,"4":0.23129411041736603,"5":0.9813732504844666,"6":3.6281487941741943,"7":-1.4842088222503662,"8":2.586730480194092,"9":1.1997238397598267,"10":2.63741397857666,"11":-0.5310177803039551,"12":2.691579818725586,"13":-1.8260798454284668,"14":-1.7763760089874268,"15":2.3183088302612305,"16":-1.6580829620361328,"17":-4.053930759429932,"18":0.7117523550987244,"19":-1.3232910633087158,"20":0.35441020131111145,"21":0.6090106964111328,"22":4.9524078369140625,"23":-1.3387293815612793,"24":0.4353368878364563,"25":0.22545962035655975,"26":1.8927329778671265,"27":-2.435089588165283,"28":0.7430518865585327,"29":0.8935164213180542,"30":0.7476072907447815,"31":-1.7664800882339478,"32":2.6409084796905518,"33":-1.9244189262390137,"34":0.40756142139434814,"35":2.9184958934783936,"36":0.7111283540725708,"37":-3.448768138885498,"38":-1.1534504890441895,"39":0.706109881401062,"40":2.6004228591918945,"41":-0.3464406430721283,"42":0.04990244656801224,"43":-0.22660911083221436,"44":1.118026614189148,"45":-0.19249670207500458,"46":-0.08358731120824814,"47":-0.9126999974250793,"48":2.35150408744812,"49":1.2459948062896729,"50":-1.0534324645996094,"51":1.294432282447815,"52":0.12658526003360748,"53":0.9545761942863464,"54":-0.8499533534049988,"55":4.188004970550537,"56":0.9955741763114929,"57":-3.9708847999572754,"58":0.7257299423217773,"59":1.8693184852600098,"60":-0.6709014177322388,"61":-0.0859820544719696,"62":0.8680329918861389,"63":0.39224231243133545,"64":1.4103429317474365,"65":-0.15382492542266846,"66":2.9550063610076904,"67":-0.5233811140060425,"68":-0.5301907658576965,"69":0.7046002149581909,"70":2.1946146488189697,"71":3.045257329940796,"72":-0.33362677693367004,"73":-0.15361802279949188,"74":-0.0858403667807579,"75":0.36793598532676697,"76":-0.703220009803772,"77":-3.4198780059814453,"78":0.07214360684156418,"79":2.4033069610595703,"80":-0.9973481893539429,"81":-0.281398743391037,"82":-0.6840569376945496,"83":1.1875368356704712,"84":-0.34691280126571655,"85":-0.7805187106132507,"86":1.2075233459472656,"87":-0.5965486764907837,"88":1.0403707027435303,"89":1.0921787023544312,"90":-1.4092997312545776,"91":5.692516326904297,"92":-1.8136824369430542,"93":2.194444417953491,"94":2.0624327659606934,"95":1.4886728525161743,"96":-0.8555111289024353,"97":-1.5520659685134888,"98":-2.388143539428711,"99":0.6095089316368103,"100":-1.5693678855895996,"101":0.755154013633728,"102":-0.973805844783783,"103":1.2564942836761475,"104":0.021240942180156708,"105":-1.4332690238952637,"106":1.0681229829788208,"107":0.704622745513916,"108":3.382906436920166,"109":-1.6826939582824707,"110":2.567213773727417,"111":-3.5113167762756348,"112":0.8108055591583252,"113":3.024233341217041,"114":-1.5443856716156006,"115":0.013272769749164581,"116":-1.0021870136260986,"117":-4.396844863891602,"118":1.967957854270935,"119":-1.4420607089996338,"120":-1.111005187034607,"121":0.658814549446106,"122":-0.09667055308818817,"123":-0.3237939774990082,"124":0.20919391512870789,"125":2.12353515625,"126":-0.4068753123283386,"127":0.912185549736023,"128":1.9586268663406372,"129":-0.8610429167747498,"130":-1.7118242979049683,"131":4.189907073974609,"132":1.9372204542160034,"133":0.1486683040857315,"134":-2.080124855041504,"135":-3.0217204093933105,"136":0.9810557961463928,"137":-2.1580822467803955,"138":3.1790080070495605,"139":-1.1719026565551758,"140":1.7594413757324219,"141":0.6364883184432983,"142":2.1774661540985107,"143":-0.042490217834711075,"144":-1.245689034461975,"145":0.6485148072242737,"146":2.0706920623779297,"147":-0.8971867561340332,"148":2.141155242919922,"149":1.1314181089401245,"150":-0.6851301789283752,"151":0.19356556236743927,"152":-1.0171054601669312,"153":-0.06715939939022064,"154":-0.9107430577278137,"155":-1.5697500705718994,"156":2.3787693977355957,"157":-1.5143463611602783,"158":1.7609355449676514,"159":2.689969778060913,"160":2.374035358428955,"161":2.4320554733276367,"162":2.274071455001831,"163":-1.9290831089019775,"164":0.995935320854187,"165":2.8252041339874268,"166":0.9567661285400391,"167":-0.4241557717323303,"168":3.3784632682800293,"169":-2.3304290771484375,"170":-2.066408395767212,"171":-1.0825049877166748,"172":1.3340718746185303,"173":-1.1841788291931152,