{"type":"LSTM","options":{"inputSize":28,"inputRange":28,"hiddenLayers":[20,20],"outputSize":28,"decayRate":0.999,"smoothEps":1e-8,"regc":0.000001,"clipval":5,"maxPredictionLength":100,"dataFormatter":{"values":["Please add a dark mode for nighttime use.","This app is a lifesaver for tracking expenses.","actionable","unactionable"],"indexTable":{"P":0,"l":1,"e":2,"a":3,"s":4," ":5,"d":6,"r":7,"k":8,"m":9,"o":10,"f":11,"n":12,"i":13,"g":14,"h":15,"t":16,"u":17,".":18,"T":19,"p":20,"v":21,"c":22,"x":23,"b":24,"stop-input":25,"start-output":26,"unrecognized":27},"characterTable":{"0":"P","1":"l","2":"e","3":"a","4":"s","5":" ","6":"d","7":"r","8":"k","9":"m","10":"o","11":"f","12":"n","13":"i","14":"g","15":"h","16":"t","17":"u","18":".","19":"T","20":"p","21":"v","22":"c","23":"x","24":"b","25":null,"26":null,"27":null},"characters":["P","l","e","a","s"," ","d","r","k","m","o","f","n","i","g","h","t","u",".","T","p","v","c","x","b","stop-input","start-output","unrecognized"],"specialIndexes":[25,26,27]}},"input":{"rows":29,"columns":28,"weights":{"0":-0.09604641050100327,"1":1.0529788732528687,"2":0.807754397392273,"3":-0.4684130549430847,"4":0.12469428032636642,"5":-1.107089877128601,"6":0.05789020285010338,"7":0.3036534786224365,"8":0.15906664729118347,"9":0.09529365599155426,"10":0.8589577674865723,"11":0.17883330583572388,"12":0.6809923052787781,"13":-0.3081935942173004,"14":-0.580022931098938,"15":0.37070849537849426,"16":0.11840122193098068,"17":0.7225311398506165,"18":1.1597217321395874,"19":0.8791728615760803,"20":-0.38687461614608765,"21":0.9337733387947083,"22":-0.6250386834144592,"23":-0.010430486872792244,"24":0.9173145890235901,"25":1.1123788356781006,"26":-0.48336148262023926,"27":2.0123789310455322,"28":-1.2709683179855347,"29":0.8870272636413574,"30":-0.586367130279541,"31":-0.0801440104842186,"32":0.3135874569416046,"33":-0.9353669881820679,"34":-0.9436622858047485,"35":-1.4325919151306152,"36":1.7269386053085327,"37":1.4864708185195923,"38":-0.9355899691581726,"39":-0.5694107413291931,"40":0.4551510214805603,"41":-0.49418774247169495,"42":-0.0682617723941803,"43":-0.0503741130232811,"44":3.0663490295410156,"45":-0.20233707129955292,"46":-0.664961040019989,"47":1.0121800899505615,"48":0.8877448439598083,"49":-0.7496786713600159,"50":0.20207878947257996,"51":-1.2495509386062622,"52":-0.8487189412117004,"53":0.7371798753738403,"54":0.6246533989906311,"55":-0.3184833824634552,"56":-1.3178603649139404,"57":0.2576538026332855,"58":-0.3759874701499939,"59":1.6661019325256348,"60":0.3931768536567688,"61":0.8738285303115845,"62":-0.392569899559021,"63":-0.36881494522094727,"64":0.022653555497527122,"65":0.9373093247413635,"66":-1.689232587814331,"67":-0.4551815390586853,"68":-0.423008531332016,"69":-0.003985750023275614,"70":0.2800582945346832,"71":0.06274640560150146,"72":0.4747387170791626,"73":-0.6368697285652161,"74":-0.2826204001903534,"75":0.0996427834033966,"76":0.3263539671897888,"77":-1.2443934679031372,"78":0.6994107961654663,"79":-0.05579950287938118,"80":-1.7494724988937378,"81":-0.08156979084014893,"82":-0.7788238525390625,"83":-1.0342514514923096,"84":-0.9516043066978455,"85":-0.30078810453414917,"86":-1.00137197971344,"87":1.161957859992981,"88":-1.9283455610275269,"89":-0.314414381980896,"90":-0.4663561284542084,"91":-0.18238148093223572,"92":-1.8195422887802124,"93":-0.04791805148124695,"94":-1.8526184558868408,"95":-1.1272225379943848,"96":0.5919662117958069,"97":0.10058489441871643,"98":0.8785583972930908,"99":-0.19790500402450562,"100":-0.31307199597358704,"101":-0.14331044256687164,"102":-0.46329018473625183,"103":-0.5711879730224609,"104":1.1793724298477173,"105":-1.5352586507797241,"106":-0.3810659646987915,"107":1.3802990913391113,"108":-2.0060203075408936,"109":-0.04602709785103798,"110":-0.5241490602493286,"111":-2.7809722423553467,"112":0.4059307873249054,"113":-1.265927791595459,"114":0.7901611328125,"115":-0.8126690983772278,"116":-0.3044798970222473,"117":-0.4843154549598694,"118":1.104957103729248,"119":0.6772460341453552,"120":0.3133522868156433,"121":-0.1316175013780594,"122":0.015613491646945477,"123":1.4089614152908325,"124":0.3814855217933655,"125":-1.340470314025879,"126":-0.044806577265262604,"127":-0.8528782725334167,"128":0.5814329981803894,"129":-0.2945665419101715,"130":-0.8446199297904968,"131":1.136773943901062,"132":-0.04962637275457382,"133":0.8697179555892944,"134":1.0206912755966187,"135":-0.7822492122650146,"136":1.564782977104187,"137":-0.3119479715824127,"138":1.0809675455093384,"139":0.9947314262390137,"140":-0.8406581878662109,"141":0.36198100447654724,"142":-0.5690653920173645,"143":-0.04623773321509361,"144":0.7243764400482178,"145":0.01023863349109888,"146":0.8950467705726624,"147":0.5994817018508911,"148":-0.2535974979400635,"149":0.0788707584142685,"150":-2.5944182872772217,"151":-0.20685115456581116,"152":-0.766516387462616,"153":-0.07692518830299377,"154":-0.5841201543807983,"155":-0.17674358189105988,"156":0.6046612858772278,"157":0.2155309021472931,"158":0.35452786087989807,"159":-0.2182607203722,"160":0.5678895115852356,"161":-0.8004798293113708,"162":-1.3084208965301514,"163":-0.7030822038650513,"164":-0.9579606652259827,"165":0.029870333150029182,"166":0.9068711996078491,"167":-1.1089587211608887,"168":-0.28636473417282104,"169":-0.11837352067232132,"170":-1.1365845203399658,"171":-0.12130461633205414,"172":1.5969575643539429,"173":2.3671979904174805,"174":-1.4042035341262817,"175":0.24756962060928345,"176":0.8455122113227844,"177":1.7300033569335938,"178":0.26803433895111084,"179":-0.8353973031044006,"180":-1.1677199602127075,"181":0.2648523151874542,"182":-0.087394118309021,"183":0.25034022331237793,"184":-0.5294032096862793,"185":-1.072284460067749,"186":-0.0996861681342125,"187":-1.9823967218399048,"188":0.03420021012425423,"189":-0.2780400216579437,"190":0.005473866127431393,"191":-0.03373482823371887,"192":-0.6336656212806702,"193":-0.7678128480911255,"194":-1.553411841392517,"195":-0.5653837323188782,"196":0.04592195153236389,"197":0.23826922476291656,"198":0.34671255946159363,"199":1.2506237030029297,"200":0.3043038547039032,"201":1.3485569953918457,"202":0.7593149542808533,"203":-2.180157423019409,"204":1.0234286785125732,"205":-0.6910510063171387,"206":-0.739131510257721,"207":0.33837756514549255,"208":0.5363845825195312,"209":0.6867914199829102,"210":0.2892799377441406,"211":0.5026620626449585,"212":0.513623058795929,"213":-1.728365421295166,"214":0.31582435965538025,"215":-0.5415231585502625,"216":0.0608396902680397,"217":0.6932101845741272,"218":-0.797065019607544,"219":-1.8630250692367554,"220":0.5818066000938416,"221":0.5082258582115173,"222":1.588220477104187,"223":-0.13603490591049194,"224":0.5115653276443481,"225":-0.8594366908073425,"226":-0.17515011131763458,"227":0.20488344132900238,"228":0.9583941102027893,"229":2.282616376876831,"230":0.0607571005821228,"231":-0.4880509078502655,"232":0.38253554701805115,"233":0.5205731987953186,"234":0.2962527871131897,"235":-0.375400573015213,"236":-0.08021988719701767,"237":-0.6881956458091736,"238":0.25613078474998474,"239":-0.7561548352241516,"240":-0.7888791561126709,"241":-1.2224704027175903,"242":-0.3331809937953949,"243":-1.4650765657424927,"244":-0.2582593858242035,"245":-0.042714521288871765,"246":0.8345901370048523,"247":0.0619659498333931,"248":-0.3074852526187897,"249":-1.4328842163085938,"250":0.32034704089164734,"251":0.5098747611045837,"252":-1.01524019241333,"253":0.4665246307849884,"254":-0.8504095673561096,"255":-1.1384894847869873,"256":0.4083397686481476,"257":-0.8373984098434448,"258":-0.14450931549072266,"259":0.6330581903457642,"260":0.35345080494880676,"261":-1.1951056718826294,"262":-0.2954934537410736,"263":-0.42935237288475037,"264":0.04217032343149185,"265":1.2756083011627197,"266":-1.1911786794662476,"267":0.5306193828582764,"268":0.01510932482779026,"269":0.7878679633140564,"270":0.27410411834716797,"271":0.07918724417686462,"272":1.097891092300415,"273":-0.9200439453125,"274":1.6611019372940063,"275":0.14654599130153656,"276":-0.5106483697891235,"277":0.3340284526348114,"278":-0.15452660620212555,"279":0.2586814761161804,"280":2.2202467918395996,"281":0.2861349582672119,"282":1.6306672096252441,"283":-0.2661224603652954,"284":-1.3437343835830688,"285":-1.0478874444961548,"286":-0.32821476459503174,"287":0.6412451267242432,"288":-0.5205198526382446,"289":-1.8009905815124512,"290":3.2002713680267334,"291":0.336241215467453,"292":0.2652754783630371,"293":0.5219488739967346,"294":0.6399816870689392,"295":1.302013874053955,"296":-0.38805171847343445,"297":2.348893165588379,"298":-1.257523536682129,"299":1.0333858728408813,"300":-0.49462994933128357,"301":2.157289743423462,"302":0.8026502728462219,"303":0.6810059547424316,"304":2.741544723510742,"305":0.7114307880401611,"306":0.4571457505226135,"307":0.18970529735088348,"308":0.05730220675468445,"309":-1.1342568397521973,"310":-0.05637994408607483,"311":0.15550105273723602,"312":-0.09231346100568771,"313":0.9419853091239929,"314":-0.4987172484397888,"315":-0.05632154643535614,"316":0.2683352828025818,"317":0.7702558040618896,"318":0.4511995315551758,"319":-0.16001249849796295,"320":0.4722210466861725,"321":0.11530383676290512,"322":0.7094447612762451,"323":-0.05058889091014862,"324":-0.38740915060043335,"325":-0.7949592471122742,"326":-0.6337459087371826,"327":0.32641562819480896,"328":0.41997626423835754,"329":-0.1575518399477005,"330":-0.024951010942459106,"331":0.10754283517599106,"332":-0.1946885734796524,"333":-0.40444469451904297,"334":-0.46368420124053955,"335":0.2775760591030121,"336":1.038859248161316,"337":0.41661176085472107,"338":0.39198997616767883,"339":-1.3516223430633545,"340":0.06389159709215164,"341":-0.5254838466644287,"342":0.7029770612716675,"343":0.9963065385818481,"344":-0.9471976161003113,"345":2.002020835876465,"346":0.26512089371681213,"347":0.9164260625839233,"348":-0.5547483563423157,"349":-0.6290614008903503,"350":-0.7510340809822083,"351":-0.6351248621940613,"352":0.21508575975894928,"353":0.5420695543289185,"354":-0.09421830624341965,"355":0.08671731501817703,"356":-1.054675579071045,"357":0.4513789713382721,"358":0.16882041096687317,"359":1.0644803047180176,"360":0.9522475600242615,"361":-0.650420606136322,"362":0.5466172099113464,"363":1.567617654800415,"364":-0.4757804870605469,"365":0.39465153217315674,"366":-1.7325900793075562,"367":0.12596629559993744,"368":0.2465498000383377,"369":-0.397657185792923,"370":0.3414455056190491,"371":0.7442350387573242,"372":-0.027343837544322014,"373":0.43389958143234253,"374":-1.0660969018936157,"375":-1.2804816961288452,"376":-0.3493351340293884,"377":3.847043037414551,"378":-0.40147218108177185,"379":1.5688358545303345,"380":0.025124559178948402,"381":1.2531038522720337,"382":0.6460413932800293,"383":0.47825679183006287,"384":1.3119614124298096,"385":-1.4552953243255615,"386":2.0955092906951904,"387":0.16920997202396393,"388":-1.053600788116455,"389":1.03269362449646,"390":0.24824854731559753,"391":-0.38593360781669617,"392":-0.49503418803215027,"393":-0.08770330995321274,"394":-0.4244592487812042,"395":0.3211374580860138,"396":1.3808423280715942,"397":1.0981824398040771,"398":0.10446418821811676,"399":0.7055523991584778,"400":0.6274262070655823,"401":1.2725672721862793,"402":-0.38560983538627625,"403":-1.1127891540527344,"404":-0.6111237406730652,"405":-0.05202605575323105,"406":0.24324308335781097,"407":0.030619172379374504,"408":-0.4357646107673645,"409":0.05857770889997482,"410":-0.16540922224521637,"411":-0.5550208687782288,"412":0.23600850999355316,"413":-0.2259303629398346,"414":0.7362580299377441,"415":-0.3855525255203247,"416":-0.8197556138038635,"417":-0.6838796734809875,"418":-0.4613962173461914,"419":-0.7118381261825562,"420":-0.43101799488067627,"421":0.09162510931491852,"422":-0.5322539806365967,"423":-0.46505552530288696,"424":0.26142460107803345,"425":-0.8682144284248352,"426":0.31495943665504456,"427":-0.08830437809228897,"428":0.1622190624475479,"429":0.13961544632911682,"430":-0.27066531777381897,"431":-0.48719522356987,"432":0.7583984136581421,"433":1.5124273300170898,"434":-0.6764655113220215,"435":-0.46200838685035706,"436":-1.3630971908569336,"437":-0.05707819387316704,"438":0.4258941113948822,"439":-0.1566179245710373,"440":0.412308007478714,"441":-0.6804401874542236,"442":1.302010178565979,"443":-0.6351544857025146,"444":-0.3722667098045349,"445":-0.47488415241241455,"446":0.32846683263778687,"447":0.4880279302597046,"448":-0.8521021604537964,"449":-0.23696309328079224,"450":-1.427668809890747,"451":0.19174951314926147,"452":-0.5264238119125366,"453":0.04495010897517204,"454":0.2125532478094101,"455":0.1887737363576889,"456":-0.49086934328079224,"457":-0.41878703236579895,"458":-1.2004437446594238,"459":-1.839125633239746,"460":-0.3096713125705719,"461":0.9913870692253113,"462":0.1402893215417862,"463":0.16904444992542267,"464":-0.3577851355075836,"465":0.2715362310409546,"466":0.2013120800256729,"467":0.5983020663261414,"468":1.621687650680542,"469":-1.325462818145752,"470":0.9251648783683777,"471":0.8526021242141724,"472":-1.2777099609375,"473":0.08038787543773651,"474":0.13269999623298645,"475":-0.6828854084014893,"476":0.2228299081325531,"477":-0.07033845037221909,"478":-0.18374879658222198,"479":-0.2048359364271164,"480":1.184972882270813,"481":1.210209608078003,"482":-0.17998532950878143,"483":0.4053278863430023,"484":0.08582360297441483,"485":1.6678857803344727,"486":0.9854269623756409,"487":0.14889512956142426,"488":-0.8303247094154358,"489":0.5004804134368896,"490":0.03138335421681404,"491":0.4021427035331726,"492":-0.8328937888145447,"493":-0.09724117815494537,"494":0.6077151894569397,"495":-0.930456280708313,"496":-1.114304542541504,"497":-0.19941821694374084,"498":-0.6940450072288513,"499":0.6396757960319519,"500":-0.14197084307670593,"501":-0.7542734146118164,"502":-0.643285870552063,"503":0.8336396813392639,"504":-0.8298047184944153,"505":-0.38145872950553894,"506":-1.5956480503082275,"507":1.0868548154830933,"508":-0.9499116539955139,"509":0.8165706396102905,"510":0.33689084649086,"511":0.7333809733390808,"512":-0.8725839257240295,"513":1.5962622165679932,"514":-2.7319259643554688,"515":-0.7841761112213135,"516":-0.19021333754062653,"517":-0.7243916392326355,"518":0.6112565398216248,"519":-0.19683684408664703,"520":-0.6242818832397461,"521":0.11057569086551666,"522":-0.18499988317489624,"523":-0.3708142638206482,"524":0.9139477014541626,"525":-1.7534513473510742,"526":1.0512882471084595,"527":0.5331854224205017,"528":-1.8656357526779175,"529":-0.4980236291885376,"530":0.06834694743156433,"531":0.27873682975769043,"532":0.12257040292024612,"533":-0.9485204815864563,"534":0.25987881422042847,"535":1.1604796648025513,"536":-1.4509197473526,"537":0.9707993268966675,"538":-2.426339626312256,"539":-0.7909674048423767,"540":-0.6442949771881104,"541":-0.4396952986717224,"542":1.763239860534668,"543":-0.23897482454776764,"544":1.9533127546310425,"545":-1.2857950925827026,"546":0.6221395134925842,"547":-0.19039994478225708,"548":-0.7269009947776794,"549":-0.9018563032150269,"550":-0.8728770017623901,"551":-0.49425747990608215,"552":0.3515000641345978,"553":1.0279541015625,"554":-0.9335778951644897,"555":1.1085195541381836,"556":0.8817200064659119,"557":0.13230976462364197,"558":-2.4519340991973877,"559":0.6892725825309753,"560":-0.9253019690513611,"561":-0.9087042212486267,"562":-1.146505355834961,"563":-0.27935224771499634,"564":-0.8447936773300171,"565":-0.26315510272979736,"566":-0.1084839403629303,"567":-0.14237993955612183,"568":-0.6626011729240417,"569":0.33784690499305725,"570":-0.827568531036377,"571":-1.2183555364608765,"572":-0.029032638296484947,"573":1.5822885036468506,"574":1.4088454246520996,"575":-0.2584715783596039,"576":-0.5249191522598267,"577":-0.5571951866149902,"578":0.11272376030683517,"579":-1.2899655103683472,"580":1.1991463899612427,"581":-0.7623531818389893,"582":1.2972283363342285,"583":0.028821047395467758,"584":-1.0119245052337646,"585":-0.3552006185054779,"586":-1.166100263595581,"587":-0.6722041368484497,"588":0.9947300553321838,"589":-2.0062456130981445,"590":-0.256336510181427,"591":0.10551434755325317,"592":-0.6918664574623108,"593":1.2515220642089844,"594":-2.430433750152588,"595":-1.208390712738037,"596":-0.07958920300006866,"597":1.1907485723495483,"598":1.077091932296753,"599":1.1105271577835083,"600":0.7912387251853943,"601":-1.6328270435333252,"602":3.001621961593628,"603":-2.0696778297424316,"604":-1.325331687927246,"605":-1.6198992729187012,"606":-3.1660239696502686,"607":-1.3718115091323853,"608":-0.6114416718482971,"609":0.408989816904068,"610":-1.5911593437194824,"611":-0.038247086107730865,"612":0.23370873928070068,"613":-1.7347490787506104,"614":-2.781193971633911,"615":0.18059374392032623,"616":-0.2796521782875061,"617":-1.1129928827285767,"618":-0.5093332529067993,"619":0.5861119627952576,"620":-0.3360094726085663,"621":2.472642660140991,"622":-1.1661550998687744,"623":-0.3953183591365814,"624":0.4905468821525574,"625":1.2812635898590088,"626":-1.5300153493881226,"627":0.23519481718540192,"628":0.22911596298217773,"629":0.495166152715683,"630":1.811955213546753,"631":-0.2252865582704544,"632":-0.7047833204269409,"633":-1.1866205930709839,"634":-0.8538200855255127,"635":-1.8546130657196045,"636":-0.04133058339357376,"637":-1.065761685371399,"638":0.06248629465699196,"639":-0.21470464766025543,"640":-0.910180926322937,"641":-0.45239919424057007,"642":-0.9205915331840515,"643":-3.31782603263855,"644":0.3541682958602905,"645":0.20691019296646118,"646":-0.8607847094535828,"647":1.50701105594635,"648":-0.22390492260456085,"649":1.3478877544403076,"650":0.05212434008717537,"651":0.34537553787231445,"652":-0.42715388536453247,"653":-0.6538552045822144,"654":0.02650141343474388,"655":-2.3353796005249023,"656":-0.4216839075088501,"657":2.090616464614868,"658":-0.045951519161462784,"659":0.850633978843689,"660":-0.4364127516746521,"661":0.310115247964859,"662":0.6403465270996094,"663":-1.0975282192230225,"664":0.797355055809021,"665":-0.04018659144639969,"666":1.475501537322998,"667":0.6528315544128418,"668":-0.9184487462043762,"669":0.4061315059661865,"670":-0.05654573440551758,"671":-0.4713117480278015,"672":-0.6029161810874939,"673":-0.04582161828875542,"674":0.0346931628882885,"675":1.2812843322753906,"676":-2.3839261531829834,"677":0.6833820343017578,"678":-1.9299362897872925,"679":-2.523081064224243,"680":-1.6796789169311523,"681":0.742900013923645,"682":-0.9032008051872253,"683":0.25893741846084595,"684":1.5479122400283813,"685":-1.7940564155578613,"686":0.5779536962509155,"687":-2.0746500492095947,"688":-0.6400406956672668,"689":-1.5503156185150146,"690":-2.101947546005249,"691":0.32579103112220764,"692":0.44359955191612244,"693":0.15519750118255615,"694":-0.7040753960609436,"695":0.1348447948694229,"696":0.11206704378128052,"697":-0.5992026925086975,"698":-0.5121609568595886,"699":-0.06441643089056015,"700":0.7395538687705994,"701":-0.6872370839118958,"702":0.7897962331771851,"703":0.6258853077888489,"704":-0.07051964104175568,"705":0.6218876838684082,"706":-1.3268274068832397,"707":-1.1645869016647339,"708":0.7781596183776855,"709":0.06753469258546829,"710":1.214345097541809,"711":0.8184751272201538,"712":0.950745701789856,"713":-0.01898880861699581,"714":0.9406812191009521,"715":0.08698724210262299,"716":0.19490580260753632,"717":-0.7015697360038757,"718":-0.7266306281089783,"719":-0.44791126251220703,"720":-0.3431854844093323,"721":0.8859911561012268,"722":-0.04459168389439583,"723":0.09502717107534409,"724":0.9404879212379456,"725":-0.4914150834083557,"726":-0.5908893942832947,"727":1.144812822341919,"728":-0.4555291533470154,"729":-0.46604499220848083,"730":-0.7432799935340881,"731":-1.4853603839874268,"732":1.1461505889892578,"733":0.0578814335167408,"734":0.6601874828338623,"735":0.5571534633636475,"736":1.0838994979858398,"737":0.3460947275161743,"738":0.05336016044020653,"739":-0.5514848232269287,"740":-1.1070953607559204,"741":0.5056637525558472,"742":-0.3940691351890564,"743":0.08165836334228516,"744":0.7466773390769958,"745":-0.34236210584640503,"746":-0.0005235436838120222,"747":-0.6495355367660522,"748":-0.17698431015014648,"749":-0.5370784997940063,"750":2.0620486736297607,"751":-1.5076627731323242,"752":-0.0293181873857975,"753":-0.2662087380886078,"754":0.6862820386886597,"755":0.7590268850326538,"756":0.07773616164922714,"757":-0.7098334431648254,"758":-0.5510146021842957,"759":-1.156375765800476,"760":-0.38835224509239197,"761":0.5749961733818054,"762":0.8381837010383606,"763":0.6085289120674133,"764":-0.14435088634490967,"765":1.3028329610824585,"766":-0.399964302778244,"767":-0.5072105526924133,"768":-0.7895205616950989,"769":0.0978240892291069,"770":0.2822890281677246,"771":0.061824169009923935,"772":0.6041110157966614,"773":-0.2933180332183838,"774":-0.11337743699550629,"775":-1.158035159111023,"776":-0.23780399560928345,"777":-0.875564455986023,"778":1.3959308862686157,"779":0.39969953894615173,"780":-0.5074529647827148,"781":-0.3795407712459564,"782":0.2235853374004364,"783":-0.22067274153232574,"784":0.05664641782641411,"785":0.016772571951150894,"786":0.04055429622530937,"787":-0.030082594603300095,"788":0.007855983451008797,"789":-0.022894229739904404,"790":0.06256449222564697,"791":0.0131754195317626,"792":-0.011025475338101387,"793":-0.021042875945568085,"794":-0.05960876867175102,"795":0.06594333052635193,"796":-0.06304187327623367,"797":-0.009426942095160484,"798":0.07409781962633133,"799":0.07038965076208115,"800":0.002453373745083809,"801":-0.05601075291633606,"802":0.0027629234828054905,"803":0.03282908722758293,"804":0.03418773040175438,"805":-0.07391627877950668,"806":0.026101004332304,"807":0.03541494533419609,"808":0.030732452869415283,"809":0.06924070417881012,"810":-0.04990389570593834,"811":0.03421289473772049}},"hiddenLayers":[{"inputMatrix":{"rows":20,"columns":28,"weights":{"0":-0.0909159705042839,"1":0.20779363811016083,"2":-0.2243112176656723,"3":1.1401172876358032,"4":-0.5999056100845337,"5":0.8334075212478638,"6":-0.41662341356277466,"7":-0.43957456946372986,"8":-0.3384301960468292,"9":0.04526803269982338,"10":-1.1878200769424438,"11":-0.12727437913417816,"12":-0.06557907164096832,"13":0.41811323165893555,"14":0.5542626976966858,"15":0.29367372393608093,"16":-0.26137396693229675,"17":-0.27543962001800537,"18":-0.13649143278598785,"19":-0.6055660843849182,"20":-0.05234751105308533,"21":0.0123897111043334,"22":0.5729597806930542,"23":0.0004335588891990483,"24":-0.9294885396957397,"25":0.26946717500686646,"26":-0.2961549460887909,"27":-1.1402335166931152,"28":-1.1555527448654175,"29":-0.30727067589759827,"30":-1.036037802696228,"31":-0.1492716372013092,"32":0.25760617852211,"33":0.5064578056335449,"34":-0.18788506090641022,"35":-0.22558759152889252,"36":1.1159107685089111,"37":0.028345314785838127,"38":-1.2425031661987305,"39":-1.1119470596313477,"40":0.010813168250024319,"41":0.8313684463500977,"42":0.6881434321403503,"43":0.12700995802879333,"44":0.6303744912147522,"45":-0.3868265450000763,"46":-0.20028100907802582,"47":-0.2457377314567566,"48":1.6649119853973389,"49":-1.168318271636963,"50":0.6756983995437622,"51":-1.1879692077636719,"52":-1.0611867904663086,"53":0.4442118704319,"54":-0.05109311640262604,"55":-0.09517472237348557,"56":-0.03802482783794403,"57":0.6959371566772461,"58":0.14134825766086578,"59":0.6531915664672852,"60":0.5579065680503845,"61":0.896199107170105,"62":-0.4664004147052765,"63":-0.14301040768623352,"64":0.23275770246982574,"65":1.4077121019363403,"66":-0.20647481083869934,"67":0.7377476096153259,"68":-0.09852678328752518,"69":-0.7529548406600952,"70":0.3705206513404846,"71":-0.5614997148513794,"72":0.26078933477401733,"73":-0.19450847804546356,"74":-0.09984256327152252,"75":-0.4405629336833954,"76":-0.2747509181499481,"77":0.5255776643753052,"78":-1.3528069257736206,"79":-0.13482140004634857,"80":0.41806119680404663,"81":-0.35541194677352905,"82":-0.5819993019104004,"83":0.9262030720710754,"84":1.4554997682571411,"85":-0.6814086437225342,"86":1.0438356399536133,"87":-0.39386916160583496,"88":-0.04772685468196869,"89":0.22740080952644348,"90":0.07842821627855301,"91":0.25101059675216675,"92":-0.42700180411338806,"93":0.010427741333842278,"94":1.4476072788238525,"95":0.6796571016311646,"96":0.6008211970329285,"97":-0.4919607639312744,"98":0.35448941588401794,"99":-0.28681474924087524,"100":-0.9599901437759399,"101":-0.21062025427818298,"102":-0.3352715075016022,"103":0.12633784115314484,"104":-1.335822343826294,"105":0.5194171667098999,"106":-0.30390793085098267,"107":0.8786730766296387,"108":0.7638602256774902,"109":-0.3918311893939972,"110":0.0035106982104480267,"111":1.387627363204956,"112":0.3162783682346344,"113":-0.17757731676101685,"114":0.45080921053886414,"115":1.0174527168273926,"116":0.2752991318702698,"117":0.8276515603065491,"118":-0.7398225665092468,"119":-0.6282257437705994,"120":0.45298218727111816,"121":0.5415838360786438,"122":0.7076050043106079,"123":0.13569258153438568,"124":-0.0081528564915061,"125":0.050371840596199036,"126":0.4037655293941498,"127":-0.5999228358268738,"128":-1.0023596286773682,"129":-0.6658387780189514,"130":-0.40110981464385986,"131":-0.3729272782802582,"132":-0.8653352856636047,"133":-0.06502542644739151,"134":-1.0887172222137451,"135":0.23840288817882538,"136":-0.28051358461380005,"137":-0.9416158199310303,"138":-0.8584680557250977,"139":-0.8068137764930725,"140":2.157985210418701,"141":-1.175310730934143,"142":0.4531291127204895,"143":-0.5097817778587341,"144":0.314066082239151,"145":0.6457854509353638,"146":-0.3604714274406433,"147":0.30335816740989685,"148":-0.9758257269859314,"149":1.548633098602295,"150":0.1265505701303482,"151":0.8645294308662415,"152":-0.08374190330505371,"153":0.3976324498653412,"154":0.755012035369873,"155":-0.8581554293632507,"156":-0.8617909550666809,"157":0.02977287583053112,"158":-1.575179934501648,"159":-0.3931785523891449,"160":-1.0960971117019653,"161":0.22645866870880127,"162":0.20500513911247253,"163":1.6284916400909424,"164":0.22546204924583435,"165":-1.1677778959274292,"166":-0.546967089176178,"167":0.1506933718919754,"168":1.1206942796707153,"169":-0.5513532757759094,"170":0.1579865962266922,"171":0.516622006893158,"172":0.299841970205307,"173":0.7064205408096313,"174":-0.5994522571563721,"175":-1.025275468826294,"176":0.18791712820529938,"177":0.779847264289856,"178":1.3367782831192017,"179":0.34559911489486694,"180":0.18026992678642273,"181":-0.24183934926986694,"182":0.47863101959228516,"183":-0.524657666683197,"184":-0.4015253484249115,"185":-0.9171949625015259,"186":-0.30780351161956787,"187":-0.8240178227424622,"188":-1.0263842344284058,"189":0.6050591468811035,"190":-1.1247755289077759,"191":0.06805422157049179,"192":0.4556887745857239,"193":-0.694466233253479,"194":-0.34978508949279785,"195":1.600561499595642,"196":0.5675935745239258,"197":0.6858806610107422,"198":0.05310655012726784,"199":0.05021342262625694,"200":-0.22923128306865692,"201":-0.13037924468517303,"202":-0.12953844666481018,"203":-0.4241868257522583,"204":-1.2113659381866455,"205":-0.02318713814020157,"206":0.7743311524391174,"207":0.13727037608623505,"208":0.005383421666920185,"209":-1.0518537759780884,"210":0.11271749436855316,"211":-1.4053728580474854,"212":0.007182296831160784,"213":0.4541082978248596,"214":0.30985352396965027,"215":-0.7582253217697144,"216":-0.44693776965141296,"217":0.1913350522518158,"218":0.4702504575252533,"219":0.26835712790489197,"220":0.2218349725008011,"221":-0.4127173125743866,"222":-0.2767704427242279,"223":1.2054502964019775,"224":1.2183732986450195,"225":-0.9271892309188843,"226":0.5000813007354736,"227":-0.3195800483226776,"228":-0.45119500160217285,"229":0.09843365103006363,"230":-0.3782678246498108,"231":-0.11752195656299591,"232":-0.7617907524108887,"233":0.3310372531414032,"234":1.5958055257797241,"235":0.34441322088241577,"236":0.13319508731365204,"237":-0.290202260017395,"238":-0.0853002741932869,"239":-0.7177326083183289,"240":-0.9566258788108826,"241":-0.4052583575248718,"242":-0.5487349033355713,"243":-0.4353835880756378,"244":-0.6294178366661072,"245":0.5850495100021362,"246":-0.22940059006214142,"247":0.8041000962257385,"248":0.6725308895111084,"249":-0.8817567825317383,"250":-0.4135734736919403,"251":2.090768575668335,"252":-0.6906463503837585,"253":-0.7052244544029236,"254":-0.09006161987781525,"255":0.4304583966732025,"256":-0.941425085067749,"257":0.3151223659515381,"258":-0.9164889454841614,"259":-1.4540188312530518,"260":0.5602745413780212,"261":-0.8926674723625183,"262":-0.3812294900417328,"263":0.21637417376041412,"264":1.613705039024353,"265":0.04497314244508743,"266":0.026854969561100006,"267":-1.0681551694869995,"268":-0.26947787404060364,"269":-1.1240779161453247,"270":-0.8945440053939819,"271":-0.5747681260108948,"272":0.6938301920890808,"273":0.5086485147476196,"274":0.006031892262399197,"275":-1.2186037302017212,"276":0.4959513247013092,"277":-0.24057340621948242,"278":-0.06890906393527985,"279":-0.5092644095420837,"280":0.44721558690071106,"281":0.2897008955478668,"282":0.37991568446159363,"283":-1.6896581649780273,"284":0.590905487537384,"285":-1.2997952699661255,"286":1.272316336631775,"287":1.3779296875,"288":0.4680139124393463,"289":-0.5884333252906799,"290":0.5735744833946228,"291":0.6043874025344849,"292":-1.1071417331695557,"293":0.16883519291877747,"294":-1.0150130987167358,"295":0.3417206108570099,"296":1.8368768692016602,"297":1.2735035419464111,"298":0.9578284621238708,"299":0.36129823327064514,"300":-0.9941642880439758,"301":0.5747550129890442,"302":0.29407981038093567,"303":-0.5040324330329895,"304":0.8145199418067932,"305":0.5789739489555359,"306":1.755381464958191,"307":1.6524137258529663,"308":0.09924185276031494,"309":-0.3152880072593689,"310":-1.0503976345062256,"311":-1.0650571584701538,"312":-0.016523323953151703,"313":-0.5642871260643005,"314":0.4076671004295349,"315":0.9663787484169006,"316":-0.24794737994670868,"317":0.579473614692688,"318":-0.10907968878746033,"319":-0.5986807346343994,"320":-0.5903110504150391,"321":1.0436732769012451,"322":-0.41025984287261963,"323":0.34579142928123474,"324":-0.12271992117166519,"325":0.3732270300388336,"326":0.27534011006355286,"327":-0.23744997382164001,"328":0.4518810510635376,"329":-0.5939142107963562,"330":1.6431864500045776,"331":0.1759423166513443,"332":-0.6165861487388611,"333":-0.04513142630457878,"334":-0.22368665039539337,"335":-0.9438212513923645,"336":0.5093229413032532,"337":-0.004164266400039196,"338":0.10788489133119583,"339":0.13004015386104584,"340":0.9145382046699524,"341":0.7823877930641174,"342":0.3943318724632263,"343":0.15318571031093597,"344":0.27580714225769043,"345":0.19561925530433655,"346":0.995265543460846,"347":-0.0951363816857338,"348":0.0618387870490551,"349":0.8151304125785828,"350":-0.7183911204338074,"351":0.027685388922691345,"352":-0.4408225119113922,"353":-0.1303490698337555,"354":0.7200728058815002,"355":-0.7125604748725891,"356":-0.5995212197303772,"357":0.4030907154083252,"358":0.797881543636322,"359":0.07880716770887375,"360":0.4584140181541443,"361":-0.32290300726890564,"362":0.45792144536972046,"363":1.5632885694503784,"364":0.3741550147533417,"365":0.5936710238456726,"366":0.39534932374954224,"367":0.940120279788971,"368":-0.22311271727085114,"369":0.09314297139644623,"370":0.5720188617706299,"371":0.2086195945739746,"372":-0.04152478277683258,"373":-0.37238946557044983,"374":0.5086938142776489,"375":0.03296957165002823,"376":-0.4189474582672119,"377":0.7895416617393494,"378":-0.22023329138755798,"379":0.44702383875846863,"380":0.1167684867978096,"381":0.47700628638267517,"382":0.5478045344352722,"383":0.058951690793037415,"384":-0.1802459955215454,"385":0.8620999455451965,"386":0.09615931659936905,"387":0.2655913829803467,"388":0.5298851728439331,"389":0.32621005177497864,"390":0.6397307515144348,"391":0.39307844638824463,"392":-0.6699188351631165,"393":0.6293272376060486,"394":-0.4261423647403717,"395":-0.3235509991645813,"396":1.155845284461975,"397":-0.5572201013565063,"398":0.8523001670837402,"399":1.0647317171096802,"400":0.8416501879692078,"401":-0.758011519908905,"402":-0.6237488389015198,"403":-0.45122089982032776,"404":-0.8494032025337219,"405":0.6205715537071228,"406":-0.5282825827598572,"407":0.530060887336731,"408":-0.1693713217973709,"409":0.3307455778121948,"410":1.1977206468582153,"411":0.14058668911457062,"412":0.330532431602478,"413":-0.4734600782394409,"414":0.5275858044624329,"415":-1.0882627964019775,"416":-0.45311442017555237,"417":0.5703794956207275,"418":0.744454026222229,"419":0.2705957591533661,"420":-1.8479753732681274,"421":0.33103886246681213,"422":-1.1631531715393066,"423":-1.1691011190414429,"424":0.30504781007766724,"425":-0.5532888770103455,"426":0.2423785775899887,"427":1.0118813514709473,"428":0.14346106350421906,"429":0.9999349117279053,"430":-1.4120292663574219,"431":-0.9785728454589844,"432":-0.8580114245414734,"433":0.48865675926208496,"434":-0.43720290064811707,"435":0.42013484239578247,"436":0.0571843758225441,"437":0.800602376461029,"438":0.024791860952973366,"439":0.21897269785404205,"440":0.5106413960456848,"441":-1.1851427555084229,"442":1.3228951692581177,"443":-0.2540593445301056,"444":-0.9684117436408997,"445":0.3437197804450989,"446":-0.27804261445999146,"447":-1.4176446199417114,"448":0.3848196566104889,"449":-0.03706035763025284,"450":-0.715851366519928,"451":-2.0687291622161865,"452":1.1876436471939087,"453":-0.424694299697876,"454":0.7179332375526428,"455":1.3887983560562134,"456":1.0641785860061646,"457":0.42126941680908203,"458":-0.3281283974647522,"459":-0.8502111434936523,"460":-1.8925131559371948,"461":-0.19780157506465912,"462":-0.3709741234779358,"463":-0.015748126432299614,"464":0.9707662463188171,"465":0.05121079459786415,"466":-0.025505607947707176,"467":-0.8477493524551392,"468":0.09964942187070847,"469":-0.40314024686813354,"470":-0.30321016907691956,"471":-0.7813258767127991,"472":-0.26496484875679016,"473":-0.4949086606502533,"474":1.1177964210510254,"475":-0.45023876428604126,"476":0.044146060943603516,"477":-0.7976157665252686,"478":-0.6463261246681213,"479":-0.44454362988471985,"480":-0.664274275302887,"481":0.07429279386997223,"482":-0.9065146446228027,"483":-0.29224467277526855,"484":-0.5949093103408813,"485":0.4407040774822235,"486":-0.48018723726272583,"487":-0.6531020998954773,"488":0.8448570966720581,"489":1.4036974906921387,"490":0.8345105648040771,"491":-0.03456101194024086,"492":-1.1850557327270508,"493":-0.3135400116443634,"494":-1.1381922960281372,"495":-0.1660064458847046,"496":0.16778779029846191,"497":-0.6449997425079346,"498":2.0171427726745605,"499":0.6713443398475647,"500":-0.8284194469451904,"501":-0.03511111065745354,"502":-1.352559208869934,"503":-0.990495502948761,"504":0.7531528472900391,"505":-0.09863993525505066,"506":0.6551965475082397,"507":-0.15113234519958496,"508":0.7864158153533936,"509":-0.22843509912490845,"510":0.6766838431358337,"511":0.4315926432609558,"512":1.282257318496704,"513":-0.32089245319366455,"514":1.0480424165725708,"515":0.21301476657390594,"516":-0.02266727015376091,"517":0.4614237844944,"518":-0.3577723503112793,"519":0.5876216292381287,"520":1.0964374542236328,"521":0.32162556052207947,"522":0.07276616990566254,"523":0.3545694351196289,"524":-0.5106063485145569,"525":0.9117998480796814,"526":0.08461602032184601,"527":-1.011569857597351,"528":0.7317650318145752,"529":0.6452162265777588,"530":0.5843797922134399,"531":0.39722830057144165,"532":0.6995017528533936,"533":-0.577538788318634,"534":0.4420912563800812,"535":1.8296366930007935,"536":0.7443214654922485,"537":2.4327847957611084,"538":-0.48169320821762085,"539":-0.44711539149284363,"540":0.5633097290992737,"541":1.5015842914581299,"542":0.36835750937461853,"543":0.124753437936306,"544":-0.4609961211681366,"545":-0.4039483964443207,"546":1.4992071390151978,"547":0.0906633511185646,"548":-0.4549376666545868,"549":-1.5534775257110596,"550":-0.10055512189865112,"551":-1.4225895404815674,"552":-0.7296469807624817,"553":0.592464029788971,"554":0.46416327357292175,"555":-0.21918196976184845,"556":0.2893153429031372,"557":-0.6028838753700256,"558":-0.9000756740570068,"559":0.35191279649734497}},"inputHidden":{"rows":20,"columns":20,"weights":{"0":1.790359616279602,"1":1.005527377128601,"2":-1.2081197500228882,"3":-0.8000227212905884,"4":-2.2805612087249756,"5":0.6091722846031189,"6":-1.1271781921386719,"7":1.9994807243347168,"8":0.008695684373378754,"9":0.7088795900344849,"10":0.4722783863544464,"11":-0.2819305956363678,"12":1.4599350690841675,"13":-0.30594879388809204,"14":-0.6355221271514893,"15":1.0137182474136353,"16":-0.12381146848201752,"17":0.8299885392189026,"18":0.8786574006080627,"19":-1.0996052026748657,"20":0.1944204866886139,"21":-0.704440176486969,"22":0.5386341214179993,"23":-0.2748802602291107,"24":0.32825228571891785,"25":0.7438167333602905,"26":-1.9833868741989136,"27":1.0942541360855103,"28":1.9386630058288574,"29":-1.4663207530975342,"30":0.1661168783903122,"31":-0.44678789377212524,"32":2.9416840076446533,"33":1.6514049768447876,"34":-0.21719826757907867,"35":-0.6087978482246399,"36":1.7219648361206055,"37":-0.39645856618881226,"38":1.3362317085266113,"39":-0.12397834658622742,"40":0.2877582907676697,"41":-1.3876512050628662,"42":2.060490846633911,"43":-1.4700814485549927,"44":-0.29164478182792664,"45":0.5354944467544556,"46":-0.8860145211219788,"47":0.49821409583091736,"48":0.6558265089988708,"49":-1.1074327230453491,"50":-1.1954225301742554,"51":-0.5687757134437561,"52":-2.429013729095459,"53":0.3270731270313263,"54":-0.15186582505702972,"55":-1.069265604019165,"56":-0.8921319246292114,"57":0.3243483603000641,"58":1.6054295301437378,"59":-0.19727987051010132,"60":0.29203155636787415,"61":-0.7668406367301941,"62":0.009798401966691017,"63":0.22810126841068268,"64":-0.30501434206962585,"65":-0.03276190534234047,"66":-0.09802085906267166,"67":-0.4082885980606079,"68":-0.5234297513961792,"69":0.2593229115009308,"70":-0.8133512735366821,"71":-0.40448808670043945,"72":0.37258729338645935,"73":-0.5696424841880798,"74":-0.4052993655204773,"75":0.12319143861532211,"76":0.18708771467208862,"77":-0.09319533407688141,"78":-0.17367002367973328,"79":1.0733870267868042,"80":1.8003952503204346,"81":0.9539324045181274,"82":-0.23516923189163208,"83":-0.0018843574216589332,"84":-0.19716493785381317,"85":0.897174060344696,"86":0.23966680467128754,"87":-0.12158393114805222,"88":-0.24943949282169342,"89":-0.623393714427948,"90":-0.7712460160255432,"91":0.8460414409637451,"92":0.028025249019265175,"93":0.3834221661090851,"94":-0.43079301714897156,"95":1.5485249757766724,"96":-1.4274002313613892,"97":-1.0568569898605347,"98":1.0630642175674438,"99":1.3024516105651855,"100":0.15098075568675995,"101":0.1980305016040802,"102":-0.36305758357048035,"103":0.7759213447570801,"104":0.6924880146980286,"105":-0.10345623642206192,"106":0.00847469549626112,"107":0.22545282542705536,"108":-0.5947582721710205,"109":-0.3218245208263397,"110":-0.5852953791618347,"111":-0.6942849159240723,"112":-0.9208100438117981,"113":-0.016667349264025688,"114":-0.359345018863678,"115":-0.3782866299152374,"116":-0.2834652364253998,"117":-0.0991678535938263,"118":-0.8736055493354797,"119":0.06967490911483765,"120":-0.34434443712234497,"121":-1.504364013671875,"122":2.1281392574310303,"123":-1.1924172639846802,"124":-1.1982187032699585,"125":1.417501449584961,"126":-2.9393954277038574,"127":-0.2856127917766571,"128":1.2594131231307983,"129":-1.0497183799743652,"130":0.04567192867398262,"131":0.23049525916576385,"132":-0.9648007750511169,"133":-0.10619322210550308,"134":-0.7266471982002258,"135":0.3486403524875641,"136":0.40275320410728455,"137":-0.477430522441864,"138":0.7831653356552124,"139":0.1784011423587799,"140":0.028510306030511856,"141":-0.6323343515396118,"142":0.90350341796875,"143":0.761444091796875,"144":-1.7781404256820679,"145":-0.3633967638015747,"146":0.7745876908302307,"147":0.834543764591217,"148":-0.8106980919837952,"149":1.521727442741394,"150":0.1660778671503067,"151":0.3023441731929779,"152":0.21001626551151276,"153":-1.4632352590560913,"154":-0.061705995351076126,"155":-0.6222693920135498,"156":-0.46752989292144775,"157":-0.4318781793117523,"158":-0.68541419506073,"159":-0.3287213444709778,"160":-0.538815975189209,"161":-0.03707005828619003,"162":-0.09581425040960312,"163":0.08298579603433609,"164":-0.4917505085468292,"165":0.79230135679245,"166":-1.0835119485855103,"167":-1.428017258644104,"168":-0.6936799883842468,"169":0.4720534384250641,"170":-1.5618342161178589,"171":0.6989002823829651,"172":-0.8275687098503113,"173":-0.9663537740707397,"174":-1.046362042427063,"175":1.2277330160140991,"176":-0.5446546673774719,"177":-1.0215561389923096,"178":0.9583644270896912,"179":0.6113652586936951,"180":-2.467803716659546,"181":-1.7020972967147827,"182":-0.44662827253341675,"183":0.5799608826637268,"184":-0.03080739639699459,"185":0.11302584409713745,"186":0.4797791838645935,"187":-0.09466049075126648,"188":-0.47177624702453613,"189":1.0383057594299316,"190":-1.521744966506958,"191":-0.2365972399711609,"192":0.7097156643867493,"193":-2.0601234436035156,"194":-0.6352434754371643,"195":-0.9229419231414795,"196":-0.9426547288894653,"197":-0.8076285719871521,"198":0.3915939927101135,"199":-0.33306393027305603,"200":-0.8466806411743164,"201":-0.9070444703102112,"202":-0.12738794088363647,"203":-0.7650631666183472,"204":-1.2229037284851074,"205":0.9134513735771179,"206":-0.6238119602203369,"207":-0.591566801071167,"208":-0.21199554204940796,"209":0.2693108022212982,"210":-1.1462666988372803,"211":-0.9641135334968567,"212":0.675040066242218,"213":-1.5340354442596436,"214":-0.5397406220436096,"215":-1.4409555196762085,"216":1.105251669883728,"217":0.9655075073242188,"218":0.2027629315853119,"219":-0.37069427967071533,"220":0.8233179450035095,"221":1.7280939817428589,"222":-1.5114704370498657,"223":1.4849568605422974,"224":0.7211721539497375,"225":-0.9691520929336548,"226":0.5113534927368164,"227":-2.011584758758545,"228":-1.4331698417663574,"229":1.5599642992019653,"230":-0.7172110676765442,"231":-0.3782075345516205,"232":-0.7507942318916321,"233":-1.0899075269699097,"234":-2.1761910915374756,"235":1.049450159072876,"236":1.369349718093872,"237":-0.09532472491264343,"238":1.6026182174682617,"239":-2.0972299575805664,"240":1.3603427410125732,"241":-0.12922245264053345,"242":-1.4825811386108398,"243":0.8583157658576965,"244":0.08245758712291718,"245":-0.777789831161499,"246":1.1881601810455322,"247":-0.1757034957408905,"248":-1.3002873659133911,"249":1.540982961654663,"250":-2.361692190170288,"251":1.3650163412094116,"252":-0.20536355674266815,"253":-0.8757439851760864,"254":-0.9985382556915283,"255":0.7804531455039978,"256":-0.8684279918670654,"257":-2.2663609981536865,"258":-0.2267174869775772,"259":0.6220332980155945,"260":1.9371498823165894,"261":-0.06918677687644958,"262":-0.7278823256492615,"263":2.452268600463867,"264":2.044987678527832,"265":-0.7217444777488708,"266":2.572911262512207,"267":-0.7177120447158813,"268":0.8166233897209167,"269":-0.4896976053714752,"270":-0.47837141156196594,"271":1.080129623413086,"272":-1.317831039428711,"273":0.9151208400726318,"274":0.10754065960645676,"275":0.7418422698974609,"276":-0.5917205214500427,"277":-1.6509995460510254,"278":0.9217259883880615,"279":-0.04261290654540062,"280":0.026787105947732925,"281":-0.7501410841941833,"282":0.9402263760566711,"283":-1.2706788778305054,"284":0.2199096977710724,"285":0.6424258947372437,"286":-0.7299618124961853,"287":2.2377352714538574,"288":1.7157864570617676,"289":-1.4804565906524658,"290":0.2408207356929779,"291":0.06918608397245407,"292":-0.6325615644454956,"293":1.3700512647628784,"294":-0.47183072566986084,"295":-0.270263135433197,"296":1.0680885314941406,"297":-0.18852177262306213,"298":-0.39976733922958374,"299":0.02290811389684677,"300":1.3806551694869995,"301":0.9727845191955566,"302":0.07085644453763962,"303":0.15640118718147278,"304":0.33104145526885986,"305":0.15625903010368347,"306":-0.9873796701431274,"307":-0.17507939040660858,"308":-0.05413731932640076,"309":-0.8646848797798157,"310":-1.1454389095306396,"311":-0.2972877025604248,"312":-1.868621587753296,"313":0.7095885872840881,"314":-1.458911418914795,"315":1.40604567527771,"316":1.4659183025360107,"317":-0.230348601937294,"318":2.147592306137085,"319":-0.4705319106578827,"320":-0.8394355177879333,"321":-1.1512361764907837,"322":1.811366081237793,"323":-2.113603115081787,"324":-0.12990818917751312,"325":1.797411561012268,"326":-2.9207000732421875,"327":0.27848759293556213,"328":2.2554054260253906,"329":-0.9619943499565125,"330":1.737378716468811,"331":-0.21558550000190735,"332":0.15901818871498108,"333":1.927237868309021,"334":-0.638171911239624,"335":-1.1583188772201538,"336":-1.2821896076202393,"337":0.4001978635787964,"338":0.22591792047023773,"339":-0.8787031769752502,"340":0.9986996054649353,"341":1.8914895057678223,"342":0.10464733093976974,"343":0.6944757699966431,"344":0.4019785523414612,"345":-0.03641762584447861,"346":0.4384910762310028,"347":-1.2537405490875244,"348":1.266416072845459,"349":-0.5416537523269653,"350":-0.721244752407074,"351":0.4670749008655548,"352":-0.27579784393310547,"353":-0.17837314307689667,"354":-1.3837448358535767,"355":1.5684515237808228,"356":1.4104375839233398,"357":-0.05832890793681145,"358":1.3300329446792603,"359":-0.42840853333473206,"360":-2.4184110164642334,"361":-0.03886057436466217,"362":0.360812783241272,"363":0.396364688873291,"364":0.42159542441368103,"365":-1.2138220071792603,"366":-0.6664958596229553,"367":-0.7070205807685852,"368":1.0874589681625366,"369":-0.3331788182258606,"370":1.0544283390045166,"371":-1.1038780212402344,"372":1.0910358428955078,"373":1.3134585618972778,"374":1.1133792400360107,"375":0.27806758880615234,"376":-2.242173194885254,"377":2.4676694869995117,"378":-0.7040988206863403,"379":-0.9926730394363403,"380":-0.9095121026039124,"381":-0.5431649088859558,"382":-0.011638485826551914,"383":2.2535786628723145,"384":0.9544627070426941,"385":-1.2234883308410645,"386":1.4475414752960205,"387":-0.7687080502510071,"388":0.17752812802791595,"389":0.013918017968535423,"390":-0.020102085545659065,"391":-0.29874667525291443,"392":-1.0733957290649414,"393":0.052784670144319534,"394":0.030600175261497498,"395":0.6156685948371887,"396":-1.9842911958694458,"397":-0.5881600379943848,"398":1.438066005706787,"399":0.04111785069108009}},"inputBias":{"rows":20,"columns":1,"weights":{"0":-0.5102143883705139,"1":0.08930967003107071,"2":0.939302921295166,"3":1.50363290309906,"4":-0.16027134656906128,"5":-0.30728209018707275,"6":1.7124632596969604,"7":2.0218207836151123,"8":0.35722753405570984,"9":-0.4061894118785858,"10":-1.0719021558761597,"11":-0.2647562026977539,"12":0.36902517080307007,"13":-0.5726537108421326,"14":1.5020172595977783,"15":-0.6830888390541077,"16":-1.548953890800476,"17":-0.46202412247657776,"18":0.47744423151016235,"19":0.03876684606075287}},"forgetMatrix":{"rows":20,"columns":28,"weights":{"0":0.13305959105491638,"1":0.5079245567321777,"2":-0.11129389703273773,"3":-0.655331552028656,"4":1.732081413269043,"5":0.27543875575065613,"6":1.5138953924179077,"7":1.0615592002868652,"8":1.2962799072265625,"9":-0.3895114064216614,"10":0.9796764254570007,"11":-0.4453144371509552,"12":-1.2946079969406128,"13":-0.4010503888130188,"14":-1.060780644416809,"15":-1.04899263381958,"16":-0.14346924424171448,"17":-0.44244831800460815,"18":1.4201687574386597,"19":-0.586530864238739,"20":0.36720600724220276,"21":0.13677138090133667,"22":0.5983887314796448,"23":-1.1448732614517212,"24":0.23785074055194855,"25":-0.6846795082092285,"26":1.3690794706344604,"27":1.1839334964752197,"28":0.9329206943511963,"29":-0.7557711005210876,"30":0.49495768547058105,"31":-0.03358713909983635,"32":1.2926160097122192,"33":0.488074392080307,"34":0.04026290029287338,"35":1.2693662643432617,"36":-0.05892636999487877,"37":0.914721667766571,"38":0.640052318572998,"39":0.8298642039299011,"40":-0.23864157497882843,"41":0.047095902264118195,"42":-0.6128712892532349,"43":-0.3258230984210968,"44":-0.7278667688369751,"45":-0.038918253034353256,"46":0.26917362213134766,"47":-0.30348721146583557,"48":-0.47436046600341797,"49":0.6705932021141052,"50":0.3617054224014282,"51":0.5924904942512512,"52":1.030834674835205,"53":-0.6988052129745483,"54":-0.4875682294368744,"55":1.1494194269180298,"56":0.7954106330871582,"57":0.247258722782135,"58":0.44433969259262085,"59":-0.00981468241661787,"60":-0.5145339369773865,"61":-0.22136051952838898,"62":0.6654530167579651,"63":0.10678361356258392,"64":-0.5310288667678833,"65":-0.140544593334198,"66":1.102571964263916,"67":-0.08169122040271759,"68":-0.4356440305709839,"69":-0.1031758263707161,"70":0.050089213997125626,"71":0.7196961641311646,"72":0.003891694126650691,"73":0.6241703033447266,"74":0.565017580986023,"75":0.0993247777223587,"76":-1.3443852663040161,"77":1.3332557678222656,"78":-1.1275006532669067,"79":0.1004021167755127,"80":0.8225885629653931,"81":0.4749723970890045,"82":0.7239297032356262,"83":0.7032905220985413,"84":-0.06748149544000626,"85":0.7330754995346069,"86":-0.2469812035560608,"87":0.7992963194847107,"88":-0.8267390727996826,"89":-0.40551164746284485,"90":-1.0467101335525513,"91":-1.0551271438598633,"92":-1.167831540107727,"93":-0.3412436246871948,"94":0.29324769973754883,"95":-0.24531923234462738,"96":-0.3711356818675995,"97":0.0442894771695137,"98":0.6258190274238586,"99":-0.5903017520904541,"100":-0.615158200263977,"101":-0.023087846115231514,"102":0.024157457053661346,"103":-1.1656862497329712,"104":-0.452281653881073,"105":-0.105185866355896,"106":-0.769804060459137,"107":0.6381902098655701,"108":-0.4987386167049408,"109":-0.28148993849754333,"110":-0.9273828864097595,"111":-0.8319353461265564,"112":1.7558152675628662,"113":-0.24461179971694946,"114":1.7424160242080688,"115":0.044463861733675,"116":0.4867558479309082,"117":0.7727622985839844,"118":-0.5072917342185974,"119":-0.5949777960777283,"120":-0.16910585761070251,"121":-0.6153534650802612,"122":1.9654566049575806,"123":0.7024284601211548,"124":0.36387303471565247,"125":0.04727957770228386,"126":0.05671321600675583,"127":-0.23646941781044006,"128":-0.6345109343528748,"129":-0.41030803322792053,"130":-0.48045212030410767,"131":-0.3950839936733246,"132":-0.9737085700035095,"133":1.4655852317810059,"134":-1.0096291303634644,"135":0.5938701629638672,"136":1.2461562156677246,"137":-0.5768279433250427,"138":0.1745028793811798,"139":0.7145570516586304,"140":0.10716623067855835,"141":1.8246815204620361,"142":0.21228228509426117,"143":-1.0095902681350708,"144":0.5190685391426086,"145":-0.48569706082344055,"146":2.0796754360198975,"147":0.5963048338890076,"148":0.7963504195213318,"149":-1.0826410055160522,"150":-0.7215784788131714,"151":0.22491957247257233,"152":-1.4222815036773682,"153":-0.7087984681129456,"154":-1.1728399991989136,"155":0.6745337843894958,"156":1.0737953186035156,"157":0.4199373722076416,"158":1.2018520832061768,"159":0.47000566124916077,"160":-0.7378262877464294,"161":0.18451981246471405,"162":-0.9858356714248657,"163":-1.3192096948623657,"164":0.25818490982055664,"165":0.5048632621765137,"166":1.6674091815948486,"167":-0.22686350345611572,"168":0.6551401019096375,"169":0.6086152195930481,"170":0.48683032393455505,"171":-0.25570207834243774,"172":-0.6377941966056824,"173":-0.43024298548698425,"174":0.26803600788116455,"175":-0.07622610777616501,"176":-0.9803236722946167,"177":0.13910165429115295,"178":0.3159632980823517,"179":0.8663529753684998,"180":0.009742846712470055,"181":-1.5861377716064453,"182":0.7924663424491882,"183":-0.396691232919693,"184":0.30764591693878174,"185":0.13195812702178955,"186":-0.523268461227417,"187":0.3144150376319885,"188":-1.6000875234603882,"189":0.4850941300392151,"190":-1.6465425491333008,"191":0.3846655786037445,"192":0.09187445044517517,"193":0.12885886430740356,"194":0.07566972076892853,"195":-0.48383864760398865,"196":-0.46948501467704773,"197":1.6819770336151123,"198":0.476917028427124,"199":-1.7663915157318115,"200":-0.17439131438732147,"201":-2.453554630279541,"202":1.3611708879470825,"203":0.7257245779037476,"204":0.2401340752840042,"205":-0.11577697098255157,"206":-0.46118539571762085,"207":-0.2601553797721863,"208":-0.040341734886169434,"209":0.35653790831565857,"210":-0.3829357922077179,"211":0.21285000443458557,"212":1.0981487035751343,"213":0.8823100924491882,"214":0.2728748321533203,"215":1.2352125644683838,"216":-0.5439441800117493,"217":0.03372233361005783,"218":0.9463892579078674,"219":-0.21237237751483917,"220":0.09043197333812714,"221":1.0241577625274658,"222":1.2721247673034668,"223":-0.4132918119430542,"224":-1.4592292308807373,"225":-0.09705334156751633,"226":-0.23554253578186035,"227":0.13406816124916077,"228":0.6531888842582703,"229":0.9532428979873657,"230":-0.5522390007972717,"231":-1.201574683189392,"232":2.029745578765869,"233":-0.06888877600431442,"234":0.13118255138397217,"235":-0.772411048412323,"236":0.3268951177597046,"237":0.6927094459533691,"238":0.5144352316856384,"239":-0.5880233645439148,"240":0.0998091995716095,"241":-1.1920318603515625,"242":-0.03664245456457138,"243":-0.3941768407821655,"244":1.2209476232528687,"245":-0.37625694274902344,"246":0.7686586976051331,"247":-1.9139131307601929,"248":-0.9252236485481262,"249":-0.26640772819519043,"250":0.21838732063770294,"251":0.2922414243221283,"252":-0.6032276153564453,"253":-0.20883040130138397,"254":-0.8935638070106506,"255":0.6770175695419312,"256":-0.28770437836647034,"257":1.0400675535202026,"258":-1.2797259092330933,"259":-0.12325216829776764,"260":0.28076764941215515,"261":0.20015500485897064,"262":-0.5230361223220825,"263":-1.0235179662704468,"264":0.6115745306015015,"265":-0.9738264083862305,"266":0.9593289494514465,"267":-0.5601943135261536,"268":-0.47607895731925964,"269":-0.5218364596366882,"270":-1.0724000930786133,"271":-0.5686704516410828,"272":0.602148711681366,"273":-0.6021775603294373,"274":0.4448274075984955,"275":-0.41186046600341797,"276":-1.3247326612472534,"277":-0.3683711886405945,"278":-1.3275606632232666,"279":-1.5939862728118896,"280":-0.4519596993923187,"281":-1.2564340829849243,"282":-0.39525678753852844,"283":-0.4491894841194153,"284":0.5266428589820862,"285":0.9171437621116638,"286":-0.34125158190727234,"287":-0.8228886723518372,"288":1.6977986097335815,"289":0.23259246349334717,"290":-0.4225372076034546,"291":0.1533418595790863,"292":-0.022246267646551132,"293":1.3753079175949097,"294":0.22223687171936035,"295":-0.7313188910484314,"296":0.15697772800922394,"297":-1.4013622999191284,"298":-0.024566659703850746,"299":-0.980623722076416,"300":0.7209498286247253,"301":-0.47518041729927063,"302":1.019156575202942,"303":-1.3633191585540771,"304":0.11960598081350327,"305":-0.626885175704956,"306":-0.19045622646808624,"307":1.0862771272659302,"308":1.596289873123169,"309":0.4487609267234802,"310":1.3917787075042725,"311":-0.08495794981718063,"312":0.28608885407447815,"313":0.5250051617622375,"314":0.16873767971992493,"315":0.406232088804245,"316":0.03632526844739914,"317":0.37014368176460266,"318":1.4754059314727783,"319":1.624229073524475,"320":-0.6423898935317993,"321":-0.4621647596359253,"322":-0.49570584297180176,"323":0.5367345213890076,"324":0.15482454001903534,"325":0.5453466176986694,"326":0.40858718752861023,"327":0.0052330330945551395,"328":-1.6748441457748413,"329":1.7293950319290161,"330":-0.7122358679771423,"331":0.2378341108560562,"332":1.7829787731170654,"333":0.5273213982582092,"334":-0.12887030839920044,"335":1.5640497207641602,"336":-1.2652755975723267,"337":-0.19650721549987793,"338":-0.2932269275188446,"339":0.7797417044639587,"340":-0.8541532754898071,"341":0.028804026544094086,"342":-0.5506998896598816,"343":-1.4347952604293823,"344":-0.46670833230018616,"345":0.3427261710166931,"346":-1.092024564743042,"347":-0.6245317459106445,"348":0.3195732831954956,"349":-0.633196234703064,"350":1.0097978115081787,"351":-1.7669713497161865,"352":-0.9126636981964111,"353":-1.2766332626342773,"354":-1.260204792022705,"355":-0.037414103746414185,"356":0.292773574590683,"357":-0.35452303290367126,"358":0.7196016907691956,"359":0.4803082048892975,"360":-0.7759544849395752,"361":-1.1326344013214111,"362":-0.3679446280002594,"363":-0.49287912249565125,"364":0.3087070882320404,"365":-0.09432842582464218,"366":0.7268472909927368,"367":-1.0879175662994385,"368":1.3520245552062988,"369":0.48466959595680237,"370":0.21658971905708313,"371":-0.25325560569763184,"372":1.5989576578140259,"373":-0.2775050401687622,"374":1.3783760070800781,"375":0.1403767615556717,"376":-0.1575959473848343,"377":-0.13872407376766205,"378":-0.13375607132911682,"379":-0.34769922494888306,"380":0.5619945526123047,"381":-0.30262815952301025,"382":0.9247261881828308,"383":0.04865599423646927,"384":-0.3127988874912262,"385":0.6327648758888245,"386":-0.2500326633453369,"387":-1.5121896266937256,"388":0.8012130260467529,"389":-0.05253962427377701,"390":0.7014645934104919,"391":0.9426881670951843,"392":0.6007831692695618,"393":0.7824268341064453,"394":0.1833745241165161,"395":-1.8427189588546753,"396":1.5348773002624512,"397":0.49641022086143494,"398":0.5947487354278564,"399":0.8380044102668762,"400":0.2946404814720154,"401":1.2238284349441528,"402":0.601044237613678,"403":0.4300329089164734,"404":-0.08147304505109787,"405":0.39381924271583557,"406":-1.4755741357803345,"407":-0.10929906368255615,"408":-0.0944659411907196,"409":0.9881323575973511,"410":0.6983495354652405,"411":-1.0999979972839355,"412":-0.7963293790817261,"413":0.5442363619804382,"414":1.562571406364441,"415":-0.4091373383998871,"416":0.7218683958053589,"417":0.014404533430933952,"418":0.4688016474246979,"419":1.2453759908676147,"420":0.4744341969490051,"421":0.027388054877519608,"422":1.467120885848999,"423":0.6489651203155518,"424":0.4857944846153259,"425":0.7195056080818176,"426":-0.29600363969802856,"427":-0.5436931252479553,"428":0.9927411675453186,"429":-0.2547589838504791,"430":1.0960323810577393,"431":0.5411450266838074,"432":-0.13175489008426666,"433":-0.7269147038459778,"434":0.10434824973344803,"435":0.1604662537574768,"436":0.1922014355659485,"437":-0.19637124240398407,"438":-0.12417104840278625,"439":-0.12805762887001038,"440":-0.19767813384532928,"441":1.6129640340805054,"442":-0.24057075381278992,"443":-1.2546393871307373,"444":1.749221920967102,"445":0.06844313442707062,"446":0.22897164523601532,"447":1.0340312719345093,"448":0.34016481041908264,"449":-0.29505109786987305,"450":0.6521298885345459,"451":0.3010150194168091,"452":1.1321393251419067,"453":0.5170648694038391,"454":1.2560052871704102,"455":0.44962576031684875,"456":0.6517413854598999,"457":1.4717903137207031,"458":-0.12441177666187286,"459":0.3348996341228485,"460":-0.1848994940519333,"461":-0.6429659724235535,"462":-0.294662743806839,"463":0.28082847595214844,"464":0.5839909911155701,"465":-0.1560731679201126,"466":0.25956615805625916,"467":-0.5351028442382812,"468":-1.0960795879364014,"469":0.46333444118499756,"470":0.18721355497837067,"471":-0.545886754989624,"472":0.7699579000473022,"473":-0.22653311491012573,"474":1.3466235399246216,"475":0.8793108463287354,"476":1.319895625114441,"477":-0.4576520025730133,"478":1.203450083732605,"479":0.7041703462600708,"480":-0.08876880258321762,"481":1.0627241134643555,"482":-0.8441953659057617,"483":-0.8487582206726074,"484":-0.4800914227962494,"485":0.6149410009384155,"486":1.0593003034591675,"487":1.6088439226150513,"488":1.1468549966812134,"489":-1.4882287979125977,"490":0.8092924356460571,"491":-0.9821603298187256,"492":-0.48314332962036133,"493":-0.22504131495952606,"494":-0.6962495446205139,"495":-0.17183658480644226,"496":-1.335511565208435,"497":1.2248075008392334,"498":-0.45891207456588745,"499":0.5943571329116821,"500":1.1339857578277588,"501":-0.4694959819316864,"502":-0.5130149126052856,"503":1.0549999475479126,"504":-0.8322348594665527,"505":-0.7321873903274536,"506":-0.20523220300674438,"507":0.4808294475078583,"508":0.05031599476933479,"509":0.5099619626998901,"510":-0.8168216347694397,"511":-0.10926438868045807,"512":0.27486559748649597,"513":0.39610719680786133,"514":-0.6445934772491455,"515":-0.8504617810249329,"516":0.4143708646297455,"517":0.3001326322555542,"518":0.23702608048915863,"519":-0.31693264842033386,"520":-0.39896437525749207,"521":-0.29042795300483704,"522":-0.46748054027557373,"523":-0.8996709585189819,"524":1.3748362064361572,"525":-0.7000008225440979,"526":0.7193835377693176,"527":0.13776549696922302,"528":-0.05607258528470993,"529":-0.40898871421813965,"530":-0.6510796546936035,"531":0.027548467740416527,"532":-0.07406996190547943,"533":1.5388422012329102,"534":-0.4696945548057556,"535":1.7133991718292236,"536":-1.116986870765686,"537":0.46046382188796997,"538":-1.1278828382492065,"539":-0.11584344506263733,"540":-2.1873364448547363,"541":-0.8298837542533875,"542":-0.8819640874862671,"543":-0.19284173846244812,"544":0.4303421974182129,"545":0.4942409098148346,"546":-0.5499905943870544,"547":0.2280053347349167,"548":-1.9247429370880127,"549":1.2512402534484863,"550":0.2709810733795166,"551":-0.737285852432251,"552":0.13210144639015198,"553":-0.34384453296661377,"554":-0.4373999834060669,"555":2.744197368621826,"556":-1.0333651304244995,"557":0.0608634352684021,"558":-1.8304344415664673,"559":-2.144765615463257}},"forgetHidden":{"rows":20,"columns":20,"weights":{"0":-0.1675381064414978,"1":0.6240411400794983,"2":0.4265383183956146,"3":-0.28843310475349426,"4":1.2963789701461792,"5":-0.1979653239250183,"6":-0.8446348905563354,"7":1.0291541814804077,"8":2.0814101696014404,"9":-2.3085532188415527,"10":1.621264100074768,"11":0.6264747977256775,"12":-0.6410757303237915,"13":1.3279753923416138,"14":0.11652982980012894,"15":0.5775398015975952,"16":0.2111019790172577,"17":-0.8064376711845398,"18":0.26563137769699097,"19":1.3059639930725098,"20":0.6529882550239563,"21":0.8768776655197144,"22":0.4201350212097168,"23":-0.5691856741905212,"24":-0.5920067429542542,"25":0.657772958278656,"26":-1.5098905563354492,"27":0.5596233606338501,"28":0.4352482557296753,"29":-0.041788868606090546,"30":-0.06817609816789627,"31":1.2755529880523682,"32":-1.138490080833435,"33":1.1389296054840088,"34":-0.7590973973274231,"35":1.328667402267456,"36":0.3381682336330414,"37":-1.6510378122329712,"38":0.29802367091178894,"39":-0.03934827819466591,"40":-0.7851716876029968,"41":-0.6409767866134644,"42":-0.857607901096344,"43":0.5675797462463379,"44":-0.6331836581230164,"45":-0.03719229996204376,"46":0.934710681438446,"47":0.06344839185476303,"48":-0.2583988904953003,"49":0.42328500747680664,"50":-0.42572665214538574,"51":0.4525757133960724,"52":0.5427870154380798,"53":0.07761868089437485,"54":0.5913006663322449,"55":0.011342556215822697,"56":-0.39463263750076294,"57":0.9166998267173767,"58":-1.4627140760421753,"59":0.4685426354408264,"60":-0.07004193216562271,"61":-0.36602097749710083,"62":0.519390881061554,"63":1.0674335956573486,"64":-0.1388600617647171,"65":-0.9637559056282043,"66":1.2690553665161133,"67":0.07391741126775742,"68":-0.5273211002349854,"69":0.7086670994758606,"70":0.018916768953204155,"71":0.11714492738246918,"72":0.5339321494102478,"73":-0.31623196601867676,"74":0.40790265798568726,"75":0.1704440414905548,"76":-0.9027289748191833,"77":-0.12942682206630707,"78":-0.9735981225967407,"79":-0.5423520803451538,"80":-0.344143807888031,"81":0.021898791193962097,"82":-0.794083833694458,"83":-0.36204928159713745,"84":0.30346548557281494,"85":0.14315763115882874,"86":-0.08078434318304062,"87":-0.6168720722198486,"88":-0.08614123612642288,"89":-0.328849732875824,"90":-1.1956884860992432,"91":0.1378091722726822,"92":-0.3934852182865143,"93":-0.30553680658340454,"94":0.3670491576194763,"95":-0.4139028489589691,"96":-0.49962127208709717,"97":0.5967061519622803,"98":-0.27020785212516785,"99":-0.21505889296531677,"100":0.1743248850107193,"101":-0.3533782362937927,"102":-0.11613207310438156,"103":0.37108075618743896,"104":-0.0880153477191925,"105":0.04764185845851898,"106":0.7098665833473206,"107":-0.2838761806488037,"108":0.3614208698272705,"109":-0.7332119941711426,"110":-0.13094840943813324,"111":0.5780994296073914,"112":-0.007943397387862206,"113":0.48502299189567566,"114":0.4664643704891205,"115":-0.06954985857009888,"116":-0.8652817606925964,"117":-0.010934046469628811,"118":-0.22460691630840302,"119":0.5588056445121765,"120":-1.8983891010284424,"121":-0.11024054884910583,"122":-0.1082792580127716,"123":1.1901652812957764,"124":0.9338359236717224,"125":-1.8547687530517578,"126":1.4947234392166138,"127":-0.47423267364501953,"128":-0.9663408398628235,"129":0.15828141570091248,"130":-0.03695543855428696,"131":-1.1108250617980957,"132":1.176202416419983,"133":-0.8806985020637512,"134":0.04905388504266739,"135":-1.6073721647262573,"136":-0.25256094336509705,"137":1.7588815689086914,"138":-0.6916279792785645,"139":0.4351925253868103,"140":0.7700437307357788,"141":-0.6756535768508911,"142":-0.24138903617858887,"143":0.27948203682899475,"144":0.18277502059936523,"145":-0.21704207360744476,"146":0.27783507108688354,"147":-0.8534995913505554,"148":0.24376273155212402,"149":0.22147715091705322,"150":-0.4220608174800873,"151":-0.15125934779644012,"152":-0.6083927154541016,"153":0.42487832903862,"154":0.8206568956375122,"155":-0.4425727128982544,"156":-0.023052183911204338,"157":0.09547378867864609,"158":-1.0010510683059692,"159":0.8748149871826172,"160":-2.1922528743743896,"161":-0.2344285398721695,"162":0.6664060950279236,"163":0.5271731019020081,"164":-1.4895042181015015,"165":0.8585593700408936,"166":-0.41150978207588196,"167":1.0543458461761475,"168":-1.1732014417648315,"169":0.359282910823822,"170":1.1031659841537476,"171":-1.7925159931182861,"172":0.6383876800537109,"173":0.05937907099723816,"174":-2.276031494140625,"175":-0.6527896523475647,"176":0.4318481683731079,"177":0.31411048769950867,"178":-0.9992819428443909,"179":0.38901013135910034,"180":0.33117401599884033,"181":0.2834698259830475,"182":-0.7504041790962219,"183":-0.011806064285337925,"184":-1.848938226699829,"185":0.027986610308289528,"186":0.2064850926399231,"187":-0.03597630187869072,"188":0.989112377166748,"189":-0.07356525212526321,"190":-0.2038365751504898,"191":1.6592975854873657,"192":1.3347302675247192,"193":0.000005195123776502442,"194":0.4627578854560852,"195":0.8592950105667114,"196":0.9766230583190918,"197":-0.6116457581520081,"198":1.4708853960037231,"199":0.7130043506622314,"200":-0.5814391374588013,"201":0.2986113727092743,"202":-0.5845863819122314,"203":0.07860421389341354,"204":2.2294387817382812,"205":-0.06363511085510254,"206":0.34912803769111633,"207":-1.3132973909378052,"208":0.21044573187828064,"209":-0.015899257734417915,"210":-0.8297430276870728,"211":0.9421119689941406,"212":-0.22915825247764587,"213":1.0714448690414429,"214":-0.01854396052658558,"215":0.4389123320579529,"216":0.37490755319595337,"217":-0.8369593620300293,"218":0.00015684240497648716,"219":1.0825036764144897,"220":0.5318182706832886,"221":0.059323105961084366,"222":1.3703688383102417,"223":-0.2742105722427368,"224":0.6049073338508606,"225":-0.09255880862474442,"226":-0.39506635069847107,"227":1.3818930387496948,"228":1.4667410850524902,"229":-0.5541188716888428,"230":0.8627620339393616,"231":0.33152031898498535,"232":-1.322546362876892,"233":1.6804981231689453,"234":-0.18651776015758514,"235":0.4204652011394501,"236":-0.2711643576622009,"237":0.6820531487464905,"238":-0.1421416997909546,"239":-0.7649180889129639,"240":1.0508314371109009,"241":0.004969871137291193,"242":-0.15527616441249847,"243":0.553309440612793,"244":0.266128271818161,"245":-0.9758710861206055,"246":0.9341889023780823,"247":-0.538425624370575,"248":-0.10199781507253647,"249":0.505926251411438,"250":-0.35682645440101624,"251":-0.02803134359419346,"252":-0.7500976920127869,"253":0.18140238523483276,"254":0.9080506563186646,"255":-0.22432011365890503,"256":-0.968035101890564,"257":-0.5538719296455383,"258":0.2398218810558319,"259":0.5383907556533813,"260":-0.6487236022949219,"261":0.9989178776741028,"262":-0.8343459963798523,"263":-0.1175273135304451,"264":-0.9649160504341125,"265":0.4435264766216278,"266":-0.7222484350204468,"267":-0.33125683665275574,"268":0.4423063397407532,"269":0.12526363134384155,"270":-0.3418416976928711,"271":0.18369945883750916,"272":-0.010249512270092964,"273":0.05771880969405174,"274":0.44472846388816833,"275":0.42564475536346436,"276":-0.8291803002357483,"277":0.001168861985206604,"278":-0.6883156299591064,"279":1.5416630506515503,"280":0.5827407836914062,"281":1.3017383813858032,"282":1.2283259630203247,"283":-0.01266504731029272,"284":0.26606041193008423,"285":-0.3573329746723175,"286":0.730509877204895,"287":0.07192589342594147,"288":1.87016761302948,"289":-0.30182144045829773,"290":0.40498530864715576,"291":0.6546071171760559,"292":0.16936123371124268,"293":-0.3001694977283478,"294":-0.8787183165550232,"295":1.0800060033798218,"296":0.029227253049612045,"297":-0.5248830914497375,"298":0.6416022181510925,"299":-0.7049186825752258,"300":-0.7345216870307922,"301":-0.7363627552986145,"302":0.35680097341537476,"303":-0.9916460514068604,"304":1.6571714878082275,"305":0.5908868908882141,"306":-0.653425395488739,"307":-0.15378399193286896,"308":1.625717043876648,"309":-1.2567901611328125,"310":0.443796843290329,"311":0.03360667824745178,"312":-1.9951715469360352,"313":1.3604671955108643,"314":1.2129653692245483,"315":-0.8570827841758728,"316":-0.22532576322555542,"317":-0.4191167950630188,"318":-0.2603103816509247,"319":-0.00005875524948351085,"320":1.1320308446884155,"321":1.2938334941864014,"322":1.160953402519226,"323":-0.0012205125531181693,"324":0.4303244352340698,"325":0.27214670181274414,"326":-0.2613811194896698,"327":-0.7605981230735779,"328":-0.68938809633255,"329":0.34087324142456055,"330":0.23009945452213287,"331":0.1009497195482254,"332":-1.4145143032073975,"333":0.29125693440437317,"334":-1.6816751956939697,"335":0.3203918933868408,"336":1.7929623126983643,"337":-1.1895054578781128,"338":2.2281134128570557,"339":-0.3653334677219391,"340":-0.06156458705663681,"341":-0.7672052979469299,"342":1.183097243309021,"343":-0.7918463349342346,"344":0.06753762066364288,"345":0.297794371843338,"346":-0.8745672106742859,"347":0.9085008502006531,"348":0.3165667653083801,"349":0.317644864320755,"350":-0.484847754240036,"351":1.1898308992385864,"352":-0.6260309815406799,"353":0.26619210839271545,"354":-0.009234248660504818,"355":0.5366864800453186,"356":-0.6960298418998718,"357":-1.3288793563842773,"358":-0.18126703798770905,"359":-0.6433690190315247,"360":1.3593286275863647,"361":0.8859046101570129,"362":0.6582015752792358,"363":-1.2854820489883423,"364":0.08174347132444382,"365":0.3205033242702484,"366":-0.7929447889328003,"367":1.3628146648406982,"368":0.715773344039917,"369":-0.45331308245658875,"370":-0.5380618572235107,"371":1.6204278469085693,"372":0.5760550498962402,"373":0.7257776260375977,"374":-1.0006434917449951,"375":0.8789213299751282,"376":-0.14951159060001373,"377":-0.8424574732780457,"378":1.5923917293548584,"379":-1.3742140531539917,"380":-0.9707520008087158,"381":0.24921594560146332,"382":0.31592175364494324,"383":-0.26024624705314636,"384":0.1701022982597351,"385":-0.8254357576370239,"386":1.2037122249603271,"387":0.17846326529979706,"388":-0.4439828097820282,"389":0.6683290600776672,"390":-0.0951327309012413,"391":-1.2007122039794922,"392":0.7823444604873657,"393":-0.3151009976863861,"394":-0.1454310268163681,"395":-0.9364948272705078,"396":-0.7068923711776733,"397":2.0818474292755127,"398":-0.20441380143165588,"399":-1.0190329551696777}},"forgetBias":{"rows":20,"columns":1,"weights":{"0":0,"1":0,"2":0,"3":0,"4":0,"5":0,"6":0,"7":0,"8":0,"9":0,"10":0,"11":0,"12":0,"13":0,"14":0,"15":0,"16":0,"17":0,"18":0,"19":0}},"outputMatrix":{"rows":20,"columns":28,"weights":{"0":-0.6442446708679199,"1":0.708612859249115,"2":-0.28355804085731506,"3":0.7421965599060059,"4":-0.02603699266910553,"5":-0.41879400610923767,"6":0.8222419023513794,"7":0.8219805955886841,"8":0.39594900608062744,"9":0.15077616274356842,"10":-1.3100017309188843,"11":-0.27593693137168884,"12":0.0016359101282432675,"13":-0.6939273476600647,"14":-0.6658575534820557,"15":-0.21160100400447845,"16":0.9576206207275391,"17":0.8271433115005493,"18":0.46243441104888916,"19":0.4979095458984375,"20":0.9621940851211548,"21":-0.4603496789932251,"22":0.7342294454574585,"23":-0.4075470566749573,"24":-0.6957001090049744,"25":0.6863005757331848,"26":0.8837366104125977,"27":-0.1426507979631424,"28":0.42607375979423523,"29":0.2896207273006439,"30":-0.30407804250717163,"31":0.5986425876617432,"32":-0.5265340805053711,"33":0.4094947278499603,"34":0.6284447312355042,"35":0.8129981756210327,"36":-1.340645432472229,"37":-0.10158523172140121,"38":-0.00922621600329876,"39":-1.0468394756317139,"40":-0.20353923738002777,"41":0.4658765196800232,"42":0.04841669648885727,"43":0.44360002875328064,"44":-1.1518962383270264,"45":0.5937926173210144,"46":0.44190505146980286,"47":-0.3057245910167694,"48":0.10092990845441818,"49":0.16326431930065155,"50":-0.034302011132240295,"51":0.9710666537284851,"52":-0.2669897675514221,"53":0.2715880572795868,"54":0.5010194778442383,"55":-0.7179359197616577,"56":-0.026712553575634956,"57":0.15398193895816803,"58":0.21691922843456268,"59":0.17357510328292847,"60":0.20849178731441498,"61":0.7844997644424438,"62":0.02649928815662861,"63":0.3524741232395172,"64":0.45224282145500183,"65":0.7092970609664917,"66":0.08712032437324524,"67":0.7105406522750854,"68":-0.7435921430587769,"69":-0.4543592631816864,"70":-0.3862244784832001,"71":0.4576056897640228,"72":0.589697539806366,"73":0.08448758721351624,"74":-0.051136139780282974,"75":0.44751015305519104,"76":-0.36627402901649475,"77":0.3745974898338318,"78":-0.9924339652061462,"79":-0.15446366369724274,"80":0.5816168189048767,"81":0.33069923520088196,"82":0.18847058713436127,"83":1.5603846311569214,"84":1.5303823947906494,"85":-0.5605239868164062,"86":0.8667357563972473,"87":-0.0070311687886714935,"88":-0.025465451180934906,"89":0.1327490210533142,"90":0.11755415052175522,"91":-0.09404368698596954,"92":-0.8466616272926331,"93":0.04086008295416832,"94":1.5195430517196655,"95":0.343081533908844,"96":0.12895694375038147,"97":-1.016337513923645,"98":0.1255997121334076,"99":-0.6830212473869324,"100":-0.7203641533851624,"101":-0.16228000819683075,"102":-0.5540878176689148,"103":-0.011910554021596909,"104":-1.4120962619781494,"105":0.7584307193756104,"106":-0.3892059028148651,"107":1.2245452404022217,"108":0.6841030120849609,"109":-0.5300258994102478,"110":-0.007968911901116371,"111":1.1630065441131592,"112":1.1657358407974243,"113":-0.8256264328956604,"114":0.08811958879232407,"115":0.13437597453594208,"116":-0.3137063682079315,"117":1.2801916599273682,"118":-0.27870476245880127,"119":-0.09970825910568237,"120":-0.2772827446460724,"121":0.8035083413124084,"122":0.5321962833404541,"123":0.37865379452705383,"124":0.13600262999534607,"125":0.22517232596874237,"126":-0.22151868045330048,"127":-0.5441803336143494,"128":-1.2244445085525513,"129":-0.9660269618034363,"130":-1.1461310386657715,"131":-0.8049958944320679,"132":-0.4590575098991394,"133":0.08879990875720978,"134":0.01567738875746727,"135":0.5042192339897156,"136":0.306262344121933,"137":-1.2332050800323486,"138":-0.29699182510375977,"139":-0.8213786482810974,"140":1.5117329359054565,"141":0.013128191232681274,"142":1.2705050706863403,"143":0.11829519271850586,"144":0.8185218572616577,"145":0.7512011528015137,"146":0.3430786430835724,"147":0.28351595997810364,"148":-0.059985965490341187,"149":0.5384926795959473,"150":1.2374050617218018,"151":1.4193167686462402,"152":0.005690834950655699,"153":-0.5617097616195679,"154":-0.18074838817119598,"155":-0.009337013587355614,"156":-0.3034874200820923,"157":0.11779701709747314,"158":0.308575838804245,"159":0.10072433203458786,"160":-1.4748839139938354,"161":1.3923757076263428,"162":-1.0795223712921143,"163":0.043189238756895065,"164":1.1072914600372314,"165":-0.27166226506233215,"166":0.23548837006092072,"167":1.1599127054214478,"168":1.8157575130462646,"169":-0.2139354795217514,"170":1.658608317375183,"171":-0.19959993660449982,"172":-0.24619972705841064,"173":0.4728625416755676,"174":0.3023778200149536,"175":-0.31556037068367004,"176":-0.5761802196502686,"177":-0.10703014582395554,"178":1.1681283712387085,"179":1.1948643922805786,"180":0.31424015760421753,"181":-0.8372821807861328,"182":0.15787997841835022,"183":-0.37294191122055054,"184":-0.749464750289917,"185":-0.2847469747066498,"186":-0.2768537402153015,"187":-0.13874799013137817,"188":-1.8003360033035278,"189":1.0296779870986938,"190":-0.7325118780136108,"191":0.7589160203933716,"192":1.2644562721252441,"193":-0.5238563418388367,"194":0.3815152645111084,"195":0.9709847569465637,"196":1.2684006690979004,"197":0.8153609037399292,"198":1.7090035676956177,"199":0.6717679500579834,"200":-0.3694555461406708,"201":-0.30792155861854553,"202":0.270095556974411,"203":0.14472703635692596,"204":-0.5093074440956116,"205":-0.8097671866416931,"206":1.2900415658950806,"207":0.7295440435409546,"208":0.4486602544784546,"209":-1.3203153610229492,"210":-0.3802167773246765,"211":-0.3065604567527771,"212":-0.03451133891940117,"213":0.6177732944488525,"214":-0.04697754234075546,"215":0.2276063859462738,"216":-0.5492609143257141,"217":1.7743712663650513,"218":-0.593360424041748,"219":0.21758630871772766,"220":1.9141018390655518,"221":0.3495355248451233,"222":0.29946982860565186,"223":1.542157769203186,"224":0.08778495341539383,"225":-1.4587794542312622,"226":0.4519643485546112,"227":1.552751064300537,"228":-1.204293966293335,"229":1.082287073135376,"230":-1.0989521741867065,"231":-1.6890785694122314,"232":0.06813722848892212,"233":-0.5019642114639282,"234":-0.16708199679851532,"235":0.7538511157035828,"236":1.2224040031433105,"237":-0.22230741381645203,"238":1.0997061729431152,"239":-0.8013299703598022,"240":0.13297246396541595,"241":-1.755189299583435,"242":-2.011307954788208,"243":-0.37918660044670105,"244":0.24933728575706482,"245":0.5254088640213013,"246":0.2662462294101715,"247":-0.40400534868240356,"248":0.7150335907936096,"249":-0.49723365902900696,"250":-0.22048352658748627,"251":0.12177536636590958,"252":0.33716732263565063,"253":-0.4395464360713959,"254":-0.29883038997650146,"255":-0.9133270382881165,"256":0.00037364382296800613,"257":0.29917657375335693,"258":0.4037071764469147,"259":-0.5048639178276062,"260":0.24193555116653442,"261":0.8961251974105835,"262":0.19402314722537994,"263":0.29120954871177673,"264":-0.4613020420074463,"265":-0.6582646369934082,"266":-0.3597819209098816,"267":-0.8099161386489868,"268":-0.1464235484600067,"269":-0.6081588268280029,"270":0.04786207154393196,"271":-0.5553473830223083,"272":-0.09910822659730911,"273":0.400862455368042,"274":0.1668737679719925,"275":-0.9095692038536072,"276":0.2748402953147888,"277":-0.8560852408409119,"278":0.7294443845748901,"279":-0.2613255977630615,"280":0.9906653165817261,"281":-0.07317062467336655,"282":0.10536547005176544,"283":-0.7657324075698853,"284":0.5187472701072693,"285":0.6644496321678162,"286":0.3661319315433502,"287":1.0659663677215576,"288":0.38860008120536804,"289":0.025477943941950798,"290":1.4025689363479614,"291":0.25283101201057434,"292":-0.9275306463241577,"293":0.809173583984375,"294":-0.36153388023376465,"295":0.4558684825897217,"296":-0.38965702056884766,"297":0.2865055501461029,"298":0.7712872624397278,"299":-1.1088297367095947,"300":-0.46782222390174866,"301":0.4098093509674072,"302":0.3814173936843872,"303":0.6398278474807739,"304":0.7266499996185303,"305":-0.25845101475715637,"306":0.19098030030727386,"307":2.1588172912597656,"308":-0.5231858491897583,"309":-0.3808439075946808,"310":-1.0201895236968994,"311":0.48850303888320923,"312":0.5937339663505554,"313":1.0976773500442505,"314":-0.28628265857696533,"315":-0.2709609270095825,"316":0.8082985281944275,"317":0.33574411273002625,"318":-0.7880469560623169,"319":-0.7127073407173157,"320":-0.08191326260566711,"321":0.2772926688194275,"322":0.46795010566711426,"323":0.04033563286066055,"324":-0.24254612624645233,"325":-0.6162033081054688,"326":-0.03027922660112381,"327":-0.6293450593948364,"328":0.4802890121936798,"329":-0.8868798613548279,"330":0.902197003364563,"331":-0.7999941110610962,"332":-1.1714824438095093,"333":-0.22459173202514648,"334":0.017120763659477234,"335":-0.6014745235443115,"336":0.03678538650274277,"337":-1.140744686126709,"338":-0.09668755531311035,"339":0.7173424959182739,"340":-0.31480464339256287,"341":0.9670060873031616,"342":-1.0815657377243042,"343":-0.7606820464134216,"344":0.12768270075321198,"345":-0.0276515893638134,"346":0.14722111821174622,"347":-0.5474605560302734,"348":0.4060855507850647,"349":0.044500626623630524,"350":1.3005658388137817,"351":0.05968668311834335,"352":-1.6705609560012817,"353":-1.848230242729187,"354":-0.8201982378959656,"355":-1.260011076927185,"356":0.3291282653808594,"357":-0.19175328314304352,"358":0.3535516560077667,"359":-0.024707643315196037,"360":-0.3779022693634033,"361":-1.321043848991394,"362":-0.8458260893821716,"363":0.14247232675552368,"364":0.7481648921966553,"365":0.06609774380922318,"366":1.3434484004974365,"367":1.6069674491882324,"368":-1.4710325002670288,"369":-0.5245373249053955,"370":0.3587557375431061,"371":-0.7509759664535522,"372":-1.2675466537475586,"373":-0.7193164229393005,"374":0.5331738591194153,"375":-0.09580763429403305,"376":0.7579346895217896,"377":0.775629460811615,"378":0.48601722717285156,"379":0.4515722393989563,"380":-0.2894805371761322,"381":0.3869742155075073,"382":0.3236989676952362,"383":0.6249897480010986,"384":0.035801153630018234,"385":1.786615014076233,"386":-1.1560927629470825,"387":1.1032400131225586,"388":1.4485796689987183,"389":0.3408251702785492,"390":0.3652932345867157,"391":0.0727991908788681,"392":0.2577594220638275,"393":-0.21264931559562683,"394":-0.8204054832458496,"395":-1.683237910270691,"396":-0.5329832434654236,"397":-1.121470332145691,"398":-0.9450370669364929,"399":0.1562526375055313,"400":-0.41221508383750916,"401":0.4661032259464264,"402":1.0722875595092773,"403":-0.9737676382064819,"404":1.1225128173828125,"405":0.559088945388794,"406":0.12946683168411255,"407":0.5739574432373047,"408":-0.8393860459327698,"409":0.7955835461616516,"410":-0.18653437495231628,"411":0.25343722105026245,"412":0.09271439164876938,"413":0.10706692188978195,"414":1.948264241218567,"415":0.7261064648628235,"416":-0.3292206823825836,"417":-0.20771928131580353,"418":-0.3896534740924835,"419":0.21856753528118134,"420":-1.0819156169891357,"421":0.030645010992884636,"422":-0.45363545417785645,"423":0.6565383076667786,"424":0.06986477226018906,"425":0.9183549284934998,"426":0.3270777463912964,"427":-0.2067367434501648,"428":0.22781597077846527,"429":0.47087541222572327,"430":-1.0422351360321045,"431":-0.33117687702178955,"432":0.1997876614332199,"433":0.4681173264980316,"434":-0.10689792037010193,"435":0.3312799036502838,"436":0.13670378923416138,"437":-0.4662986993789673,"438":0.020364446565508842,"439":0.5372227430343628,"440":0.7933712601661682,"441":-0.30421918630599976,"442":1.6463297605514526,"443":-1.0739538669586182,"444":-0.401999831199646,"445":0.33837324380874634,"446":0.3173797130584717,"447":-0.6864278316497803,"448":0.3146468698978424,"449":-0.36628711223602295,"450":-0.48616862297058105,"451":-1.1871696710586548,"452":1.3195884227752686,"453":0.17518480122089386,"454":0.36947867274284363,"455":0.26580917835235596,"456":1.5585592985153198,"457":1.2614392042160034,"458":-0.11136775463819504,"459":-0.11516263335943222,"460":-1.2985419034957886,"461":-1.3660180568695068,"462":0.9425708055496216,"463":-0.7646973729133606,"464":1.2963751554489136,"465":-0.8050752878189087,"466":-0.4640718102455139,"467":-0.9263308644294739,"468":-0.07693196088075638,"469":-0.15952874720096588,"470":-0.035731129348278046,"471":-1.38930082321167,"472":-0.1880345642566681,"473":-0.8547284603118896,"474":0.32167667150497437,"475":-0.16539771854877472,"476":-0.28216302394866943,"477":0.43104711174964905,"478":-0.18851248919963837,"479":-0.6482231616973877,"480":0.2922470271587372,"481":-0.27793392539024353,"482":1.2753170728683472,"483":1.8137792348861694,"484":0.475788950920105,"485":0.07106555253267288,"486":-0.5789238214492798,"487":-0.13400380313396454,"488":-1.1543620824813843,"489":-0.12523210048675537,"490":-0.4504580497741699,"491":1.2083200216293335,"492":0.7426319122314453,"493":0.8765805959701538,"494":0.15307389199733734,"495":0.6882986426353455,"496":-0.055771827697753906,"497":-0.5478153228759766,"498":0.5770851969718933,"499":-0.39773029088974,"500":-0.2886635661125183,"501":0.5473384261131287,"502":0.36579185724258423,"503":-0.06432244181632996,"504":-0.5622572898864746,"505":0.45847001671791077,"506":-0.06690128147602081,"507":-1.0900479555130005,"508":0.03815570846199989,"509":-0.8105527758598328,"510":0.028095215559005737,"511":1.004031777381897,"512":0.30211034417152405,"513":0.39883187413215637,"514":-0.6600142121315002,"515":-0.07704295963048935,"516":-0.7833094596862793,"517":-0.8247780203819275,"518":-0.3845042884349823,"519":0.8137131929397583,"520":1.34699547290802,"521":0.6476343870162964,"522":-0.18557590246200562,"523":0.30115562677383423,"524":0.09360688179731369,"525":-0.03635770455002785,"526":0.6203324794769287,"527":0.27845609188079834,"528":-0.21895885467529297,"529":0.5007202625274658,"530":0.31715914607048035,"531":-0.7890649437904358,"532":0.01577458344399929,"533":-0.9573382139205933,"534":-0.4321362376213074,"535":-0.5689553022384644,"536":1.186193585395813,"537":1.552115797996521,"538":-0.10688741505146027,"539":-0.2637961804866791,"540":1.2108423709869385,"541":1.8001492023468018,"542":-0.08158709108829498,"543":0.06651581078767776,"544":-0.5750419497489929,"545":0.9954642057418823,"546":0.5404826998710632,"547":-0.22825612127780914,"548":-1.0109320878982544,"549":-0.8399642705917358,"550":0.41592687368392944,"551":-1.7452392578125,"552":-0.000733419437892735,"553":-0.36386793851852417,"554":1.8983036279678345,"555":-0.48018309473991394,"556":-0.24672722816467285,"557":-0.8921037316322327,"558":-0.09080598503351212,"559":0.03307974338531494}},"outputHidden":{"rows":20,"columns":20,"weights":{"0":1.0172959566116333,"1":0.22489473223686218,"2":-1.5212786197662354,"3":1.8503419160842896,"4":0.9962785840034485,"5":-1.1719794273376465,"6":2.472399950027466,"7":0.32485824823379517,"8":0.24252234399318695,"9":1.0442426204681396,"10":0.7229151129722595,"11":-0.8843257427215576,"12":0.6278045773506165,"13":-0.04625070095062256,"14":-1.3180829286575317,"15":0.27752485871315,"16":0.3878915309906006,"17":0.5548885464668274,"18":1.3578801155090332,"19":-1.6012678146362305,"20":2.876060962677002,"21":0.9259210824966431,"22":-1.83159601688385,"23":-1.7143607139587402,"24":0.18948842585086823,"25":2.095407485961914,"26":-1.3939368724822998,"27":1.6283680200576782,"28":-0.04258484020829201,"29":-0.7184858918190002,"30":-1.2948294878005981,"31":1.8498281240463257,"32":1.2642971277236938,"33":1.50968337059021,"34":-0.7270315289497375,"35":0.3974549472332001,"36":2.051316976547241,"37":-3.105173110961914,"38":0.8554607033729553,"39":1.1201200485229492,"40":-1.2763034105300903,"41":-1.1266698837280273,"42":-0.03990474343299866,"43":-0.8551953434944153,"44":-0.6109294295310974,"45":1.6351169347763062,"46":-0.2243979573249817,"47":0.6787801384925842,"48":-0.6131436824798584,"49":0.7860227227210999,"50":1.69321608543396,"51":-1.8192532062530518,"52":0.0064656054601073265,"53":0.29951390624046326,"54":0.8414338231086731,"55":-2.589735507965088,"56":-1.7679816484451294,"57":1.1682286262512207,"58":0.2827448546886444,"59":0.7946801781654358,"60":-0.08053730428218842,"61":-0.03044462390244007,"62":0.5086932182312012,"63":0.2461717128753662,"64":0.13147060573101044,"65":-0.28426530957221985,"66":0.01951778121292591,"67":-0.09767643362283707,"68":-0.878432035446167,"69":-0.14375516772270203,"70":-0.7926281094551086,"71":-0.22013385593891144,"72":0.748414158821106,"73":-0.5525215268135071,"74":0.7045708298683167,"75":1.1893188953399658,"76":0.5450912117958069,"77":-0.3777958154678345,"78":0.31551477313041687,"79":1.7790523767471313,"80":0.9449223279953003,"81":0.5611234903335571,"82":0.4341241419315338,"83":0.2927491366863251,"84":1.2941755056381226,"85":-0.31048181653022766,"86":0.5622860789299011,"87":-0.5337024331092834,"88":-0.7785448431968689,"89":0.8658190369606018,"90":-1.5364632606506348,"91":0.3041929006576538,"92":-1.5795494318008423,"93":-0.6451824307441711,"94":-0.9990072846412659,"95":0.9780892133712769,"96":-0.6965109705924988,"97":-1.3108938932418823,"98":1.6837618350982666,"99":-0.4427725374698639,"100":0.07353059202432632,"101":1.0495035648345947,"102":0.19815358519554138,"103":-0.2637934386730194,"104":-0.19910451769828796,"105":1.0778307914733887,"106":-0.7909904718399048,"107":-0.7705952525138855,"108":0.019028015434741974,"109":0.4011296331882477,"110":-0.7190818190574646,"111":-0.6727011203765869,"112":-0.05199239030480385,"113":0.2125520259141922,"114":-0.7015454173088074,"115":0.7164978981018066,"116":-0.2870742678642273,"117":0.7772887945175171,"118":0.5565824508666992,"119":1.0854414701461792,"120":-0.17014114558696747,"121":-0.6624552011489868,"122":-1.347861647605896,"123":0.30960017442703247,"124":-0.1312992423772812,"125":-0.985772967338562,"126":0.4306609630584717,"127":-0.15919315814971924,"128":-0.79099041223526,"129":0.23293156921863556,"130":-0.5728931427001953,"131":0.09952525794506073,"132":0.04665447399020195,"133":-1.1511478424072266,"134":0.22688838839530945,"135":0.1318403035402298,"136":0.8400719165802002,"137":-0.4248097538948059,"138":0.8742545247077942,"139":0.6531918048858643,"140":-0.8352425694465637,"141":-0.6403203010559082,"142":0.9528729319572449,"143":-0.6315100193023682,"144":-1.1144864559173584,"145":0.8408793807029724,"146":-0.11593282222747803,"147":0.9201597571372986,"148":0.32446804642677307,"149":-0.24871759116649628,"150":0.7617030143737793,"151":-0.1503303349018097,"152":-0.4135276675224304,"153":1.2680878639221191,"154":2.406407117843628,"155":-0.7605383992195129,"156":-1.4345276355743408,"157":1.1719499826431274,"158":-1.2971776723861694,"159":1.3293464183807373,"160":-0.958766758441925,"161":-1.008823275566101,"162":-1.4334490299224854,"163":0.9565174579620361,"164":0.9902401566505432,"165":0.007235868368297815,"166":1.5781053304672241,"167":-1.8700531721115112,"168":0.021435732021927834,"169":0.7544249892234802,"170":-1.3264700174331665,"171":-0.7212827205657959,"172":-0.1481817066669464,"173":-0.2368115782737732,"174":-1.8542797565460205,"175":0.5857638120651245,"176":-0.04864446073770523,"177":-0.9023658633232117,"178":0.8627029061317444,"179":0.24670632183551788,"180":-0.6918759346008301,"181":-0.18635673820972443,"182":-1.0598738193511963,"183":1.5631383657455444,"184":0.6761565208435059,"185":-0.6106764674186707,"186":1.4952178001403809,"187":-1.374141812324524,"188":-1.1244213581085205,"189":1.9250234365463257,"190":-1.7523850202560425,"191":0.010429613292217255,"192":-0.7434852719306946,"193":-1.2891925573349,"194":-1.3887773752212524,"195":0.11502667516469955,"196":-0.12353498488664627,"197":0.10904039442539215,"198":0.7424678206443787,"199":-0.11467988044023514,"200":0.3751571476459503,"201":0.8338136672973633,"202":0.21286381781101227,"203":-0.5586315393447876,"204":0.192313089966774,"205":0.6572554707527161,"206":0.015227038413286209,"207":-0.4323108494281769,"208":1.615738868713379,"209":-1.312092900276184,"210":-0.5523029565811157,"211":0.9392333626747131,"212":-0.4701051115989685,"213":-1.9552475214004517,"214":0.17463426291942596,"215":1.3180608749389648,"216":0.5290676355361938,"217":-0.8013420701026917,"218":-0.4304746091365814,"219":0.67870032787323,"220":1.1066362857818604,"221":1.1211094856262207,"222":-0.022252952679991722,"223":0.6189160346984863,"224":0.4716357886791229,"225":-0.2859150767326355,"226":-0.0955187976360321,"227":0.32565516233444214,"228":0.195352241396904,"229":1.0796794891357422,"230":0.06279920041561127,"231":-1.6260638236999512,"232":-0.2778104841709137,"233":0.7121500372886658,"234":-2.034987449645996,"235":0.5080803036689758,"236":0.46681472659111023,"237":0.48420649766921997,"238":1.613112211227417,"239":-1.8740860223770142,"240":-0.026516661047935486,"241":-1.1295539140701294,"242":0.32900771498680115,"243":-0.7518129348754883,"244":-0.2917216718196869,"245":1.4062926769256592,"246":-0.8636058568954468,"247":-0.3845720887184143,"248":-1.8825114965438843,"249":0.7662789225578308,"250":-1.7802289724349976,"251":-0.030043497681617737,"252":0.07194279134273529,"253":-1.419893741607666,"254":-0.4144899547100067,"255":0.3525010049343109,"256":-0.1941252499818802,"257":-1.5965919494628906,"258":0.7514265775680542,"259":0.26972436904907227,"260":0.8599566221237183,"261":-0.6904479265213013,"262":-0.16840824484825134,"263":1.3612582683563232,"264":0.21504181623458862,"265":-0.6953368782997131,"266":1.038203239440918,"267":0.9175257682800293,"268":0.49684542417526245,"269":-0.7860593795776367,"270":-0.014796164818108082,"271":0.35814088582992554,"272":0.8074870705604553,"273":0.7974153757095337,"274":0.36811429262161255,"275":-0.20551104843616486,"276":-0.8897531032562256,"277":-0.9409863352775574,"278":-0.16435815393924713,"279":-0.9651992321014404,"280":0.27159303426742554,"281":0.2627283036708832,"282":1.3516916036605835,"283":-1.5301237106323242,"284":-0.35566192865371704,"285":-0.05614491179585457,"286":-1.6313767433166504,"287":0.1934216022491455,"288":0.7500065565109253,"289":-1.0946038961410522,"290":-0.2582777142524719,"291":1.199567437171936,"292":-0.02641686610877514,"293":0.10291209816932678,"294":-0.20940397679805756,"295":1.2447726726531982,"296":2.5268986225128174,"297":-0.8583782911300659,"298":0.2113165259361267,"299":0.7626928687095642,"300":0.9841328263282776,"301":0.42537039518356323,"302":-1.0920284986495972,"303":-0.7319586277008057,"304":0.8924529552459717,"305":0.6037508249282837,"306":-0.8129464983940125,"307":-0.48648953437805176,"308":2.0721724033355713,"309":-0.7726814150810242,"310":0.51910400390625,"311":-1.6807228326797485,"312":-1.7566452026367188,"313":0.6873546838760376,"314":-2.5915253162384033,"315":0.6019264459609985,"316":1.221998929977417,"317":0.41226229071617126,"318":1.7833225727081299,"319":-1.4617491960525513,"320":0.9676492810249329,"321":-0.6815404891967773,"322":1.1706575155258179,"323":-1.995119333267212,"324":0.8861320614814758,"325":1.2319058179855347,"326":-1.2712795734405518,"327":1.7200828790664673,"328":1.8110783100128174,"329":-1.6109914779663086,"330":1.2018808126449585,"331":0.8748815059661865,"332":-1.4358441829681396,"333":1.1876850128173828,"334":-0.413239985704422,"335":-0.05802718177437782,"336":-1.0367149114608765,"337":-0.951823890209198,"338":0.33190062642097473,"339":-1.8601443767547607,"340":1.3037906885147095,"341":1.0287455320358276,"342":-1.1220121383666992,"343":0.02156270481646061,"344":1.932984471321106,"345":0.04439172148704529,"346":0.9251582026481628,"347":-1.145779013633728,"348":2.481252670288086,"349":-1.1291489601135254,"350":-0.07139244675636292,"351":-0.3571510910987854,"352":-0.6479876637458801,"353":0.3430391848087311,"354":-1.534212589263916,"355":-0.2918342053890228,"356":0.3654036223888397,"357":-0.19314606487751007,"358":2.5564873218536377,"359":-0.7493215203285217,"360":-0.2532728910446167,"361":-0.1741357147693634,"362":0.2559543550014496,"363":-1.4073071479797363,"364":1.1589503288269043,"365":1.432112455368042,"366":-1.417342185974121,"367":1.0282654762268066,"368":2.532306671142578,"369":-1.0540608167648315,"370":0.13956952095031738,"371":0.9757382273674011,"372":-1.0088672637939453,"373":3.7005622386932373,"374":-0.8888288140296936,"375":-0.10221697390079498,"376":0.5361977815628052,"377":-0.606100857257843,"378":2.0440049171447754,"379":-0.8975091576576233,"380":1.3076176643371582,"381":-0.11571969836950302,"382":0.4032345414161682,"383":0.7731634378433228,"384":1.2289401292800903,"385":-1.177959680557251,"386":0.37579649686813354,"387":-0.9519577622413635,"388":1.0090054273605347,"389":-0.11768098175525665,"390":0.3201093375682831,"391":-0.5592907071113586,"392":-0.1610964685678482,"393":1.7752795219421387,"394":-0.5855532288551331,"395":0.16613173484802246,"396":-0.9878299832344055,"397":0.3257448375225067,"398":-0.04128098487854004,"399":-0.25946056842803955}},"outputBias":{"rows":20,"columns":1,"weights":{"0":-0.6531222462654114,"1":0.04096018895506859,"2":0.38957610726356506,"3":1.3996363878250122,"4":-0.3663323223590851,"5":0.1998334527015686,"6":1.033238172531128,"7":1.198837161064148,"8":-1.6311228275299072,"9":-0.6662787199020386,"10":0.2768855392932892,"11":-0.2623934745788574,"12":0.5389068722724915,"13":-0.36382046341896057,"14":2.8459279537200928,"15":-0.644057035446167,"16":-1.9960235357284546,"17":-0.4186740517616272,"18":0.773795485496521,"19":0.5958428382873535}},"cellActivationMatrix":{"rows":20,"columns":28,"weights":{"0":0.3312014937400818,"1":1.1766860485076904,"2":0.25467824935913086,"3":-0.2799234986305237,"4":2.153035879135132,"5":0.08488480746746063,"6":1.8823953866958618,"7":1.8023183345794678,"8":2.038910150527954,"9":0.5364775061607361,"10":0.5046902894973755,"11":0.0717877522110939,"12":-1.5936633348464966,"13":-0.24182282388210297,"14":-1.6281116008758545,"15":0.5053740739822388,"16":0.7476581335067749,"17":1.4314067363739014,"18":1.3546457290649414,"19":0.5880357623100281,"20":-0.3195963501930237,"21":0.4895358979701996,"22":0.011163911782205105,"23":-1.3530076742172241,"24":0.4529065787792206,"25":0.4183572232723236,"26":1.7168633937835693,"27":1.673447847366333,"28":-0.16167934238910675,"29":1.941820502281189,"30":-0.026354530826210976,"31":1.2779874801635742,"32":0.8265554904937744,"33":0.2720639407634735,"34":0.922829806804657,"35":0.7161865830421448,"36":-0.0043751271441578865,"37":-1.065460443496704,"38":-0.10256869345903397,"39":-0.08048851042985916,"40":-1.5224835872650146,"41":0.6906012892723083,"42":-1.3768537044525146,"43":1.0793859958648682,"44":1.2793546915054321,"45":1.2353343963623047,"46":0.919838547706604,"47":0.9648683667182922,"48":0.15714456140995026,"49":-0.04806540533900261,"50":-0.6477541923522949,"51":-0.6751008033752441,"52":-0.14090192317962646,"53":0.9927901029586792,"54":1.2991340160369873,"55":0.08291125297546387,"56":-0.4576912224292755,"57":-0.0980646163225174,"58":0.5549612641334534,"59":0.5187803506851196,"60":-1.521499752998352,"61":-0.7955307960510254,"62":-0.5859164595603943,"63":0.19909518957138062,"64":-0.28802186250686646,"65":-1.0150114297866821,"66":0.18811804056167603,"67":-0.0352802500128746,"68":1.3231596946716309,"69":-0.23999091982841492,"70":0.3316037356853485,"71":0.6507366299629211,"72":-0.1889214813709259,"73":0.6590402126312256,"74":-0.2371314913034439,"75":1.6153315305709839,"76":0.5625855922698975,"77":-0.04503776505589485,"78":-0.003224962158128619,"79":0.6088537573814392,"80":0.03638475760817528,"81":0.9651261568069458,"82":-0.5697012543678284,"83":-0.7021018266677856,"84":-0.15230268239974976,"85":-0.2648763060569763,"86":-0.3665848672389984,"87":0.036682069301605225,"88":-0.09341573715209961,"89":1.071143627166748,"90":-0.4778604507446289,"91":0.037117183208465576,"92":-0.2835155129432678,"93":0.6571016907691956,"94":-0.022743990644812584,"95":-0.27230727672576904,"96":0.15693502128124237,"97":-0.15081645548343658,"98":0.7134554386138916,"99":-0.354661226272583,"100":-0.5733041167259216,"101":-0.3486883342266083,"102":-0.22433918714523315,"103":-0.9272133111953735,"104":0.3143117427825928,"105":-0.08915985375642776,"106":-0.24270930886268616,"107":0.12641292810440063,"108":-0.20045125484466553,"109":-0.726519763469696,"110":-0.16976875066757202,"111":0.3640713691711426,"112":0.7280169725418091,"113":-0.7796294093132019,"114":0.2919943630695343,"115":1.1675175428390503,"116":-0.608098566532135,"117":1.1086146831512451,"118":-1.4136351346969604,"119":0.11993563920259476,"120":-0.4640887379646301,"121":1.0015226602554321,"122":0.18499626219272614,"123":0.3430386483669281,"124":-0.311251163482666,