{"type":"RNN","options":{"inputSize":28,"inputRange":28,"hiddenLayers":[20,20],"outputSize":28,"decayRate":0.999,"smoothEps":1e-8,"regc":0.000001,"clipval":5,"maxPredictionLength":100,"dataFormatter":{"values":["Please add a dark mode for nighttime use.","This app is a lifesaver for tracking expenses.","actionable","unactionable"],"indexTable":{"P":0,"l":1,"e":2,"a":3,"s":4," ":5,"d":6,"r":7,"k":8,"m":9,"o":10,"f":11,"n":12,"i":13,"g":14,"h":15,"t":16,"u":17,".":18,"T":19,"p":20,"v":21,"c":22,"x":23,"b":24,"stop-input":25,"start-output":26,"unrecognized":27},"characterTable":{"0":"P","1":"l","2":"e","3":"a","4":"s","5":" ","6":"d","7":"r","8":"k","9":"m","10":"o","11":"f","12":"n","13":"i","14":"g","15":"h","16":"t","17":"u","18":".","19":"T","20":"p","21":"v","22":"c","23":"x","24":"b","25":null,"26":null,"27":null},"characters":["P","l","e","a","s"," ","d","r","k","m","o","f","n","i","g","h","t","u",".","T","p","v","c","x","b","stop-input","start-output","unrecognized"],"specialIndexes":[25,26,27]}},"input":{"rows":29,"columns":28,"weights":{"0":-0.2608267068862915,"1":-0.21578790247440338,"2":0.3125596046447754,"3":0.23089896142482758,"4":0.33592191338539124,"5":0.2390834242105484,"6":0.19886314868927002,"7":-0.3027478754520416,"8":-0.2344745248556137,"9":0.24577006697654724,"10":-0.3095763921737671,"11":0.17615942656993866,"12":0.360860139131546,"13":0.23269543051719666,"14":0.39078488945961,"15":-0.31888455152511597,"16":0.2748657763004303,"17":0.25442591309547424,"18":-0.3077673614025116,"19":-0.19397267699241638,"20":0.18006286025047302,"21":0.43962427973747253,"22":0.33180272579193115,"23":0.3655082583427429,"24":-0.3582521975040436,"25":-0.38084137439727783,"26":-0.37906715273857117,"27":-0.3037814795970917,"28":-0.005017799325287342,"29":-0.12506596744060516,"30":-0.09662419557571411,"31":0.04543638229370117,"32":-0.22316138446331024,"33":-0.07121660560369492,"34":-0.04489101469516754,"35":-0.05278707295656204,"36":-0.22389838099479675,"37":0.23755721747875214,"38":0.0029254017863422632,"39":-0.07724227756261826,"40":0.22300279140472412,"41":0.0722050592303276,"42":-0.07148880511522293,"43":0.16227620840072632,"44":0.07012143731117249,"45":0.036996595561504364,"46":-0.25484350323677063,"47":0.18811151385307312,"48":0.17012059688568115,"49":0.09377975016832352,"50":-0.22473756968975067,"51":0.09243352711200714,"52":-0.3058590888977051,"53":-0.26666316390037537,"54":0.04706411063671112,"55":0.17127521336078644,"56":0.3392074704170227,"57":-0.48079782724380493,"58":0.22400373220443726,"59":0.4104880094528198,"60":-0.43283018469810486,"61":-0.21832355856895447,"62":-0.3860655725002289,"63":0.22189165651798248,"64":-0.33766594529151917,"65":-0.358499675989151,"66":0.43978220224380493,"67":-0.3884318768978119,"68":-0.2266911417245865,"69":-0.2570520341396332,"70":-0.1456776112318039,"71":-0.45828521251678467,"72":0.06712201237678528,"73":0.3778420388698578,"74":0.023701056838035583,"75":0.3414643704891205,"76":0.17388318479061127,"77":0.3655984103679657,"78":-0.2583332061767578,"79":0.41367775201797485,"80":-0.4163498282432556,"81":0.17225447297096252,"82":0.3043256103992462,"83":0.2724668085575104,"84":0.2979653775691986,"85":0.3134322166442871,"86":-0.22525520622730255,"87":-0.2554475963115692,"88":0.319755494594574,"89":0.46895819902420044,"90":0.5583027005195618,"91":-0.4279695451259613,"92":-0.20650553703308105,"93":0.43703365325927734,"94":0.40133368968963623,"95":0.45804715156555176,"96":0.3620852828025818,"97":-0.10415814071893692,"98":-0.08242109417915344,"99":0.36650019884109497,"100":-0.21468837559223175,"101":-0.36285823583602905,"102":-0.17061260342597961,"103":-0.3470901846885681,"104":0.3455757796764374,"105":-0.33858922123908997,"106":0.13836242258548737,"107":-0.506320595741272,"108":-0.3874710500240326,"109":-0.17446641623973846,"110":0.14003024995326996,"111":-0.31127452850341797,"112":-0.25819888710975647,"113":-0.35092318058013916,"114":0.28330349922180176,"115":0.35969921946525574,"116":0.32482999563217163,"117":0.28910794854164124,"118":0.20330463349819183,"119":-0.13983970880508423,"120":0.26028817892074585,"121":0.30851611495018005,"122":-0.23192521929740906,"123":0.35690125823020935,"124":0.0938863754272461,"125":0.23723453283309937,"126":0.4560015797615051,"127":-0.28354543447494507,"128":0.26905253529548645,"129":0.17146554589271545,"130":-0.4076702892780304,"131":-0.15359601378440857,"132":-0.16571304202079773,"133":0.2918851375579834,"134":0.3792906403541565,"135":0.3962748646736145,"136":-0.1861138492822647,"137":-0.3978933095932007,"138":-0.4746125340461731,"139":-0.223290354013443,"140":0.2960567772388458,"141":0.4517671465873718,"142":-0.5260947346687317,"143":-0.25367486476898193,"144":0.10493379831314087,"145":0.350234717130661,"146":0.4255983829498291,"147":-0.4869573712348938,"148":0.3715475797653198,"149":0.4431106150150299,"150":0.36985960602760315,"151":0.32660770416259766,"152":0.19456160068511963,"153":-0.22341449558734894,"154":-0.1299235075712204,"155":0.14149735867977142,"156":-0.19748739898204803,"157":-0.4889882802963257,"158":0.3693650960922241,"159":0.2946588397026062,"160":0.4857891798019409,"161":-0.5270084738731384,"162":-0.34848523139953613,"163":0.014023873955011368,"164":0.42363107204437256,"165":0.35256388783454895,"166":0.2419314980506897,"167":-0.21702851355075836,"168":0.40499362349510193,"169":0.3863365352153778,"170":-0.22499406337738037,"171":-0.41159048676490784,"172":0.2722449004650116,"173":0.38288623094558716,"174":0.3957754969596863,"175":-0.3417697548866272,"176":0.25237467885017395,"177":0.29798975586891174,"178":0.460564523935318,"179":0.358865886926651,"180":-0.4693060517311096,"181":-0.2995348572731018,"182":-0.1099856048822403,"183":0.06291527301073074,"184":-0.3909517228603363,"185":-0.1290668398141861,"186":0.34356942772865295,"187":0.18700635433197021,"188":0.22926366329193115,"189":-0.38557320833206177,"190":-0.3220527768135071,"191":-0.47537246346473694,"192":0.42129945755004883,"193":0.24029062688350677,"194":0.2604871690273285,"195":0.1211366206407547,"196":0.0007150227320380509,"197":0.20642982423305511,"198":-0.04423411563038826,"199":0.02538311667740345,"200":0.16170178353786469,"201":0.12189683318138123,"202":-0.27755725383758545,"203":0.1958572268486023,"204":-0.12050582468509674,"205":-0.24936476349830627,"206":0.17942436039447784,"207":-0.06611431390047073,"208":-0.019006216898560524,"209":0.0061650946736335754,"210":-0.02697363682091236,"211":-0.036127932369709015,"212":0.14680224657058716,"213":-0.2124667465686798,"214":-0.17396187782287598,"215":-0.1372830867767334,"216":-0.045705124735832214,"217":0.15880396962165833,"218":0.07560280710458755,"219":0.15182866156101227,"220":0.04705007001757622,"221":0.06722161918878555,"222":0.08642807602882385,"223":0.0007297328556887805,"224":0.2687467336654663,"225":0.4006653428077698,"226":-0.20441608130931854,"227":-0.36764106154441833,"228":-0.3937111496925354,"229":0.28096842765808105,"230":0.5291030406951904,"231":-0.36441099643707275,"232":0.4959067702293396,"233":0.48981815576553345,"234":0.276775985956192,"235":0.3217378556728363,"236":0.27562668919563293,"237":-0.19412508606910706,"238":-0.4681446850299835,"239":0.21716590225696564,"240":-0.4987214207649231,"241":-0.19683372974395752,"242":0.40959587693214417,"243":0.40324667096138,"244":0.2350333333015442,"245":-0.24563449621200562,"246":-0.3848613202571869,"247":-0.3007327616214752,"248":0.23620741069316864,"249":0.24082735180854797,"250":0.2563835084438324,"251":0.1740986704826355,"252":0.2502779960632324,"253":0.27742400765419006,"254":-0.16200223565101624,"255":-0.3687252998352051,"256":-0.2700885534286499,"257":-0.34938400983810425,"258":-0.26223838329315186,"259":-0.31198206543922424,"260":0.15812663733959198,"261":-0.339655339717865,"262":0.2856302559375763,"263":-0.4058016836643219,"264":-0.15070396661758423,"265":-0.39042195677757263,"266":-0.37069395184516907,"267":0.13464772701263428,"268":-0.2594195008277893,"269":-0.2838727533817291,"270":0.34500157833099365,"271":0.3483067452907562,"272":0.2903512418270111,"273":-0.3043034076690674,"274":-0.27513304352760315,"275":-0.353097528219223,"276":0.33281588554382324,"277":0.43794190883636475,"278":0.2713959813117981,"279":0.335229754447937,"280":-0.23790548741817474,"281":-0.18496550619602203,"282":-0.02295559085905552,"283":-0.13689960539340973,"284":-0.0637194812297821,"285":0.16559277474880219,"286":-0.14473074674606323,"287":0.20238064229488373,"288":0.05284327268600464,"289":-0.24894653260707855,"290":-0.036751486361026764,"291":0.317448228597641,"292":0.22673925757408142,"293":0.053765080869197845,"294":0.033612482249736786,"295":0.10814356058835983,"296":-0.16157735884189606,"297":0.14827796816825867,"298":0.04869313910603523,"299":0.28649160265922546,"300":-0.07416027039289474,"301":0.03928131237626076,"302":0.03893411159515381,"303":-0.1854584515094757,"304":0.13500571250915527,"305":0.10867978632450104,"306":-0.21588554978370667,"307":-0.05236577242612839,"308":0.4562535881996155,"309":0.2278672307729721,"310":-0.38488316535949707,"311":-0.332512766122818,"312":-0.3328050971031189,"313":0.4483634829521179,"314":0.35081151127815247,"315":-0.32835692167282104,"316":0.3077848255634308,"317":0.3456370234489441,"318":0.37364786863327026,"319":0.41948384046554565,"320":0.4869581460952759,"321":-0.2280672788619995,"322":-0.39824792742729187,"323":0.4564115107059479,"324":-0.3252074718475342,"325":-0.49188438057899475,"326":0.30237531661987305,"327":0.37567058205604553,"328":0.33857494592666626,"329":-0.26455456018447876,"330":-0.2271845042705536,"331":-0.30344775319099426,"332":0.2965117394924164,"333":0.32559365034103394,"334":0.33486032485961914,"335":-0.22046127915382385,"336":0.2868874669075012,"337":0.3882836699485779,"338":-0.35979631543159485,"339":-0.44436901807785034,"340":-0.38694703578948975,"341":-0.3262985050678253,"342":-0.38799604773521423,"343":0.4182577431201935,"344":0.4864400029182434,"345":-0.5450237989425659,"346":0.2810405194759369,"347":0.5014316439628601,"348":-0.3489881753921509,"349":-0.41362428665161133,"350":-0.2761183977127075,"351":0.3282557725906372,"352":-0.5156301856040955,"353":-0.4297873079776764,"354":0.2269698977470398,"355":0.43519213795661926,"356":-0.45100998878479004,"357":-0.3209874927997589,"358":-0.24807019531726837,"359":-0.159853994846344,"360":0.178971529006958,"361":0.4691895544528961,"362":-0.42114800214767456,"363":0.22221359610557556,"364":0.3880554139614105,"365":0.28363049030303955,"366":-0.20783892273902893,"367":-0.36637622117996216,"368":0.42927613854408264,"369":0.47131213545799255,"370":-0.4377167224884033,"371":0.3926785886287689,"372":-0.3550488352775574,"373":0.16070187091827393,"374":0.14723511040210724,"375":0.35847657918930054,"376":0.48121392726898193,"377":-0.2750866413116455,"378":-0.3168630599975586,"379":0.3885909914970398,"380":-0.23032133281230927,"381":-0.32116183638572693,"382":0.2564062178134918,"383":-0.5173506140708923,"384":-0.4867086112499237,"385":-0.2538226842880249,"386":-0.304969847202301,"387":-0.5543227791786194,"388":-0.17970125377178192,"389":0.3782477080821991,"390":0.28878912329673767,"391":-0.405811071395874,"392":0.3897392749786377,"393":-0.4393443167209625,"394":-0.06742676347494125,"395":0.45979979634284973,"396":-0.3283352255821228,"397":-0.21003484725952148,"398":-0.3414793908596039,"399":0.23675866425037384,"400":0.45451247692108154,"401":-0.30288025736808777,"402":0.40513935685157776,"403":0.29760706424713135,"404":-0.3785654306411743,"405":-0.3840995728969574,"406":0.4544978439807892,"407":0.2503032684326172,"408":-0.28541553020477295,"409":0.259309858083725,"410":-0.24556568264961243,"411":0.17206557095050812,"412":-0.22273202240467072,"413":0.229465052485466,"414":-0.1243801862001419,"415":0.14840790629386902,"416":-0.3267688453197479,"417":0.35511094331741333,"418":-0.27916720509529114,"419":-0.1704379767179489,"420":0.49638137221336365,"421":0.5569663643836975,"422":-0.25948071479797363,"423":-0.5339164137840271,"424":-0.24427556991577148,"425":-0.43679115176200867,"426":-0.31433913111686707,"427":-0.2489403933286667,"428":-0.072538360953331,"429":0.2432098239660263,"430":0.31787434220314026,"431":-0.2433903068304062,"432":0.3870255649089813,"433":-0.3052304685115814,"434":-0.4082431197166443,"435":-0.38559985160827637,"436":-0.32157155871391296,"437":-0.2533053755760193,"438":0.385628342628479,"439":0.34847667813301086,"440":0.22817233204841614,"441":-0.5435609817504883,"442":-0.3690250515937805,"443":0.33075883984565735,"444":0.2556465268135071,"445":0.45814433693885803,"446":0.29291650652885437,"447":0.31833669543266296,"448":0.26759442687034607,"449":0.35209086537361145,"450":-0.3646494448184967,"451":-0.1851147562265396,"452":0.36113786697387695,"453":-0.29523733258247375,"454":-0.5215775966644287,"455":0.4777359962463379,"456":-0.15162676572799683,"457":-0.370326966047287,"458":0.2561366856098175,"459":-0.3720979690551758,"460":0.2569601535797119,"461":-0.36047011613845825,"462":-0.2815515398979187,"463":-0.31959038972854614,"464":-0.2213897407054901,"465":0.3432978689670563,"466":0.15928302705287933,"467":0.3244990408420563,"468":-0.3276485800743103,"469":-0.3016960620880127,"470":-0.21870392560958862,"471":0.4749658405780792,"472":0.32766616344451904,"473":0.2236153781414032,"474":0.3896344304084778,"475":0.001632748288102448,"476":0.22402098774909973,"477":0.22167210280895233,"478":-0.3818943202495575,"479":-0.2969948351383209,"480":-0.34922340512275696,"481":-0.1406530737876892,"482":-0.38478124141693115,"483":-0.4600760042667389,"484":-0.15403620898723602,"485":0.23088906705379486,"486":0.37889474630355835,"487":-0.2223336398601532,"488":0.2520780563354492,"489":-0.37605684995651245,"490":-0.1380767822265625,"491":-0.27668896317481995,"492":-0.38990315794944763,"493":-0.3578173816204071,"494":0.22544778883457184,"495":0.44743800163269043,"496":0.34137243032455444,"497":-0.2141951024532318,"498":-0.09563806653022766,"499":0.42949217557907104,"500":-0.42106279730796814,"501":0.3915545642375946,"502":0.18432222306728363,"503":0.3067465126514435,"504":-0.2500512897968292,"505":0.19378933310508728,"506":0.2018483430147171,"507":0.3678443133831024,"508":0.2879209816455841,"509":-0.2389284074306488,"510":-0.29616761207580566,"511":0.4177412986755371,"512":-0.2739166021347046,"513":-0.19208653271198273,"514":-0.32908666133880615,"515":0.31063318252563477,"516":0.2692572772502899,"517":0.4542536437511444,"518":0.2732420563697815,"519":-0.35478582978248596,"520":0.2202577143907547,"521":0.19467896223068237,"522":-0.2324810028076172,"523":-0.08959243446588516,"524":-0.27886536717414856,"525":0.3007129430770874,"526":0.2316809594631195,"527":0.20273593068122864,"528":0.380293071269989,"529":-0.2704220116138458,"530":0.25711971521377563,"531":-0.14797942340373993,"532":-0.23530466854572296,"533":-0.31084728240966797,"534":0.3106193542480469,"535":0.2659189999103546,"536":0.3025548458099365,"537":0.257927805185318,"538":0.31853821873664856,"539":-0.2884739339351654,"540":-0.23658563196659088,"541":0.21714550256729126,"542":-0.30657029151916504,"543":-0.25654423236846924,"544":0.23454494774341583,"545":0.3290916085243225,"546":0.24618971347808838,"547":0.20802828669548035,"548":0.3740287721157074,"549":0.40177634358406067,"550":-0.22645366191864014,"551":-0.18332640826702118,"552":0.30128949880599976,"553":0.2605026960372925,"554":0.5165987610816956,"555":-0.22585073113441467,"556":-0.10434240847826004,"557":-0.24084274470806122,"558":-0.2931024134159088,"559":-0.3682115375995636,"560":-0.5426259636878967,"561":-0.5900710821151733,"562":0.5009592175483704,"563":0.4917829930782318,"564":0.44790053367614746,"565":0.5881000757217407,"566":0.434122234582901,"567":-0.13989286124706268,"568":-0.5268551707267761,"569":0.35490942001342773,"570":-0.48855942487716675,"571":0.467570960521698,"572":0.3558240234851837,"573":0.521584689617157,"574":0.5098717212677002,"575":0.5317768454551697,"576":0.5254984498023987,"577":0.4581533670425415,"578":-0.5198690891265869,"579":-0.5737689137458801,"580":0.37833085656166077,"581":0.5580182671546936,"582":0.48439785838127136,"583":-0.558981716632843,"584":-0.4451785087585449,"585":-0.46268150210380554,"586":-0.5462527275085449,"587":-0.49930283427238464,"588":-0.4684162437915802,"589":-0.5822919607162476,"590":0.46424585580825806,"591":0.4915664792060852,"592":0.5512334704399109,"593":0.4682781994342804,"594":0.49156653881073,"595":-0.551917314529419,"596":-0.4494391679763794,"597":0.5648579597473145,"598":-0.480175644159317,"599":0.49938562512397766,"600":0.4449687600135803,"601":0.4829215705394745,"602":0.45352283120155334,"603":-0.5295476317405701,"604":0.4747782349586487,"605":0.47109273076057434,"606":-0.4662184417247772,"607":-0.5035499334335327,"608":-0.557457685470581,"609":0.5509457588195801,"610":0.5884120464324951,"611":0.5247335433959961,"612":-0.5068384408950806,"613":-0.4883164167404175,"614":0.5426775813102722,"615":-0.4547296464443207,"616":0.4875502288341522,"617":0.5755903720855713,"618":-0.4743216335773468,"619":-0.5305061340332031,"620":-0.49754074215888977,"621":0.5800663232803345,"622":0.5781075954437256,"623":-0.5420539975166321,"624":0.579300582408905,"625":0.5443706512451172,"626":0.4621851444244385,"627":0.4762025773525238,"628":0.514948844909668,"629":-0.5479164123535156,"630":-0.5708310604095459,"631":0.5705326795578003,"632":-0.44261977076530457,"633":-0.5775544047355652,"634":0.5186849236488342,"635":0.4454372227191925,"636":-0.2553008794784546,"637":-0.5030047297477722,"638":-0.5599324107170105,"639":-0.5814717411994934,"640":0.48879820108413696,"641":0.4776616394519806,"642":0.47880271077156067,"643":0.48060184717178345,"644":-0.3502722382545471,"645":-0.3433595299720764,"646":0.2849789559841156,"647":0.30515846610069275,"648":-0.13481755554676056,"649":0.2835436761379242,"650":0.17785552144050598,"651":-0.40879273414611816,"652":-0.09916665405035019,"653":0.1129126027226448,"654":-0.36080673336982727,"655":-0.2334960252046585,"656":0.4086438715457916,"657":0.11756846308708191,"658":0.29255664348602295,"659":-0.009305604733526707,"660":0.14099958539009094,"661":0.3885609209537506,"662":-0.31518831849098206,"663":-0.20727689564228058,"664":0.14190344512462616,"665":0.300833523273468,"666":0.34988048672676086,"667":-0.2735738754272461,"668":-0.3067958354949951,"669":-0.347002774477005,"670":-0.16162346303462982,"671":-0.20320376753807068,"672":-0.5761946439743042,"673":-0.4558558762073517,"674":0.4557763338088989,"675":0.5937032103538513,"676":0.5051023364067078,"677":0.4990435242652893,"678":0.5768143534660339,"679":-0.543055534362793,"680":-0.5135834217071533,"681":0.4961717426776886,"682":-0.591363251209259,"683":0.32090264558792114,"684":0.4722452163696289,"685":0.47997158765792847,"686":0.5561895966529846,"687":-0.4961412250995636,"688":0.534929096698761,"689":0.586738109588623,"690":-0.5638006329536438,"691":-0.4748646318912506,"692":-0.5687210559844971,"693":0.45773079991340637,"694":0.5211970806121826,"695":0.4364053010940552,"696":-0.494151771068573,"697":-0.4974401295185089,"698":-0.46511220932006836,"699":-0.5603485703468323,"700":-4.994400501251221,"701":-3.562213659286499,"702":9.782085418701172,"703":3.912177562713623,"704":-11.996755599975586,"705":-7.109828948974609,"706":-14.38896369934082,"707":3.6254758834838867,"708":-3.8278331756591797,"709":9.347554206848145,"710":-9.840702056884766,"711":-2.9557950496673584,"712":5.275679588317871,"713":3.4255635738372803,"714":-6.246781826019287,"715":4.366150379180908,"716":3.683830499649048,"717":-29.21703338623047,"718":-6.913967609405518,"719":3.956657886505127,"720":4.360970973968506,"721":4.210310459136963,"722":-31.124895095825195,"723":7.6686296463012695,"724":-5.552792072296143,"725":-5.3964080810546875,"726":5.673058032989502,"727":3.2477712631225586,"728":-0.26074478030204773,"729":-0.3456108570098877,"730":0.3227846622467041,"731":0.29764050245285034,"732":0.1381710320711136,"733":0.42181292176246643,"734":0.3267631530761719,"735":-0.23740512132644653,"736":0.31764939427375793,"737":0.16569189727306366,"738":-0.20426148176193237,"739":0.33585894107818604,"740":0.35347193479537964,"741":0.4010724723339081,"742":0.296933650970459,"743":0.32335880398750305,"744":0.2954486310482025,"745":-0.15762458741664886,"746":-0.42527392506599426,"747":-0.17025533318519592,"748":0.12182296067476273,"749":0.3720146119594574,"750":0.26758185029029846,"751":-0.2897137999534607,"752":-0.22210358083248138,"753":-0.28704822063446045,"754":-0.2434689849615097,"755":-0.3183305263519287,"756":-0.02595704421401024,"757":-0.25154149532318115,"758":0.07114863395690918,"759":0.2321135252714157,"760":0.29019227623939514,"761":-0.05502483621239662,"762":-0.22560971975326538,"763":0.25357508659362793,"764":-0.13733646273612976,"765":-0.15360820293426514,"766":-0.08647233992815018,"767":-0.31990885734558105,"768":-0.15155424177646637,"769":0.4745842218399048,"770":0.37504979968070984,"771":-0.1470344364643097,"772":0.45072269439697266,"773":0.15520042181015015,"774":-0.21862046420574188,"775":-0.16921955347061157,"776":-0.26659855246543884,"777":0.23090142011642456,"778":0.20987138152122498,"779":0.3049313724040985,"780":-0.35333049297332764,"781":-0.22949960827827454,"782":-0.2901451587677002,"783":-0.06588291376829147,"784":0.031501274555921555,"785":-0.05604782700538635,"786":0.058549411594867706,"787":0.02291231043636799,"788":0.06930363923311234,"789":-0.012326180003583431,"790":-0.02533620223402977,"791":-0.02883732318878174,"792":-0.0757368728518486,"793":0.05293591693043709,"794":-0.0057159592397511005,"795":-0.07026049494743347,"796":0.006214294116944075,"797":-0.000981796532869339,"798":-0.02404012903571129,"799":-0.04147692769765854,"800":-0.05957876890897751,"801":0.047364167869091034,"802":0.014428424648940563,"803":0.028671855106949806,"804":0.002169200452044606,"805":0.0037030456587672234,"806":0.019791677594184875,"807":0.033456556499004364,"808":-0.04823639616370201,"809":-0.05441075935959816,"810":0.0470828115940094,"811":0.023549137637019157}},"hiddenLayers":[{"weight":{"rows":20,"columns":28,"weights":{"0":-0.4630643427371979,"1":0.13037319481372833,"2":0.48733949661254883,"3":-0.09221910685300827,"4":-0.4822690486907959,"5":-0.37553057074546814,"6":-0.3508261442184448,"7":-0.3804670572280884,"8":0.4430577754974365,"9":-0.41634508967399597,"10":-0.36660778522491455,"11":-0.3663806915283203,"12":0.24439400434494019,"13":-0.20038846135139465,"14":-0.3082582354545593,"15":-0.09853360056877136,"16":-0.3750547468662262,"17":0.08918283134698868,"18":-0.15358561277389526,"19":-0.11468726396560669,"20":-0.1475418508052826,"21":0.15983134508132935,"22":0.45951899886131287,"23":0.14041893184185028,"24":-0.313690721988678,"25":0.43997594714164734,"26":0.12452096492052078,"27":-0.05026361346244812,"28":0.0808614119887352,"29":-0.48245006799697876,"30":0.29778748750686646,"31":0.5046436190605164,"32":-0.0756453275680542,"33":0.10085895657539368,"34":-0.3541455566883087,"35":0.41853582859039307,"36":-0.21108990907669067,"37":-0.43713173270225525,"38":0.4253838360309601,"39":-0.5701640248298645,"40":0.4181584119796753,"41":0.21514353156089783,"42":0.26497945189476013,"43":-0.463882714509964,"44":0.5088657140731812,"45":0.505223274230957,"46":-0.46540209650993347,"47":0.029754435643553734,"48":0.3389368951320648,"49":0.2526114881038666,"50":0.24011832475662231,"51":0.5078359842300415,"52":-0.30655404925346375,"53":-0.346952348947525,"54":0.531968891620636,"55":-0.3143608868122101,"56":0.49786239862442017,"57":0.5703670382499695,"58":0.02374904975295067,"59":-0.6223366260528564,"60":0.5275108218193054,"61":0.19879034161567688,"62":0.19898280501365662,"63":-0.2527120113372803,"64":0.27021509408950806,"65":-0.2516970634460449,"66":-0.08509620279073715,"67":0.43246620893478394,"68":-0.2130872756242752,"69":-0.5105822682380676,"70":-0.028600286692380905,"71":-0.26807117462158203,"72":-0.4971950948238373,"73":0.15986080467700958,"74":0.4225922226905823,"75":-0.3179737329483032,"76":-0.2514491081237793,"77":-0.6549282670021057,"78":-0.5386478900909424,"79":-0.2806662917137146,"80":0.48644864559173584,"81":0.43054255843162537,"82":-0.3040277361869812,"83":-0.26447558403015137,"84":0.03715645521879196,"85":0.44578051567077637,"86":-0.5799567699432373,"87":-0.5026769638061523,"88":0.1275474578142166,"89":-0.10996831208467484,"90":0.39542120695114136,"91":-0.5437753796577454,"92":0.11403640359640121,"93":0.49046993255615234,"94":0.5412719249725342,"95":0.19320447742938995,"96":-0.13681413233280182,"97":-0.4478457272052765,"98":0.058676015585660934,"99":-0.5113658905029297,"100":-0.2793009281158447,"101":-0.02090052142739296,"102":0.3489450216293335,"103":-0.04872811958193779,"104":0.5403263568878174,"105":-0.554064154624939,"106":-0.5194473266601562,"107":0.40913599729537964,"108":0.44266772270202637,"109":-0.1544095128774643,"110":-0.03484223410487175,"111":-0.2230924814939499,"112":-0.3462042510509491,"113":0.12583594024181366,"114":-0.4206361472606659,"115":-0.2155906856060028,"116":-0.525093674659729,"117":0.40421393513679504,"118":0.08385628461837769,"119":-0.3677445948123932,"120":0.5191692113876343,"121":-0.31786423921585083,"122":0.33725714683532715,"123":0.3185713291168213,"124":-0.4880679249763489,"125":-0.12512032687664032,"126":0.41744086146354675,"127":-0.22180505096912384,"128":-0.4036877751350403,"129":0.21519917249679565,"130":-0.3869609534740448,"131":-0.06524019688367844,"132":-0.2811286747455597,"133":-0.07419195026159286,"134":0.4773407578468323,"135":0.45388519763946533,"136":0.15316703915596008,"137":-0.439479261636734,"138":-0.41417789459228516,"139":-0.24961772561073303,"140":0.02880585566163063,"141":-0.200618714094162,"142":0.026319051161408424,"143":0.1806962788105011,"144":0.1736261546611786,"145":-0.03590977564454079,"146":0.04181649535894394,"147":0.05174380913376808,"148":-0.15833283960819244,"149":0.005400338210165501,"150":-0.0008785467362031341,"151":0.227929025888443,"152":0.12915700674057007,"153":0.21378464996814728,"154":0.0639972910284996,"155":0.04458180442452431,"156":-0.01675707846879959,"157":0.08475980907678604,"158":-0.13006030023097992,"159":-0.2748238742351532,"160":-0.04415787383913994,"161":-0.041326411068439484,"162":0.09514691680669785,"163":0.089388407766819,"164":-0.1325606405735016,"165":-0.255431592464447,"166":0.11420164257287979,"167":-0.11064598709344864,"168":-0.12408280372619629,"169":0.10359010100364685,"170":0.18343983590602875,"171":-0.1427929848432541,"172":-0.637263834476471,"173":-0.23097841441631317,"174":0.14687514305114746,"175":-0.26385316252708435,"176":0.5302794575691223,"177":-0.48736876249313354,"178":-0.12172818183898926,"179":0.15006308257579803,"180":-0.46833816170692444,"181":-0.5637208819389343,"182":-0.3324602246284485,"183":-0.0724194124341011,"184":-0.6258988976478577,"185":0.044879842549562454,"186":-0.08391132205724716,"187":0.01617865264415741,"188":-0.10549245774745941,"189":0.3314589858055115,"190":0.12977753579616547,"191":0.07520284503698349,"192":-0.4937368333339691,"193":0.37759116291999817,"194":-0.4609556198120117,"195":-0.08820414543151855,"196":0.39947739243507385,"197":0.2839815318584442,"198":0.5109625458717346,"199":-0.10481899231672287,"200":0.16742531955242157,"201":-0.5213621854782104,"202":-0.5487046241760254,"203":-0.06855414807796478,"204":0.27365782856941223,"205":-0.5953492522239685,"206":0.35068926215171814,"207":0.11161539703607559,"208":0.0663277804851532,"209":-0.43139541149139404,"210":-0.31833624839782715,"211":-0.4890553951263428,"212":-0.22555597126483917,"213":-0.13273939490318298,"214":0.38461315631866455,"215":-0.07113375514745712,"216":-0.33653008937835693,"217":-0.1354842334985733,"218":0.20666581392288208,"219":0.4053262174129486,"220":-0.19538865983486176,"221":0.4598667323589325,"222":0.3021501302719116,"223":-0.16711395978927612,"224":0.23770761489868164,"225":-0.3186505436897278,"226":0.24397188425064087,"227":-0.2161206305027008,"228":0.5027969479560852,"229":0.46846529841423035,"230":-0.15130650997161865,"231":0.30379581451416016,"232":-0.1748473346233368,"233":-0.1983381062746048,"234":-0.4340743124485016,"235":-0.06279046833515167,"236":0.5518184304237366,"237":-0.28182652592658997,"238":-0.23071783781051636,"239":0.5218726396560669,"240":0.22019656002521515,"241":0.3105809688568115,"242":-0.295692503452301,"243":-0.616865873336792,"244":-0.46856051683425903,"245":0.3332199454307556,"246":-0.0981929674744606,"247":-0.39404138922691345,"248":0.13536325097084045,"249":0.11210595816373825,"250":0.26345786452293396,"251":-0.503603458404541,"252":-0.19048407673835754,"253":0.3717956244945526,"254":-0.6071068644523621,"255":0.09693519026041031,"256":0.3867374658584595,"257":-0.17728658020496368,"258":0.5124117136001587,"259":-0.45791763067245483,"260":0.14844980835914612,"261":0.5097732543945312,"262":-0.1623571813106537,"263":0.27945375442504883,"264":-0.1600397825241089,"265":-0.27930885553359985,"266":0.3459641635417938,"267":-0.300479531288147,"268":0.10766003280878067,"269":-0.5680854916572571,"270":0.22546809911727905,"271":-0.18005616962909698,"272":0.5203983187675476,"273":-0.5885214805603027,"274":0.00765219796448946,"275":0.38963156938552856,"276":0.309963196516037,"277":0.2287544310092926,"278":-0.2605965733528137,"279":-0.35075920820236206,"280":-0.18958395719528198,"281":0.24150791764259338,"282":0.24128854274749756,"283":-0.4255942702293396,"284":0.21982374787330627,"285":-0.1135399118065834,"286":-0.4193403422832489,"287":0.3602049946784973,"288":-0.4502328634262085,"289":-0.2113293707370758,"290":-0.30037498474121094,"291":-0.16195547580718994,"292":-0.1315746158361435,"293":-0.28015223145484924,"294":0.2908851206302643,"295":-0.49454694986343384,"296":-0.10887568444013596,"297":0.5160041451454163,"298":-0.3074935972690582,"299":-0.2181205451488495,"300":-0.31814172863960266,"301":-0.40125152468681335,"302":-0.36661574244499207,"303":-0.12729604542255402,"304":0.138504296541214,"305":-0.1511768251657486,"306":-0.035151995718479156,"307":-0.5190707445144653,"308":0.5064436197280884,"309":0.40365707874298096,"310":-0.4848734736442566,"311":-0.5347518920898438,"312":-0.19045287370681763,"313":-0.08315981179475784,"314":0.5686560273170471,"315":-0.553890585899353,"316":0.2679245173931122,"317":0.5868629217147827,"318":0.4496058523654938,"319":0.3658463954925537,"320":-0.14299243688583374,"321":0.22115497291088104,"322":0.24553126096725464,"323":-0.28312617540359497,"324":-0.45886948704719543,"325":0.20048514008522034,"326":0.36961275339126587,"327":-0.1781921237707138,"328":-0.1456536203622818,"329":-0.4676869511604309,"330":-0.3388943076133728,"331":-0.4159870743751526,"332":0.3952457010746002,"333":-0.4800361096858978,"334":-0.114389568567276,"335":-0.3613559901714325,"336":0.44058555364608765,"337":0.08888313174247742,"338":0.19795484840869904,"339":-0.3410516679286957,"340":0.35792726278305054,"341":0.4744660258293152,"342":-0.17942890524864197,"343":-0.3188094198703766,"344":0.2309899926185608,"345":-0.1682364046573639,"346":-0.30128180980682373,"347":0.441508412361145,"348":-0.20207227766513824,"349":-0.45686373114585876,"350":0.2829144299030304,"351":-0.0008121433784253895,"352":-0.4569169580936432,"353":0.041232023388147354,"354":-0.35243597626686096,"355":-0.5854897499084473,"356":-0.30234742164611816,"357":0.04397931322455406,"358":0.4266992509365082,"359":-0.5337408781051636,"360":0.15220195055007935,"361":0.20863458514213562,"362":0.10426007956266403,"363":-0.31103309988975525,"364":0.4057207703590393,"365":0.6064745187759399,"366":0.09100735932588577,"367":-0.3739219903945923,"368":0.2407170534133911,"369":0.2691127359867096,"370":0.4068867266178131,"371":-0.1359996646642685,"372":0.5997908115386963,"373":0.39591169357299805,"374":-0.2672986388206482,"375":0.5407179594039917,"376":-0.4312666058540344,"377":-0.18197137117385864,"378":0.1356496661901474,"379":-0.05142274126410484,"380":-0.5398681163787842,"381":0.00020990183111280203,"382":0.3862183690071106,"383":-0.4852004051208496,"384":-0.5256061553955078,"385":-0.19411404430866241,"386":-0.19517838954925537,"387":-0.49982213973999023,"388":0.44822800159454346,"389":0.46991854906082153,"390":-0.40171945095062256,"391":-0.31949153542518616,"392":-0.43275508284568787,"393":0.15277989208698273,"394":0.5038979649543762,"395":-0.16752569377422333,"396":-0.294058620929718,"397":-0.36023253202438354,"398":-0.5137994289398193,"399":-0.4090671241283417,"400":0.13979551196098328,"401":-0.524177610874176,"402":-0.24624119699001312,"403":-0.5476341843605042,"404":0.5400213003158569,"405":-0.10311311483383179,"406":-0.18887442350387573,"407":-0.43625524640083313,"408":0.02092120051383972,"409":0.48741865158081055,"410":-0.2840864062309265,"411":-0.11514762043952942,"412":-0.23324161767959595,"413":0.17564328014850616,"414":0.06341268122196198,"415":0.5523990988731384,"416":-0.46247246861457825,"417":0.18102675676345825,"418":0.40610942244529724,"419":-0.19079512357711792,"420":0.3597038984298706,"421":0.20954683423042297,"422":-0.24691708385944366,"423":-0.26788994669914246,"424":0.33698877692222595,"425":0.31272053718566895,"426":-0.5326030254364014,"427":-0.22962363064289093,"428":0.22559939324855804,"429":-0.45005080103874207,"430":0.44928616285324097,"431":0.4160931706428528,"432":-0.429236501455307,"433":-0.3628256618976593,"434":0.48840099573135376,"435":-0.16935895383358002,"436":-0.22103692591190338,"437":0.12362218648195267,"438":-0.09371483325958252,"439":-0.37711605429649353,"440":-0.24666409194469452,"441":-0.5366089940071106,"442":0.341338187456131,"443":-0.1219724714756012,"444":0.3348240554332733,"445":0.3739083707332611,"446":-0.2762758731842041,"447":-0.33102497458457947,"448":0.23514853417873383,"449":0.30618423223495483,"450":-0.3828481137752533,"451":0.3013606071472168,"452":0.374385267496109,"453":0.3219122290611267,"454":-0.4984211027622223,"455":-0.23402011394500732,"456":0.29920071363449097,"457":-0.30872485041618347,"458":-0.4600653350353241,"459":0.3029314875602722,"460":0.19712264835834503,"461":-0.30096107721328735,"462":0.4265804588794708,"463":-0.30087810754776,"464":0.3223382234573364,"465":-0.2993687391281128,"466":0.31323325634002686,"467":-0.40848562121391296,"468":-0.2903037667274475,"469":-0.2872210443019867,"470":0.20841340720653534,"471":-0.3669339120388031,"472":0.3513026833534241,"473":0.3256450891494751,"474":-0.38786089420318604,"475":-0.24264425039291382,"476":0.5465015769004822,"477":0.4117777943611145,"478":0.10108134895563126,"479":-0.5378734469413757,"480":0.03647293522953987,"481":0.20441019535064697,"482":0.40094220638275146,"483":-0.24058698117733002,"484":0.2530527114868164,"485":-0.19531220197677612,"486":0.3474680185317993,"487":0.38428574800491333,"488":-0.19076105952262878,"489":-0.480942964553833,"490":0.2819187641143799,"491":-0.4669250249862671,"492":-0.4536469578742981,"493":0.31885018944740295,"494":0.17959032952785492,"495":-0.21319936215877533,"496":-0.3750763237476349,"497":-0.41728296875953674,"498":0.09388101100921631,"499":-0.15403608977794647,"500":0.20801471173763275,"501":0.1543525755405426,"502":-0.12766116857528687,"503":-0.5310739278793335,"504":0.4312269389629364,"505":-0.3068132996559143,"506":0.46769317984580994,"507":0.40931934118270874,"508":0.21296364068984985,"509":0.23092660307884216,"510":-0.378642737865448,"511":-0.33967655897140503,"512":0.28455880284309387,"513":-0.5742466449737549,"514":0.4459173381328583,"515":0.3773578703403473,"516":-0.08343761414289474,"517":-0.4999825656414032,"518":0.19933712482452393,"519":-0.4148259460926056,"520":-0.14318598806858063,"521":-0.04216837137937546,"522":0.1665554940700531,"523":-0.06806819140911102,"524":-0.5045084357261658,"525":-0.2853070795536041,"526":0.334941565990448,"527":-0.2992672324180603,"528":-0.3635483980178833,"529":0.48108717799186707,"530":-0.15003784000873566,"531":-0.44296473264694214,"532":-0.1513555347919464,"533":0.4487949311733246,"534":-0.4278414845466614,"535":-0.47135207056999207,"536":-0.4227104187011719,"537":0.18849168717861176,"538":0.23700575530529022,"539":-0.42830848693847656,"540":0.335340291261673,"541":-0.24479907751083374,"542":0.36641746759414673,"543":0.033124081790447235,"544":-0.4904751777648926,"545":-0.42358332872390747,"546":0.1505899280309677,"547":-0.35343772172927856,"548":-0.38010403513908386,"549":0.242730051279068,"550":0.5220973491668701,"551":-0.09753573685884476,"552":-0.3411041796207428,"553":-0.35008537769317627,"554":-0.0813794657588005,"555":-0.40510672330856323,"556":0.38900092244148254,"557":0.4853942394256592,"558":-0.15962356328964233,"559":-0.137296661734581}},"transition":{"rows":20,"columns":20,"weights":{"0":-0.20449145138263702,"1":-0.12481388449668884,"2":-0.22481410205364227,"3":-0.3457854092121124,"4":0.19921833276748657,"5":-0.027200395241379738,"6":-0.13168086111545563,"7":-0.2995983064174652,"8":-0.3689602315425873,"9":-0.29086101055145264,"10":-0.3238638937473297,"11":-0.3751855492591858,"12":-0.31921157240867615,"13":-0.2682425081729889,"14":0.22758400440216064,"15":-0.32041648030281067,"16":-0.3209044337272644,"17":0.20770889520645142,"18":0.23099082708358765,"19":-0.20076176524162292,"20":0.1060081422328949,"21":-0.06403844803571701,"22":0.18022458255290985,"23":0.19577403366565704,"24":0.3238376975059509,"25":-0.056095536798238754,"26":0.25085312128067017,"27":0.14631782472133636,"28":-0.007053819485008717,"29":0.04900554195046425,"30":0.15342728793621063,"31":0.20879168808460236,"32":0.2666064202785492,"33":0.059976328164339066,"34":0.24582833051681519,"35":0.3663419485092163,"36":0.21935497224330902,"37":0.17709264159202576,"38":0.2454039454460144,"39":0.22209367156028748,"40":0.36666563153266907,"41":-0.2276107668876648,"42":0.291890949010849,"43":0.34325483441352844,"44":0.30145594477653503,"45":0.06359292566776276,"46":0.35325291752815247,"47":0.3830205500125885,"48":0.45167645812034607,"49":0.3544548451900482,"50":-0.3321598768234253,"51":0.3715742826461792,"52":0.45173338055610657,"53":0.4361289441585541,"54":-0.2865406274795532,"55":0.3179691731929779,"56":0.3897310793399811,"57":0.3663142919540405,"58":0.32028090953826904,"59":0.4133685827255249,"60":0.2699536383152008,"61":-0.22765639424324036,"62":0.2996264398097992,"63":0.41204366087913513,"64":0.3204360008239746,"65":0.06843069195747375,"66":0.37992075085639954,"67":-0.26084017753601074,"68":0.31686487793922424,"69":0.3309895098209381,"70":-0.1760573387145996,"71":0.3351798951625824,"72":0.36534425616264343,"73":0.3565523326396942,"74":-0.3314345180988312,"75":0.33470770716667175,"76":0.3903043270111084,"77":0.38116455078125,"78":0.41581398248672485,"79":0.3025994300842285,"80":0.32055026292800903,"81":-0.2570206820964813,"82":0.3707488477230072,"83":0.32748058438301086,"84":0.3783874213695526,"85":-0.027605673298239708,"86":0.3801907002925873,"87":0.30614572763442993,"88":0.06699221581220627,"89":0.3362366557121277,"90":-0.36740583181381226,"91":0.31647175550460815,"92":0.31616857647895813,"93":0.3793540298938751,"94":0.27891483902931213,"95":0.25434860587120056,"96":0.3382062315940857,"97":0.38206642866134644,"98":0.3777726888656616,"99":0.3716021776199341,"100":0.04124253988265991,"101":-0.05990946292877197,"102":0.03301464393734932,"103":-0.004926158580929041,"104":-0.007137537933886051,"105":-0.014768844470381737,"106":-0.0746455043554306,"107":0.04111348092556,"108":0.007149688433855772,"109":0.008298262022435665,"110":0.05353866517543793,"111":-0.046260807663202286,"112":0.07234339416027069,"113":-0.027288643643260002,"114":0.014663198962807655,"115":-0.08455746620893478,"116":-0.03768708184361458,"117":-0.010889418423175812,"118":-0.06071177124977112,"119":-0.08849947899580002,"120":0.2689766585826874,"121":-0.09645963460206985,"122":0.237566739320755,"123":-0.193344846367836,"124":0.3253369927406311,"125":0.07038349658250809,"126":0.375467449426651,"127":-0.2088662087917328,"128":-0.26303377747535706,"129":-0.22697418928146362,"130":-0.16161762177944183,"131":0.2947997748851776,"132":0.3185262680053711,"133":0.32716983556747437,"134":-0.30780771374702454,"135":0.3398382067680359,"136":-0.278804749250412,"137":0.3297625184059143,"138":0.2776303291320801,"139":0.3108770549297333,"140":0.32616126537323,"141":0.2012718915939331,"142":0.2944738268852234,"143":-0.3953630030155182,"144":0.26697486639022827,"145":-0.016773486509919167,"146":0.234155535697937,"147":0.1663455069065094,"148":-0.2827681303024292,"149":-0.3953897953033447,"150":0.2728964686393738,"151":-0.30074650049209595,"152":0.37678906321525574,"153":0.24816805124282837,"154":0.268598735332489,"155":0.3341178596019745,"156":0.28253382444381714,"157":0.18976105749607086,"158":0.21305249631404877,"159":0.24719947576522827,"160":0.38848185539245605,"161":-0.29833266139030457,"162":0.3892228305339813,"163":0.2617909610271454,"164":0.2651405334472656,"165":0.004349250812083483,"166":0.40206193923950195,"167":-0.2349444031715393,"168":0.24344871938228607,"169":0.4267142713069916,"170":-0.38141676783561707,"171":0.3458087742328644,"172":0.2494063675403595,"173":0.4578818082809448,"174":-0.2654512822628021,"175":0.2573101222515106,"176":0.22521741688251495,"177":0.39909541606903076,"178":0.3280867040157318,"179":0.30922678112983704,"180":0.3760389983654022,"181":-0.24186596274375916,"182":-0.3288450837135315,"183":-0.23228788375854492,"184":0.052621517330408096,"185":0.03071470558643341,"186":0.39203253388404846,"187":-0.1942039430141449,"188":0.31790661811828613,"189":-0.3288712501525879,"190":-0.33128276467323303,"191":-0.3176139295101166,"192":0.2407797873020172,"193":0.27307796478271484,"194":-0.2807932496070862,"195":0.3016710877418518,"196":0.38992759585380554,"197":-0.046917594969272614,"198":0.3804374039173126,"199":-0.3335736393928528,"200":0.17376208305358887,"201":-0.06156197190284729,"202":0.052242789417505264,"203":-0.2369604855775833,"204":0.32119205594062805,"205":-0.07024075090885162,"206":-0.2867049276828766,"207":-0.26472166180610657,"208":0.2273097038269043,"209":-0.3245497941970825,"210":-0.2935974597930908,"211":0.261669784784317,"212":0.26493653655052185,"213":0.3064669072628021,"214":-0.31719455122947693,"215":-0.21795587241649628,"216":0.2047749161720276,"217":0.2332383543252945,"218":0.2915272116661072,"219":0.36971113085746765,"220":0.27177074551582336,"221":-0.3312535583972931,"222":0.37504518032073975,"223":0.34204378724098206,"224":0.4062345623970032,"225":0.060641106218099594,"226":0.3330809473991394,"227":0.3206653892993927,"228":0.3675273656845093,"229":0.40831559896469116,"230":-0.3187267780303955,"231":0.3247946500778198,"232":0.3348674774169922,"233":0.38026344776153564,"234":-0.2761130928993225,"235":0.3301098644733429,"236":0.31903284788131714,"237":0.30759093165397644,"238":0.3753053843975067,"239":0.3650735914707184,"240":0.27340054512023926,"241":-0.2586933672428131,"242":0.35218319296836853,"243":0.4116978347301483,"244":0.3550589978694916,"245":0.0962437242269516,"246":0.27343612909317017,"247":0.31487277150154114,"248":0.32897448539733887,"249":0.3780180811882019,"250":-0.29274222254753113,"251":0.36162927746772766,"252":0.26446205377578735,"253":0.28304341435432434,"254":-0.27733704447746277,"255":0.2726818919181824,"256":0.35010048747062683,"257":0.3367915153503418,"258":0.26661938428878784,"259":0.27797120809555054,"260":0.2225809097290039,"261":-0.10956944525241852,"262":0.3906679153442383,"263":0.2681259214878082,"264":0.344417929649353,"265":-0.05089842155575752,"266":0.27047985792160034,"267":0.3259333074092865,"268":0.21319137513637543,"269":0.3257499933242798,"270":-0.33028116822242737,"271":0.32063403725624084,"272":0.31400787830352783,"273":0.30195900797843933,"274":0.06178697571158409,"275":0.32489192485809326,"276":0.2944525182247162,"277":0.23025566339492798,"278":0.31273168325424194,"279":0.3528565764427185,"280":0.3179805874824524,"281":-0.2672748863697052,"282":0.24401968717575073,"283":-0.3728239834308624,"284":0.3245360851287842,"285":-0.016651486977934837,"286":0.33882176876068115,"287":0.14655029773712158,"288":-0.3585793972015381,"289":-0.3211137652397156,"290":-0.26617106795310974,"291":-0.28475937247276306,"292":0.21752098202705383,"293":-0.23577924072742462,"294":-0.26694366335868835,"295":0.29697704315185547,"296":0.27265268564224243,"297":0.33200645446777344,"298":0.2445308268070221,"299":0.225600004196167,"300":0.3707675337791443,"301":-0.19564510881900787,"302":0.31152352690696716,"303":0.2640329599380493,"304":0.287548303604126,"305":-0.060617104172706604,"306":0.33744508028030396,"307":0.28317365050315857,"308":0.06407896429300308,"309":0.3042454123497009,"310":0.19316230714321136,"311":0.336477130651474,"312":0.379830539226532,"313":0.31807735562324524,"314":-0.19761493802070618,"315":0.27047857642173767,"316":0.3688074052333832,"317":0.36855071783065796,"318":0.3391963839530945,"319":0.21868006885051727,"320":0.29871851205825806,"321":-0.2757705748081207,"322":0.23388156294822693,"323":0.3395296037197113,"324":0.3203769624233246,"325":-0.0031464186031371355,"326":0.26176121830940247,"327":0.2369852513074875,"328":-0.10551520437002182,"329":0.22997096180915833,"330":0.2773407995700836,"331":0.3239808678627014,"332":0.25874945521354675,"333":0.2553795278072357,"334":-0.19584223628044128,"335":0.37246042490005493,"336":0.3713858127593994,"337":0.3024822473526001,"338":0.3583189845085144,"339":0.26418161392211914,"340":0.32470086216926575,"341":-0.33840692043304443,"342":0.27953100204467773,"343":0.2534419000148773,"344":0.32770657539367676,"345":0.06253091990947723,"346":0.2150270938873291,"347":0.38261762261390686,"348":0.15748707950115204,"349":0.3829573094844818,"350":-0.20172393321990967,"351":0.32441776990890503,"352":0.38388994336128235,"353":0.34000661969184875,"354":0.30488863587379456,"355":0.34256842732429504,"356":0.27770277857780457,"357":0.38413819670677185,"358":0.30487415194511414,"359":0.23156949877738953,"360":0.2734917998313904,"361":0.15966883301734924,"362":0.39068102836608887,"363":0.3010501563549042,"364":0.3800869882106781,"365":0.08022993057966232,"366":0.2987266778945923,"367":0.3841264843940735,"368":-0.013399980030953884,"369":0.275204062461853,"370":0.2818194627761841,"371":0.325271338224411,"372":0.2920593023300171,"373":0.23003564774990082,"374":0.27417370676994324,"375":0.35232579708099365,"376":0.23723866045475006,"377":0.40901046991348267,"378":0.3689830005168915,"379":0.3815799951553345,"380":0.29937881231307983,"381":-0.26629820466041565,"382":0.29223698377609253,"383":0.3650990426540375,"384":0.34788843989372253,"385":0.011752443388104439,"386":0.317077100276947,"387":0.23852434754371643,"388":0.31163689494132996,"389":0.26915839314460754,"390":-0.21809729933738708,"391":0.27440083026885986,"392":0.3024481534957886,"393":0.18734131753444672,"394":0.20966802537441254,"395":0.2838415801525116,"396":0.27411434054374695,"397":0.2502838373184204,"398":0.38198956847190857,"399":0.37064069509506226}},"bias":{"rows":20,"columns":1,"weights":{"0":0,"1":-0.303791344165802,"2":-0.24231034517288208,"3":0,"4":-0.30378007888793945,"5":-0.2737971246242523,"6":-0.30365124344825745,"7":-0.18687120079994202,"8":-0.2028447687625885,"9":-0.11139442026615143,"10":0,"11":-0.10404819250106812,"12":0,"13":-0.30397236347198486,"14":-0.230178564786911,"15":0,"16":-0.27092552185058594,"17":-0.026375889778137207,"18":-0.06393245607614517,"19":-0.07178425043821335}}},{"weight":{"rows":20,"columns":20,"weights":{"0":-0.21687395870685577,"1":0.30808767676353455,"2":0.28235313296318054,"3":0.620834231376648,"4":0.4942738711833954,"5":0.13208182156085968,"6":-0.2712997496128082,"7":0.3228546679019928,"8":-0.12466955929994583,"9":0.16761696338653564,"10":0.27636703848838806,"11":0.5554347038269043,"12":-0.08639552444219589,"13":0.3739064335823059,"14":0.3046509027481079,"15":-0.21008722484111786,"16":0.28613394498825073,"17":0.2397957742214203,"18":0.27231931686401367,"19":0.5077018737792969,"20":-0.043105266988277435,"21":0.01289356593042612,"22":0.05865763500332832,"23":-0.11218739300966263,"24":0.017175894230604172,"25":-0.1077856495976448,"26":-0.006959374528378248,"27":-0.1456105262041092,"28":-0.21894405782222748,"29":-0.025447668507695198,"30":-0.15732508897781372,"31":0.024054663255810738,"32":-0.06349910795688629,"33":0.13548938930034637,"34":0.21081122756004333,"35":-0.07794568687677383,"36":-0.1050996407866478,"37":-0.1101335883140564,"38":-0.1734791398048401,"39":-0.1885451376438141,"40":-0.2661281228065491,"41":-0.07569847255945206,"42":-0.3358369767665863,"43":-0.3780864179134369,"44":-0.3279930651187897,"45":-0.019748881459236145,"46":-0.36763763427734375,"47":-0.01519433781504631,"48":-0.05061371624469757,"49":-0.2661486864089966,"50":0.09608673304319382,"51":-0.3055472671985626,"52":-0.30008918046951294,"53":-0.05195818096399307,"54":0.03891545161604881,"55":-0.013873661868274212,"56":0.14649198949337006,"57":-0.3751138150691986,"58":-0.355764240026474,"59":-0.2518199682235718,"60":-0.06699077785015106,"61":0.0366160124540329,"62":0.008235719054937363,"63":-0.06682997941970825,"64":0.053719375282526016,"65":-0.07448342442512512,"66":0.009617714211344719,"67":-0.040817730128765106,"68":-0.04346996545791626,"69":-0.08680308610200882,"70":0.02392725646495819,"71":0.011588740162551403,"72":-0.028478793799877167,"73":-0.07659601420164108,"74":-0.08293668180704117,"75":-0.01831524632871151,"76":-0.052377864718437195,"77":-0.03598443791270256,"78":-0.05311474949121475,"79":-0.07748334109783173,"80":-0.14008668065071106,"81":-0.23650553822517395,"82":-0.17423072457313538,"83":-0.26295262575149536,"84":-0.0916915014386177,"85":-0.13008660078048706,"86":-0.11898118257522583,"87":-0.1408151090145111,"88":-0.1682186722755432,"89":-0.23530712723731995,"90":0.029555100947618484,"91":-0.0763448104262352,"92":-0.12452780455350876,"93":-0.08169124275445938,"94":-0.1763211339712143,"95":-0.14992544054985046,"96":-0.08412253856658936,"97":-0.06685352325439453,"98":-0.04423738270998001,"99":-0.20692241191864014,"100":-0.22483189404010773,"101":-0.041533634066581726,"102":0.3125811815261841,"103":0.5654277205467224,"104":0.2739918529987335,"105":0.18640649318695068,"106":-0.13048860430717468,"107":-0.45229682326316833,"108":-0.2774882912635803,"109":0.5622473955154419,"110":0.2699168622493744,"111":0.4656733572483063,"112":-0.2672305107116699,"113":0.25634703040122986,"114":-0.30868807435035706,"115":0.2653619647026062,"116":0.1522866189479828,"117":0.29392585158348083,"118":0.1556391417980194,"119":0.615632951259613,"120":-0.10642273724079132,"121":-0.21545542776584625,"122":-0.31626957654953003,"123":-0.22905173897743225,"124":-0.07517549395561218,"125":-0.1745520532131195,"126":0.0611780509352684,"127":-0.18659496307373047,"128":-0.2667367160320282,"129":-0.15099845826625824,"130":0.10352787375450134,"131":-0.24124324321746826,"132":-0.04350034520030022,"133":-0.140643909573555,"134":-0.19642791152000427,"135":-0.05628858134150505,"136":0.01995112933218479,"137":-0.15926167368888855,"138":-0.052518896758556366,"139":-0.2509629726409912,"140":-0.005341666284948587,"141":0.5087259411811829,"142":0.6284881234169006,"143":0.5586254596710205,"144":0.554679274559021,"145":0.206697478890419,"146":0.636019766330719,"147":0.6031291484832764,"148":0.524491548538208,"149":0.629938006401062,"150":0.5411515235900879,"151":0.4394092857837677,"152":0.4274753928184509,"153":0.6116559505462646,"154":0.47399410605430603,"155":0.4232783913612366,"156":0.3324122130870819,"157":0.5617866516113281,"158":0.32290005683898926,"159":0.6534757018089294,"160":0.14509786665439606,"161":-0.30726081132888794,"162":0.5119905471801758,"163":0.4317161738872528,"164":0.29553937911987305,"165":0.05550166219472885,"166":0.30618128180503845,"167":-0.06376975774765015,"168":0.5834968090057373,"169":0.4045391380786896,"170":0.13011863827705383,"171":0.4039217531681061,"172":0.4897920489311218,"173":0.4749217629432678,"174":-0.3621427118778229,"175":0.3319389522075653,"176":0.4241144061088562,"177":0.3990565538406372,"178":0.278161883354187,"179":0.22717373073101044,"180":-0.23800531029701233,"181":0.3794378340244293,"182":0.5371503829956055,"183":0.3537912368774414,"184":0.3265666663646698,"185":0.12775056064128876,"186":-0.20443765819072723,"187":0.3085196018218994,"188":0.34212833642959595,"189":0.5900623202323914,"190":0.16433776915073395,"191":0.5065009593963623,"192":0.4780254364013672,"193":0.5987090468406677,"194":0.28970763087272644,"195":0.2022971361875534,"196":0.27763327956199646,"197":0.24795329570770264,"198":0.22421805560588837,"199":0.5074661374092102,"200":0.1100383996963501,"201":0.014825575053691864,"202":0.011645122431218624,"203":-0.0621827132999897,"204":-0.07775513082742691,"205":-0.02128930203616619,"206":-0.014694576151669025,"207":-0.17670603096485138,"208":0.17331235110759735,"209":0.05669933557510376,"210":-0.003846976440399885,"211":0.009845545515418053,"212":0.008148466236889362,"213":0.2144116312265396,"214":-0.03217175230383873,"215":-0.008619138970971107,"216":-0.11096865683794022,"217":0.03318256512284279,"218":-0.1434822529554367,"219":-0.1418113112449646,"220":-0.0346636101603508,"221":-0.13449226319789886,"222":0.019330736249685287,"223":-0.29450759291648865,"224":-0.18802501261234283,"225":0.005547935608774424,"226":-0.11538112908601761,"227":-0.13971129059791565,"228":-0.2436056137084961,"229":0.019843637943267822,"230":-0.2074567675590515,"231":-0.23348593711853027,"232":-0.24324582517147064,"233":-0.11908715218305588,"234":-0.21695108711719513,"235":-0.038544874638319016,"236":-0.025303903967142105,"237":-0.11861764639616013,"238":0.08046190440654755,"239":0.08815699815750122,"240":0.4588901698589325,"241":0.27748093008995056,"242":0.325475811958313,"243":0.07758866995573044,"244":0.36292028427124023,"245":-0.1775810569524765,"246":0.09554943442344666,"247":0.08210550993680954,"248":-0.13605786859989166,"249":-0.39883843064308167,"250":0.274787038564682,"251":0.10272596776485443,"252":-0.0008221887401305139,"253":0.3432030975818634,"254":0.15785761177539825,"255":0.2226613163948059,"256":0.10384935140609741,"257":0.2884136140346527,"258":0.2684631943702698,"259":0.04242223501205444,"260":-0.026659756898880005,"261":0.28535541892051697,"262":0.23913227021694183,"263":0.2725760340690613,"264":0.4156382977962494,"265":-0.07035384327173233,"266":0.17534294724464417,"267":0.24744738638401031,"268":-0.30920296907424927,"269":-0.32192012667655945,"270":0.28804391622543335,"271":-0.31308063864707947,"272":-0.3050498366355896,"273":-0.14163294434547424,"274":0.5053361654281616,"275":0.2918742895126343,"276":-0.2987613379955292,"277":0.5320873260498047,"278":0.3762839436531067,"279":0.365894615650177,"280":-0.0375182144343853,"281":-0.1154056042432785,"282":0.11211016029119492,"283":-0.1406308263540268,"284":0.00646395655348897,"285":0.2714780271053314,"286":-0.11749029904603958,"287":-0.052059926092624664,"288":0.12645705044269562,"289":-0.2721729874610901,"290":-0.12464381009340286,"291":-0.03728006035089493,"292":-0.014061816036701202,"293":0.19982296228408813,"294":-0.03500888869166374,"295":-0.05882411077618599,"296":0.009534011594951153,"297":-0.15028530359268188,"298":-0.16985984146595,"299":-0.06526065617799759,"300":-0.19108320772647858,"301":0.4772411286830902,"302":0.523891270160675,"303":0.526593804359436,"304":0.6047429442405701,"305":0.06729193776845932,"306":0.028332719579339027,"307":0.5003337264060974,"308":0.6098054647445679,"309":0.626582145690918,"310":0.6205594539642334,"311":0.4724925756454468,"312":-0.024437377229332924,"313":0.5278850793838501,"314":0.48812294006347656,"315":0.4457103908061981,"316":0.5234973430633545,"317":0.5375760197639465,"318":0.5303880572319031,"319":0.4337473511695862,"320":0.16431736946105957,"321":0.32975339889526367,"322":0.4589051604270935,"323":0.12261967360973358,"324":0.23069307208061218,"325":0.2071140706539154,"326":0.041471295058727264,"327":-0.048441652208566666,"328":0.2974419891834259,"329":0.11458327621221542,"330":0.1759682297706604,"331":0.3991867005825043,"332":0.28620508313179016,"333":0.5076988339424133,"334":0.4006151556968689,"335":0.34529879689216614,"336":0.3966395854949951,"337":0.5470485091209412,"338":0.45961326360702515,"339":0.32302552461624146,"340":0.13045789301395416,"341":0.15052948892116547,"342":0.2446363866329193,"343":0.3090572953224182,"344":0.23371325433254242,"345":0.07506977766752243,"346":-0.2784424126148224,"347":-0.275359183549881,"348":0.37934932112693787,"349":0.25555846095085144,"350":0.22210989892482758,"351":0.27129775285720825,"352":0.35630083084106445,"353":0.3286038339138031,"354":-0.11198292672634125,"355":0.34630879759788513,"356":0.3376869857311249,"357":0.2585495412349701,"358":0.23696206510066986,"359":0.16735611855983734,"360":0.5458640456199646,"361":0.48616349697113037,"362":0.19511008262634277,"363":0.46316471695899963,"364":0.31830650568008423,"365":-0.1341134011745453,"366":-0.07529786974191666,"367":0.08143942803144455,"368":0.34471458196640015,"369":0.2555560767650604,"370":0.5167762041091919,"371":0.3636285662651062,"372":0.4224220812320709,"373":0.14180044829845428,"374":0.29388657212257385,"375":0.19422374665737152,"376":-0.09688486903905869,"377":0.26584914326667786,"378":0.28196051716804504,"379":0.27991703152656555,"380":-0.07430870085954666,"381":-0.2570991814136505,"382":-0.27905043959617615,"383":-0.321847140789032,"384":-0.20306450128555298,"385":-0.22779741883277893,"386":-0.24168775975704193,"387":-0.21641692519187927,"388":-0.2207728773355484,"389":-0.19023680686950684,"390":-0.14299410581588745,"391":-0.3281077742576599,"392":-0.2555276155471802,"393":-0.32108744978904724,"394":-0.17031118273735046,"395":-0.22392109036445618,"396":-0.11219600588083267,"397":-0.31497448682785034,"398":0.007318997755646706,"399":-0.22649691998958588}},"transition":{"rows":20,"columns":20,"weights":{"0":0.2977948486804962,"1":-0.04247613996267319,"2":-0.09914892166852951,"3":0.020365560427308083,"4":0.05111194774508476,"5":0.277773380279541,"6":-0.011177032254636288,"7":0.4251346290111542,"8":0.32424092292785645,"9":0.36762306094169617,"10":0.02805529721081257,"11":-0.017758332192897797,"12":0.32871440052986145,"13":0.35241562128067017,"14":0.11267851293087006,"15":0.30680301785469055,"16":0.3044334352016449,"17":0.3210158050060272,"18":0.2514549493789673,"19":0.035366542637348175,"20":0.034115687012672424,"21":0.0029444817919284105,"22":-0.04829562455415726,"23":-0.05327282473444939,"24":-0.11270217597484589,"25":-0.03092704340815544,"26":0.08175249397754669,"27":-0.01817546971142292,"28":-0.08733591437339783,"29":0.06435169279575348,"30":-0.024020003154873848,"31":0.05213396996259689,"32":0.07753943651914597,"33":0.0035878438502550125,"34":-0.11315993964672089,"35":0.08177781850099564,"36":-0.07717366516590118,"37":-0.0025531454011797905,"38":-0.014628245495259762,"39":-0.08441641181707382,"40":-0.28220832347869873,"41":-0.030538268387317657,"42":0.0005900175892747939,"43":0.014549248851835728,"44":-0.0476982481777668,"45":-0.25230643153190613,"46":0.021023591980338097,"47":-0.272839218378067,"48":-0.2741718292236328,"49":-0.33668702840805054,"50":0.011120547540485859,"51":0.0045407661236822605,"52":-0.021616782993078232,"53":-0.26925861835479736,"54":-0.002783330390229821,"55":-0.2460528314113617,"56":-0.3338354229927063,"57":-0.3346388638019562,"58":-0.09623730927705765,"59":-0.07440023869276047,"60":-0.0031023791525512934,"61":0.017687175422906876,"62":-0.06899049133062363,"63":-0.049766942858695984,"64":-0.029755786061286926,"65":0.045760177075862885,"66":-0.02636098861694336,"67":0.025285471230745316,"68":-0.00515574449673295,"69":-0.004235914908349514,"70":-0.0395660363137722,"71":0.04287368059158325,"72":-0.028561027720570564,"73":0.0027840416878461838,"74":-0.05461360886693001,"75":-0.044274669140577316,"76":0.01562199741601944,"77":-0.008992493152618408,"78":0.003555969102308154,"79":0.04705863445997238,"80":-0.06072957068681717,"81":-0.018245570361614227,"82":0.007155103608965874,"83":-0.029764655977487564,"84":-0.1145050972700119,"85":0.04709022119641304,"86":-0.04089105501770973,"87":-0.06385743618011475,"88":0.0419287383556366,"89":-0.06186986342072487,"90":0.0052617317996919155,"91":-0.08675777912139893,"92":-0.024310050532221794,"93":0.048221323639154434,"94":-0.10019014030694962,"95":-0.08946359902620316,"96":-0.11782826483249664,"97":0.04787489026784897,"98":-0.03368363529443741,"99":0.007482684217393398,"100":0.2552255690097809,"101":-0.049840591847896576,"102":-0.11116790771484375,"103":-0.04507598280906677,"104":0.05953451991081238,"105":0.3007219731807709,"106":0.03516833484172821,"107":0.25605589151382446,"108":0.30799809098243713,"109":0.2608281075954437,"110":-0.011954333633184433,"111":0.081633061170578,"112":0.34667930006980896,"113":0.3871413469314575,"114":-0.03906030207872391,"115":0.3298424780368805,"116":0.302666038274765,"117":0.3142201006412506,"118":0.30575451254844666,"119":0.013515311293303967,"120":0.02858017198741436,"121":-0.01423139963299036,"122":0.053457148373126984,"123":0.02382630668580532,"124":-0.010463826358318329,"125":0.02643108181655407,"126":-0.018019268289208412,"127":-0.07602007687091827,"128":-0.0015533765545114875,"129":0.08220404386520386,"130":-0.07010502368211746,"131":-0.046962760388851166,"132":-0.07069159299135208,"133":0.06435487419366837,"134":-0.1579207479953766,"135":-0.09695403277873993,"136":-0.1287381500005722,"137":0.0157316867262125,"138":0.0004237246175762266,"139":-0.06660053879022598,"140":0.27925416827201843,"141":0.04032621532678604,"142":-0.21507686376571655,"143":-0.016006091609597206,"144":0.15260808169841766,"145":0.41941267251968384,"146":0.038458772003650665,"147":0.5267350077629089,"148":0.30105021595954895,"149":0.3091181516647339,"150":0.04485826566815376,"151":0.1516605019569397,"152":0.3817627429962158,"153":0.2478940486907959,"154":0.1301446557044983,"155":0.4590875506401062,"156":0.5269033312797546,"157":0.3600172996520996,"158":0.24091333150863647,"159":0.12972195446491241,"160":0.3106468915939331,"161":0.01631319336593151,"162":0.0245133638381958,"163":0.010054908692836761,"164":0.10235520452260971,"165":0.36494362354278564,"166":0.04717131331562996,"167":0.36679279804229736,"168":0.30236414074897766,"169":0.27530190348625183,"170":0.023668328300118446,"171":-0.05388011783361435,"172":0.2990782856941223,"173":0.3188479542732239,"174":0.07854210585355759,"175":0.24541330337524414,"176":0.41259855031967163,"177":0.377035915851593,"178":0.22267746925354004,"179":-0.026085704565048218,"180":0.23200194537639618,"181":-0.027605261653661728,"182":-0.016942234709858894,"183":-0.01764696091413498,"184":0.0032058809883892536,"185":0.385017067193985,"186":-0.07318821549415588,"187":0.35201093554496765,"188":0.3154103457927704,"189":0.3035385310649872,"190":-0.03618727624416351,"191":-0.007718267850577831,"192":0.3034699857234955,"193":0.3728317618370056,"194":-0.022249627858400345,"195":0.39079493284225464,"196":0.3286723494529724,"197":0.25442662835121155,"198":0.34673911333084106,"199":0.06982095539569855,"200":-0.028745530173182487,"201":0.060451894998550415,"202":0.057084184139966965,"203":0.02734769694507122,"204":0.040102895349264145,"205":0.04021484777331352,"206":0.029981380328536034,"207":-0.04707888141274452,"208":-0.058041416108608246,"209":0.02571984753012657,"210":0.017107311636209488,"211":-0.044230539351701736,"212":-0.03776702284812927,"213":-0.020786680281162262,"214":-0.08790954202413559,"215":0.023892903700470924,"216":0.018885547295212746,"217":-0.0731542706489563,"218":-0.0029128771275281906,"219":-0.018466683104634285,"220":-0.011958691291511059,"221":0.024580765515565872,"222":-0.07017350196838379,"223":-0.09806615114212036,"224":-0.034470390528440475,"225":0.04165292903780937,"226":0.023304779082536697,"227":-0.03295203298330307,"228":-0.00009602466889191419,"229":0.007527876645326614,"230":0.0652991309762001,"231":0.04233304411172867,"232":-0.055781714618206024,"233":0.06822917610406876,"234":-0.06325968354940414,"235":-0.031516462564468384,"236":-0.19335980713367462,"237":-0.0613333135843277,"238":-0.05688152834773064,"239":0.04180170223116875,"240":0.2094397246837616,"241":0.08027692884206772,"242":-0.11470812559127808,"243":0.0528719425201416,"244":-0.14636261761188507,"245":0.2242051362991333,"246":-0.0458291620016098,"247":0.1352008581161499,"248":0.30046746134757996,"249":0.22163638472557068,"250":0.027752041816711426,"251":-0.1230793446302414,"252":0.26706209778785706,"253":0.27843812108039856,"254":-0.16847027838230133,"255":0.36047226190567017,"256":0.14929255843162537,"257":0.24389374256134033,"258":0.3307454586029053,"259":-0.015051661990582943,"260":0.01192418672144413,"261":0.012561430223286152,"262":0.025534989312291145,"263":-0.07832033187150955,"264":0.07269822061061859,"265":-0.2768275737762451,"266":-0.043000951409339905,"267":0.3518866300582886,"268":0.27941006422042847,"269":-0.31042414903640747,"270":0.06926709413528442,"271":-0.07224671542644501,"272":-0.2208455502986908,"273":0.36725229024887085,"274":0.07914628088474274,"275":0.320298433303833,"276":0.28873270750045776,"277":0.2620011866092682,"278":-0.25543490052223206,"279":0.03614523261785507,"280":0.013900038786232471,"281":0.06340914219617844,"282":-0.05423330143094063,"283":-0.04060795530676842,"284":-0.027340013533830643,"285":0.00539014907553792,"286":-0.01944047026336193,"287":-0.015309745445847511,"288":0.028450218960642815,"289":-0.04529985785484314,"290":-0.06456863880157471,"291":0.007524336688220501,"292":0.059757791459560394,"293":-0.04792517423629761,"294":-0.06373216211795807,"295":0.09237102419137955,"296":-0.00040213181637227535,"297":0.01770029030740261,"298":0.015135476365685463,"299":0.02766990289092064,"300":0.2488425076007843,"301":0.0677376240491867,"302":-0.23638960719108582,"303":-0.009371831081807613,"304":0.07834693044424057,"305":0.4242897629737854,"306":-0.0007472761208191514,"307":0.5194939970970154,"308":0.4174420237541199,"309":0.3178706169128418,"310":0.05707549303770065,"311":0.059711456298828125,"312":0.32554394006729126,"313":0.3683655858039856,"314":0.15513242781162262,"315":0.36308228969573975,"316":0.5034501552581787,"317":0.32561635971069336,"318":0.1326284408569336,"319":0.01176401786506176,"320":0.3379785418510437,"321":-0.060541391372680664,"322":-0.24622467160224915,"323":0.031376082450151443,"324":-0.004991799592971802,"325":0.20886723697185516,"326":0.04131130501627922,"327":0.21966183185577393,"328":0.3048366606235504,"329":0.32471203804016113,"330":-0.077873095870018,"331":-0.0033107763156294823,"332":0.23710349202156067,"333":0.275638222694397,"334":0.009966818615794182,"335":0.25868359208106995,"336":0.3132798373699188,"337":0.3560302257537842,"338":0.3595344126224518,"339":-0.03299183398485184,"340":0.25972822308540344,"341":0.04211360216140747,"342":-0.15954793989658356,"343":0.08354547619819641,"344":0.0734168216586113,"345":0.32706257700920105,"346":-0.049957968294620514,"347":0.24881576001644135,"348":0.303175687789917,"349":0.30196335911750793,"350":0.06385991722345352,"351":-0.08478151261806488,"352":0.3607042729854584,"353":0.31205764412879944,"354":0.032121069729328156,"355":0.2962939739227295,"356":0.27957308292388916,"357":0.3356176018714905,"358":0.23576630651950836,"359":0.07754502445459366,"360":0.3202384412288666,"361":-0.04125962406396866,"362":0.026905447244644165,"363":0.03146957978606224,"364":0.0018640067428350449,"365":0.33602404594421387,"366":0.023812362924218178,"367":0.2470678836107254,"368":0.3050435185432434,"369":0.32293158769607544,"370":0.0492439791560173,"371":0.061773043125867844,"372":0.1988438218832016,"373":0.3222721815109253,"374":-0.0068901777267456055,"375":0.2989791929721832,"376":0.2512306272983551,"377":0.2831410765647888,"378":-0.23133602738380432,"379":0.06584195792675018,"380":-0.00012129470269428566,"381":-0.036896001547575,"382":0.012182832695543766,"383":0.03450256213545799,"384":-0.1333896815776825,"385":-0.08023203164339066,"386":-0.09927103668451309,"387":-0.12212643027305603,"388":-0.039356913417577744,"389":-0.05330682173371315,"390":-0.07380543649196625,"391":0.005507844965904951,"392":0.029295120388269424,"393":-0.011890160851180553,"394":-0.1751941442489624,"395":-0.040570225566625595,"396":-0.11034175008535385,"397":0.015720775350928307,"398":0.02564401738345623,"399":-0.00892319530248642}},"bias":{"rows":20,"columns":1,"weights":{"0":-0.3029906749725342,"1":-0.3018395006656647,"2":0,"3":0,"4":-0.28658542037010193,"5":-0.30394285917282104,"6":-0.3035787343978882,"7":-0.5738955736160278,"8":-0.30362072587013245,"9":-0.30392372608184814,"10":0,"11":0,"12":0.002108043758198619,"13":0.3035745620727539,"14":-0.2822563052177429,"15":-0.3039402961730957,"16":0.018564455211162567,"17":0.046305786818265915,"18":0,"19":-0.30326247215270996}}}],"outputConnector":{"rows":29,"columns":20,"weights":{"0":-0.37398475408554077,"1":0.05168621242046356,"2":-0.10879766941070557,"3":-0.018664781004190445,"4":-0.15239925682544708,"5":0.04706965759396553,"6":-0.09917031228542328,"7":-0.46388962864875793,"8":-0.39463216066360474,"9":-0.37499839067459106,"10":-2.9118316173553467,"11":-0.07445771247148514,"12":-0.3555162847042084,"13":-0.3223048150539398,"14":-0.27061888575553894,"15":-0.4058340787887573,"16":-0.5540022253990173,"17":-0.36870095133781433,"18":-0.2961091697216034,"19":-0.0903865396976471,"20":-0.02987118437886238,"21":-0.1665981560945511,"22":-0.0834285244345665,"23":-0.10177473723888397,"24":-0.09061814099550247,"25":-10.041759490966797,"26":-0.0713101178407669,"27":0.11439871042966843,"28":-11.433366775512695,"29":0.384696900844574,"30":1.1962239742279053,"31":-0.09599963575601578,"32":0.38129889965057373,"33":0.905985414981842,"34":-2.808793306350708,"35":0.28363561630249023,"36":0.4501192271709442,"37":0.3121650218963623,"38":0.9329925775527954,"39":-0.12243682146072388,"40":-0.3037370443344116,"41":-0.07396456599235535,"42":-0.1434716284275055,"43":-0.009570421651005745,"44":0.00500938156619668,"45":-0.3596922755241394,"46":-0.0016106817638501525,"47":-0.3746996819972992,"48":-0.3856101930141449,"49":-0.18541193008422852,"50":-8.479143142700195,"51":-0.08608711510896683,"52":-0.3223186433315277,"53":0.35970956087112427,"54":0.10402851551771164,"55":-0.3773931562900543,"56":-0.05794600769877434,"57":-0.16467557847499847,"58":-0.30994296073913574,"59":0.14928725361824036,"60":0.42781370878219604,"61":0.1716231405735016,"62":-0.1374632716178894,"63":0.0824306532740593,"64":0.25818711519241333,"65":0.4551137387752533,"66":0.12587833404541016,"67":0.6323851943016052,"68":0.481431245803833,"69":0.5956641435623169,"70":-74.4793472290039,"71":0.20753739774227142,"72":0.44509339332580566,"73":0.46927642822265625,"74":0.20804962515830994,"75":0.5261266231536865,"76":0.5785301923751831,"77":0.2936099171638489,"78":0.33108362555503845,"79":0.10488036274909973,"80":0.38977721333503723,"81":0.18681998550891876,"82":0.3464662432670593,"83":-0.07301225513219833,"84":0.2780637741088867,"85":0.6445666551589966,"86":0.19454091787338257,"87":0.6548408269882202,"88":0.5685503482818604,"89":0.4653986990451813,"90":-72.26116943359375,"91":0.13911497592926025,"92":-0.20539364218711853,"93":0.25349050760269165,"94":0.3529771864414215,"95":0.4562194347381592,"96":0.5618509650230408,"97":0.3936171233654022,"98":-0.3397621512413025,"99":0.18002113699913025,"100":0.2147519290447235,"101":0.0019362695747986436,"102":0.2172016203403473,"103":0.15997934341430664,"104":-0.27282288670539856,"105":-0.374169260263443,"106":-0.06467940658330917,"107":0.21137380599975586,"108":0.41340774297714233,"109":0.39893007278442383,"110":-66.06549835205078,"111":0.03229689598083496,"112":0.45852115750312805,"113":0.28035977482795715,"114":-0.15958355367183685,"115":0.4206273555755615,"116":0.10735874623060226,"117":0.36639025807380676,"118":0.43329063057899475,"119":0.15657930076122284,"120":0.4893797039985657,"121":0.22838787734508514,"122":-0.22702790796756744,"123":0.14663387835025787,"124":0.25357192754745483,"125":0.5611462593078613,"126":0.13841168582439423,"127":0.5596528053283691,"128":0.6402595639228821,"129":0.369559109210968,"130":-73.43508911132812,"131":-0.05310115963220596,"132":-0.06662257760763168,"133":0.23064759373664856,"134":0.19715869426727295,"135":0.6283655166625977,"136":0.5880496501922607,"137":0.4517401456832886,"138":-0.3170890510082245,"139":0.022769954055547714,"140":-0.2939491868019104,"141":0.08007903397083282,"142":-0.09590177983045578,"143":0.051454827189445496,"144":0.2364841103553772,"145":-0.27809613943099976,"146":0.09723659604787827,"147":-0.06421608477830887,"148":-0.13803987205028534,"149":-0.19574669003486633,"150":-17.568649291992188,"151":0.009137042798101902,"152":-0.07498834282159805,"153":-0.2730223536491394,"154":0.2481718510389328,"155":-0.2772575616836548,"156":-0.04810193553566933,"157":-0.28196755051612854,"158":-0.17833994328975677,"159":0.1801295429468155,"160":0.24430058896541595,"161":-0.12784652411937714,"162":-0.15628889203071594,"163":0.11213453114032745,"164":0.0761193186044693,"165":0.43040651082992554,"166":-0.1461533159017563,"167":0.4582596719264984,"168":0.3789011240005493,"169":0.20815439522266388,"170":-68.70262145996094,"171":0.07757645845413208,"172":0.25652915239334106,"173":0.25801751017570496,"174":0.079208604991436,"175":0.27452030777931213,"176":0.462944358587265,"177":0.2964266836643219,"178":0.37383174896240234,"179":-0.032523129135370255,"180":-0.21540586650371552,"181":0.10195834189653397,"182":-0.038715094327926636,"183":0.0035530836321413517,"184":-0.13866868615150452,"185":-0.09085632860660553,"186":-0.06305462121963501,"187":-0.49377211928367615,"188":-0.3855096101760864,"189":-0.4041099548339844,"190":-3.5033469200134277,"191":-0.053365308791399,"192":-0.2309795767068863,"193":-0.2711239159107208,"194":-0.05547930672764778,"195":-0.3284951150417328,"196":-0.5172314047813416,"197":-0.3544716238975525,"198":-0.3650464117527008,"199":-0.16977936029434204,"200":-0.32643693685531616,"201":-0.0075309984385967255,"202":-0.07554547488689423,"203":-0.10296571999788284,"204":-0.22381627559661865,"205":-0.322371244430542,"206":0.08339899778366089,"207":-0.4146115183830261,"208":-0.4548168182373047,"209":-0.3443998694419861,"210":-5.312972068786621,"211":0.03779983893036842,"212":-0.34693315625190735,"213":-0.3172823190689087,"214":-0.13287192583084106,"215":-0.19538074731826782,"216":-0.4227907359600067,"217":-0.21331056952476501,"218":-0.19634996354579926,"219":-0.008579591289162636,"220":-0.2730625569820404,"221":-0.05473407357931137,"222":-0.11027856171131134,"223":0.07912612706422806,"224":0.1301255226135254,"225":-0.21344056725502014,"226":0.23696713149547577,"227":-0.039681948721408844,"228":-0.4207113981246948,"229":-0.3742561340332031,"230":-16.87996482849121,"231":0.26169002056121826,"232":0.4531480669975281,"233":-0.3203004002571106,"234":-0.09464216977357864,"235":-0.0463828444480896,"236":-0.2949592173099518,"237":-0.10864725708961487,"238":-0.29783543944358826,"239":0.058584172278642654,"240":0.13360372185707092,"241":-0.021422121673822403,"242":-0.07363389432430267,"243":-0.08534110337495804,"244":-0.2175026684999466,"245":-0.5055517554283142,"246":-0.00756776612251997,"247":-0.43170374631881714,"248":0.3058977425098419,"249":-0.34899234771728516,"250":-32.66720199584961,"251":-0.08775274455547333,"252":0.2562122046947479,"253":0.3556601107120514,"254":-0.1524074226617813,"255":0.13275788724422455,"256":0.11180628091096878,"257":0.23501074314117432,"258":-0.23904076218605042,"259":-0.07356664538383484,"260":0.25909891724586487,"261":0.06092623621225357,"262":0.21721157431602478,"263":-0.07159925252199173,"264":0.16588521003723145,"265":0.2844744622707367,"266":-0.049401309341192245,"267":0.17177249491214752,"268":0.2518939971923828,"269":0.2408726066350937,"270":-60.7534294128418,"271":0.08211198449134827,"272":0.3323057293891907,"273":0.3008480370044708,"274":0.17091625928878784,"275":0.08991453796625137,"276":0.2942546606063843,"277":0.23447634279727936,"278":0.2672552764415741,"279":-0.1631474792957306,"280":0.30835777521133423,"281":0.06071077287197113,"282":-0.06369045376777649,"283":-0.03757164999842644,"284":0.22405053675174713,"285":-0.14004887640476227,"286":0.07115722447633743,"287":0.6656324863433838,"288":0.13756626844406128,"289":-0.08557502925395966,"290":-63.97169876098633,"291":-0.014781251549720764,"292":0.4759654700756073,"293":0.28058096766471863,"294":0.10764356702566147,"295":0.3745597302913666,"296":0.5125839114189148,"297":0.41134825348854065,"298":-0.3586607873439789,"299":0.2792834937572479,"300":-0.3764498233795166,"301":0.011389076709747314,"302":-0.057723306119441986,"303":-0.02615104615688324,"304":-0.1988135129213333,"305":-0.39313581585884094,"306":0.04281575605273247,"307":-0.41622430086135864,"308":-0.31234535574913025,"309":-0.3546392619609833,"310":-5.6933112144470215,"311":-0.057227592915296555,"312":0.2273818403482437,"313":-0.3734748661518097,"314":-0.1861106902360916,"315":-0.2310943454504013,"316":-0.4346054792404175,"317":-0.3252989649772644,"318":-0.37057027220726013,"319":0.04244719818234444,"320":-0.31220588088035583,"321":-0.19004496932029724,"322":-0.05331362783908844,"323":-0.08209672570228577,"324":0.01912900246679783,"325":-0.4287801682949066,"326":0.03954914212226868,"327":-0.4923122227191925,"328":-0.2244534194469452,"329":-0.34716352820396423,"330":86.8884506225586,"331":-0.0521579384803772,"332":0.2480069398880005,"333":-0.35286539793014526,"334":0.10848618298768997,"335":-0.2994556725025177,"336":-0.5773560404777527,"337":-0.4467596411705017,"338":-0.3533935546875,"339":0.036530330777168274,"340":-0.28107142448425293,"341":-0.019363028928637505,"342":-0.06921818852424622,"343":-0.027554847300052643,"344":0.23758038878440857,"345":-0.34827542304992676,"346":-0.08183380961418152,"347":0.00928676500916481,"348":-0.44658932089805603,"349":-0.27451834082603455,"350":-14.768263816833496,"351":0.2524235248565674,"352":-0.11791574209928513,"353":-0.34129419922828674,"354":0.26946109533309937,"355":-0.16920101642608643,"356":-0.027093486860394478,"357":-0.2120150327682495,"358":-0.33165109157562256,"359":0.1928669810295105,"360":0.2871066629886627,"361":0.04177889972925186,"362":-0.07997146248817444,"363":0.0028515488374978304,"364":-0.1806383728981018,"365":0.08073616772890091,"366":-0.135518878698349,"367":-0.011857135221362114,"368":0.23763492703437805,"369":0.21221409738063812,"370":-37.630123138427734,"371":-0.04317944496870041,"372":-0.3063696324825287,"373":-0.23691163957118988,"374":-0.06626837700605392,"375":0.18072450160980225,"376":-0.4505496621131897,"377":-0.3673897385597229,"378":0.36564815044403076,"379":-0.0381525419652462,"380":-0.3230513334274292,"381":0.011297930032014847,"382":-0.00533019145950675,"383":-0.09826389700174332,"384":-0.21763309836387634,"385":0.34509775042533875,"386":-0.06764145940542221,"387":-0.4728694260120392,"388":0.08979668468236923,"389":0.29972052574157715,"390":-13.879721641540527,"391":-0.06333717703819275,"392":-0.31919482350349426,"393":-0.3626052141189575,"394":-0.2027808576822281,"395":-0.42251309752464294,"396":-0.5499109625816345,"397":-0.28455325961112976,"398":-0.250002384185791,"399":-0.0865277573466301,"400":0.15807780623435974,"401":-0.20692098140716553,"402":-0.11781749129295349,"403":-0.01786234974861145,"404":-0.13095031678676605,"405":-9.931146621704102,"406":-0.08877575397491455,"407":0.36597320437431335,"408":-12.838143348693848,"409":0.49459555745124817,"410":1.354079246520996,"411":-0.10446363687515259,"412":0.8343371748924255,"413":0.953429102897644,"414":-1.2397712469100952,"415":0.5588826537132263,"416":0.4869323670864105,"417":0.49357494711875916,"418":0.7173373699188232,"419":-0.20002515614032745,"420":0.26494723558425903,"421":-0.10602330416440964,"422":-0.08501503616571426,"423":-0.015629077330231667,"424":-0.14440099895000458,"425":0.1603044867515564,"426":-0.1401989907026291,"427":0.025096064433455467,"428":0.11060830950737,"429":0.13770964741706848,"430":-42.094539642333984,"431":-0.06419548392295837,"432":-0.03853261098265648,"433":0.30836424231529236,"434":-0.1499776542186737,"435":0.09543012082576752,"436":0.09596278518438339,"437":0.15610745549201965,"438":-0.5214324593544006,"439":-0.12058508396148682,"440":-0.355988472700119,"441":-0.19976772367954254,"442":-0.0869431346654892,"443":-0.12616874277591705,"444":-0.21523092687129974,"445":-0.5013612508773804,"446":-0.01978333480656147,"447":-0.048800017684698105,"448":-0.4196803569793701,"449":-0.35087963938713074,"450":-4.382420539855957,"451":-0.135225310921669,"452":-0.42643052339553833,"453":-0.2998696565628052,"454":-0.19397442042827606,"455":-0.5035744905471802,"456":-0.5835591554641724,"457":-0.44128745794296265,"458":0.14726482331752777,"459":-0.19147643446922302,"460":0.2727911174297333,"461":-0.15665487945079803,"462":-0.0867094099521637,"463":0.1490658074617386,"464":-0.2323240488767624,"465":-0.44292929768562317,"466":-0.005962631665170193,"467":0.19175457954406738,"468":0.2864881753921509,"469":0.022576866671442986,"470":-45.348854064941406,"471":0.1365668624639511,"472":-0.3269951641559601,"473":0.04033264145255089,"474":-0.2579769194126129,"475":0.23818887770175934,"476":0.05128910392522812,"477":0.24784228205680847,"478":-0.2778402268886566,"479":-0.0440337210893631,"480":-0.2629070580005646,"481":-0.16625620424747467,"482":0.20298776030540466,"483":-0.050296951085329056,"484":-0.13199415802955627,"485":-0.4812266230583191,"486":-0.038450323045253754,"487":-0.624607264995575,"488":-0.35469943284988403,"489":-0.35359111428260803,"490":-1.8162841796875,"491":-0.1023998111486435,"492":-0.4312748908996582,"493":-0.3891213834285736,"494":-0.20833025872707367,"495":-0.47193413972854614,"496":-0.5918905138969421,"497":-0.42078596353530884,"498":-0.34181293845176697,"499":-0.16463778913021088,"500":-0.2878502309322357,"501":-0.10631997138261795,"502":-0.06945816427469254,"503":0.16104473173618317,"504":-0.2233026623725891,"505":-0.40543508529663086,"506":-0.13554464280605316,"507":-0.5029125809669495,"508":-0.2791996896266937,"509":-0.3290649354457855,"510":-4.42107629776001,"511":0.05702061206102371,"512":-0.2457231879234314,"513":-0.276292622089386,"514":-0.1798546463251114,"515":-0.33210456371307373,"516":-0.4765191376209259,"517":-0.30006489157676697,"518":-0.20076008141040802,"519":-0.11178471148014069,"520":-0.36412250995635986,"521":-0.05815492197871208,"522":-0.04671437293291092,"523":-0.025241637602448463,"524":-0.0682123452425003,"525":-0.4479690194129944,"526":0.016655782237648964,"527":-0.5377106666564941,"528":-0.3761133849620819,"529":-0.3852987289428711,"530":-2.202789783477783,"531":0.0029276341665536165,"532":-0.3521103858947754,"533":-0.24298560619354248,"534":-0.0589522123336792,"535":-0.37420928478240967,"536":-0.5588248372077942,"537":-0.42611974477767944,"538":-0.34267544746398926,"539":-0.0009606166859157383,"540":-0.33782896399497986,"541":-0.1447433978319168,"542":-0.05779879912734032,"543":0.020649507641792297,"544":-0.06374001502990723,"545":-0.3516629934310913,"546":-0.031226597726345062,"547":-0.266791969537735,"548":-0.34312450885772705,"549":-0.39622148871421814,"550":-4.5916218757629395,"551":0.015759455040097237,"552":-0.4065392017364502,"553":-0.28832918405532837,"554":-0.20910383760929108,"555":-0.15568414330482483,"556":-0.5369651317596436,"557":-0.39610737562179565,"558":-0.27814510464668274,"559":0.030632007867097855,"560":-0.5797259211540222,"561":-0.19756096601486206,"562":-0.12604010105133057,"563":0.02484406717121601,"564":-0.2702815532684326,"565":-0.552527129650116,"566":-0.10793448984622955,"567":-1.1578723192214966,"568":-0.5135636329650879,"569":-1.0009989738464355,"570":-0.3702442944049835,"571":-0.1272016316652298,"572":-1.2615107297897339,"573":-1.1772865056991577,"574":-0.1556299924850464,"575":-1.0736533403396606,"576":-1.3228076696395874,"577":-0.8204756379127502,"578":-5.589012622833252,"579":-0.162861168384552}},"output":{"rows":29,"columns":1,"weights":{"0":-8.201177597045898,"1":1.632345199584961,"2":-9.091214179992676,"3":-10.090470314025879,"4":-9.267358779907227,"5":-9.535141944885254,"6":-9.363152503967285,"7":-8.746467590332031,"8":-9.518463134765625,"9":-8.287134170532227,"10":-8.563072204589844,"11":-8.758882522583008,"12":-9.16497802734375,"13":-9.332260131835938,"14":-9.303603172302246,"15":-8.427897453308105,"16":-10.838552474975586,"17":-8.775238990783691,"18":-8.87426471710205,"19":-8.24856185913086,"20":1.2316193580627441,"21":-8.970782279968262,"22":-8.616273880004883,"23":-8.943796157836914,"24":-7.991086483001709,"25":-8.44190502166748,"26":-8.195528984069824,"27":-8.456432342529297,"28":-2.900303363800049}}}