{"type":"RNN","options":{"inputSize":28,"inputRange":28,"hiddenLayers":[20,20],"outputSize":28,"decayRate":0.999,"smoothEps":1e-8,"regc":0.000001,"clipval":5,"maxPredictionLength":100,"dataFormatter":{"values":["Please add a dark mode for nighttime use.","This app is a lifesaver for tracking expenses.","actionable","unactionable"],"indexTable":{"P":0,"l":1,"e":2,"a":3,"s":4," ":5,"d":6,"r":7,"k":8,"m":9,"o":10,"f":11,"n":12,"i":13,"g":14,"h":15,"t":16,"u":17,".":18,"T":19,"p":20,"v":21,"c":22,"x":23,"b":24,"stop-input":25,"start-output":26,"unrecognized":27},"characterTable":{"0":"P","1":"l","2":"e","3":"a","4":"s","5":" ","6":"d","7":"r","8":"k","9":"m","10":"o","11":"f","12":"n","13":"i","14":"g","15":"h","16":"t","17":"u","18":".","19":"T","20":"p","21":"v","22":"c","23":"x","24":"b","25":null,"26":null,"27":null},"characters":["P","l","e","a","s"," ","d","r","k","m","o","f","n","i","g","h","t","u",".","T","p","v","c","x","b","stop-input","start-output","unrecognized"],"specialIndexes":[25,26,27]}},"input":{"rows":29,"columns":28,"weights":{"0":-0.12826715409755707,"1":0.3151027262210846,"2":0.33024701476097107,"3":-0.2727822959423065,"4":0.1607140153646469,"5":-0.3436993360519409,"6":-0.47444525361061096,"7":0.34551334381103516,"8":0.19144146144390106,"9":-0.4267256557941437,"10":-0.21278339624404907,"11":-0.30576854944229126,"12":0.3295183777809143,"13":0.24892863631248474,"14":-0.22936607897281647,"15":-0.1187203973531723,"16":-0.5084312558174133,"17":0.2152559757232666,"18":0.1876097172498703,"19":-0.1960728019475937,"20":0.20719975233078003,"21":0.09978766739368439,"22":-0.25566917657852173,"23":-0.49132078886032104,"24":0.3120470345020294,"25":-0.347169429063797,"26":-0.21820881962776184,"27":0.3517940640449524,"28":0.16577063500881195,"29":0.12206804752349854,"30":-0.055362120270729065,"31":0.017361588776111603,"32":0.23127755522727966,"33":0.1363138109445572,"34":0.089286670088768,"35":0.2029591202735901,"36":-0.3418973684310913,"37":-0.2934531271457672,"38":0.12325005978345871,"39":0.1291358768939972,"40":-0.054877277463674545,"41":0.05306614562869072,"42":-0.13888779282569885,"43":-0.09176885336637497,"44":-0.054177239537239075,"45":0.29061654210090637,"46":0.03316854313015938,"47":0.2921377122402191,"48":0.04679175093770027,"49":0.16940589249134064,"50":0.2670680582523346,"51":0.21073004603385925,"52":0.1171625480055809,"53":0.1305120438337326,"54":-0.3158327639102936,"55":-0.05077352747321129,"56":0.08998145908117294,"57":-0.22338147461414337,"58":-0.14731331169605255,"59":-0.4644661545753479,"60":-0.31863972544670105,"61":0.44862988591194153,"62":0.2811036705970764,"63":-0.2857082188129425,"64":-0.4569646418094635,"65":0.29823440313339233,"66":-0.16060350835323334,"67":0.15233564376831055,"68":-0.27633363008499146,"69":-0.30714350938796997,"70":0.2893015444278717,"71":0.26943889260292053,"72":0.24534735083580017,"73":-0.378914475440979,"74":0.28728464245796204,"75":0.31139060854911804,"76":-0.1485690176486969,"77":0.37168627977371216,"78":0.3074043393135071,"79":0.2991665303707123,"80":-0.28237754106521606,"81":-0.28465062379837036,"82":0.3844389319419861,"83":-0.47069501876831055,"84":-0.08085698634386063,"85":0.3735099732875824,"86":0.28227007389068604,"87":0.34054744243621826,"88":0.29126203060150146,"89":-0.2186989039182663,"90":0.2722264528274536,"91":0.2304808795452118,"92":0.22225119173526764,"93":-0.2705746591091156,"94":-0.20230545103549957,"95":-0.18522222340106964,"96":0.4298672080039978,"97":-0.27598366141319275,"98":0.29813963174819946,"99":-0.2042442262172699,"100":-0.30261752009391785,"101":0.41505998373031616,"102":0.28035372495651245,"103":-0.3959011435508728,"104":0.296660840511322,"105":0.23233608901500702,"106":-0.23368050158023834,"107":0.3505617380142212,"108":0.3363651931285858,"109":-0.26900938153266907,"110":-0.29585203528404236,"111":0.3168572783470154,"112":-0.30011212825775146,"113":-0.34134963154792786,"114":0.4175979495048523,"115":-0.08887530863285065,"116":0.12229402363300323,"117":-0.1254258155822754,"118":-0.07555705308914185,"119":0.19696563482284546,"120":0.15772485733032227,"121":-0.18884903192520142,"122":-0.3430739641189575,"123":-0.48379790782928467,"124":0.3977319300174713,"125":0.33555442094802856,"126":-0.4395882487297058,"127":-0.29408007860183716,"128":-0.3714278042316437,"129":0.36065638065338135,"130":-0.2698223888874054,"131":-0.296871155500412,"132":0.12518960237503052,"133":0.3117297291755676,"134":-0.15078258514404297,"135":0.38409948348999023,"136":0.5720573663711548,"137":-0.1278579980134964,"138":-0.3161447048187256,"139":0.3451867401599884,"140":0.3234536349773407,"141":0.3865227699279785,"142":-0.22406616806983948,"143":0.2856816053390503,"144":-0.14955013990402222,"145":0.23398065567016602,"146":-0.11470842361450195,"147":-0.3907470703125,"148":-0.1342754364013672,"149":0.1665039211511612,"150":0.32722699642181396,"151":-0.27257126569747925,"152":-0.22223803400993347,"153":-0.25603199005126953,"154":-0.4909422993659973,"155":0.2313826084136963,"156":0.24277257919311523,"157":0.39648762345314026,"158":-0.3537741005420685,"159":0.4102934002876282,"160":-0.27345964312553406,"161":-0.38504600524902344,"162":0.2482815980911255,"163":0.2836136221885681,"164":-0.16467685997486115,"165":0.06310611218214035,"166":0.3823530673980713,"167":-0.2898765504360199,"168":-0.18636049330234528,"169":0.20605404675006866,"170":-0.2819700539112091,"171":0.4471277892589569,"172":0.21224914491176605,"173":0.19872285425662994,"174":0.3353290855884552,"175":0.3777211010456085,"176":-0.2722713351249695,"177":-0.3634399175643921,"178":0.3165609836578369,"179":-0.2023909091949463,"180":-0.33771127462387085,"181":-0.21930623054504395,"182":0.2621211111545563,"183":0.15762241184711456,"184":0.29665565490722656,"185":0.26697680354118347,"186":0.2231627106666565,"187":0.2870175540447235,"188":-0.30555960536003113,"189":-0.27207356691360474,"190":-0.3269422948360443,"191":0.2822158932685852,"192":0.32457807660102844,"193":-0.3025277853012085,"194":0.0970202162861824,"195":0.23917649686336517,"196":-0.3055104613304138,"197":-0.11284457892179489,"198":-0.19736365973949432,"199":-0.012300294823944569,"200":0.22975163161754608,"201":-0.23277048766613007,"202":-0.27064013481140137,"203":-0.09066464751958847,"204":-0.2269752025604248,"205":0.011316842399537563,"206":-0.059238728135824203,"207":0.07464141398668289,"208":-0.09329989552497864,"209":0.2787124216556549,"210":-0.1276087760925293,"211":-0.14488999545574188,"212":-0.0957145094871521,"213":0.019375238567590714,"214":-0.053361017256975174,"215":-0.14434538781642914,"216":-0.18245455622673035,"217":-0.17342422902584076,"218":-0.008104955777525902,"219":0.23346927762031555,"220":0.24661123752593994,"221":-0.05029894411563873,"222":0.09131255000829697,"223":-0.16047288477420807,"224":0.5166651010513306,"225":0.387866735458374,"226":-0.15911100804805756,"227":-0.20492202043533325,"228":-0.23554164171218872,"229":0.30893176794052124,"230":-0.4194543957710266,"231":-0.4161856174468994,"232":0.4400479197502136,"233":0.3687937259674072,"234":0.5333395004272461,"235":0.12905144691467285,"236":-0.04568725824356079,"237":-0.3668457865715027,"238":-0.29647865891456604,"239":0.5068626999855042,"240":0.35636600852012634,"241":0.5243270993232727,"242":-0.2510535717010498,"243":0.1748245358467102,"244":0.3053745627403259,"245":-0.5338277816772461,"246":-0.02570137195289135,"247":-0.3185136616230011,"248":-0.35067856311798096,"249":0.1130327358841896,"250":0.0509490929543972,"251":-0.2581268548965454,"252":0.16295425593852997,"253":-0.4742642045021057,"254":-0.2950376272201538,"255":-0.32738548517227173,"256":0.2517663538455963,"257":0.4336809813976288,"258":0.24025118350982666,"259":-0.13955499231815338,"260":-0.2530606687068939,"261":0.4050825834274292,"262":-0.39191117882728577,"263":0.3345371186733246,"264":-0.24735786020755768,"265":-0.34451815485954285,"266":0.28116145730018616,"267":0.18553467094898224,"268":0.1735748052597046,"269":-0.522304892539978,"270":0.30275124311447144,"271":0.34775155782699585,"272":-0.18655136227607727,"273":0.22463281452655792,"274":0.22573688626289368,"275":0.13905082643032074,"276":-0.2984037697315216,"277":-0.1891956925392151,"278":0.3819293975830078,"279":-0.34038132429122925,"280":0.05512667074799538,"281":0.07883287221193314,"282":0.0431632325053215,"283":-0.015248071402311325,"284":0.052117716521024704,"285":-0.25171568989753723,"286":-0.1227559745311737,"287":0.11201385408639908,"288":0.26961153745651245,"289":-0.0647222250699997,"290":0.09333274513483047,"291":0.3245982825756073,"292":-0.03160696476697922,"293":-0.05828322842717171,"294":0.0185963436961174,"295":0.05940035730600357,"296":-0.04956371709704399,"297":0.10946760326623917,"298":-0.09953082352876663,"299":-0.046212777495384216,"300":0.07702892273664474,"301":-0.22483935952186584,"302":-0.3094596266746521,"303":-0.11756359040737152,"304":-0.31156718730926514,"305":-0.27487078309059143,"306":-0.05286552384495735,"307":0.05058780685067177,"308":0.1766381561756134,"309":-0.24096649885177612,"310":-0.08992888778448105,"311":-0.3122040629386902,"312":-0.13939043879508972,"313":0.3177323341369629,"314":0.2455005943775177,"315":0.11646763980388641,"316":-0.37293967604637146,"317":0.27186545729637146,"318":-0.2883528769016266,"319":0.13305269181728363,"320":-0.21155709028244019,"321":0.2600853443145752,"322":0.18018420040607452,"323":-0.279041051864624,"324":0.08814839273691177,"325":-0.4370689392089844,"326":0.34388208389282227,"327":-0.38999125361442566,"328":-0.13020996749401093,"329":0.00789788831025362,"330":0.2393619418144226,"331":-0.49956750869750977,"332":-0.27035433053970337,"333":-0.13187412917613983,"334":0.3166644871234894,"335":0.19813545048236847,"336":0.3331049680709839,"337":0.4801780879497528,"338":-0.329067200422287,"339":0.05143933370709419,"340":0.2711147367954254,"341":0.2821394205093384,"342":-0.340794175863266,"343":-0.3754478991031647,"344":-0.2303515523672104,"345":0.3110300600528717,"346":0.2769738733768463,"347":-0.18589885532855988,"348":-0.3051587641239166,"349":-0.30545681715011597,"350":-0.442869633436203,"351":0.3334089517593384,"352":0.43493005633354187,"353":0.5257008075714111,"354":-0.2693677544593811,"355":0.26465868949890137,"356":0.28053978085517883,"357":-0.245088130235672,"358":0.17306646704673767,"359":-0.16356335580348969,"360":-0.48976588249206543,"361":0.1777687817811966,"362":0.09591028839349747,"363":-0.44299808144569397,"364":0.3493818938732147,"365":-0.17787401378154755,"366":-0.13978005945682526,"367":-0.2940310537815094,"368":0.2528242766857147,"369":0.33761316537857056,"370":-0.29389992356300354,"371":0.3303460478782654,"372":-0.3616473376750946,"373":0.30193695425987244,"374":0.38711997866630554,"375":0.18014457821846008,"376":-0.17822618782520294,"377":0.2348770648241043,"378":-0.1474626511335373,"379":-0.15345360338687897,"380":-0.24376600980758667,"381":0.08312291651964188,"382":-0.408843457698822,"383":-0.1830914318561554,"384":-0.37814414501190186,"385":0.31924131512641907,"386":0.339090496301651,"387":-0.35906922817230225,"388":-0.3543388843536377,"389":0.25107014179229736,"390":-0.285200297832489,"391":0.24635349214076996,"392":0.17762474715709686,"393":0.002434127265587449,"394":0.3302842378616333,"395":-0.19369995594024658,"396":0.3777475655078888,"397":0.35981297492980957,"398":0.2963820695877075,"399":0.2732205390930176,"400":-0.414551317691803,"401":0.245115265250206,"402":-0.1636088788509369,"403":0.24355608224868774,"404":0.3195390999317169,"405":-0.23180659115314484,"406":0.13211464881896973,"407":0.12999679148197174,"408":0.36965855956077576,"409":0.48736441135406494,"410":0.21166513860225677,"411":0.2825233042240143,"412":-0.25199127197265625,"413":0.36402609944343567,"414":0.2627216875553131,"415":0.47361278533935547,"416":-0.07921167463064194,"417":-0.3816470801830292,"418":0.27825927734375,"419":0.18488986790180206,"420":0.17231369018554688,"421":0.3849722743034363,"422":-0.32960274815559387,"423":-0.24937625229358673,"424":0.27925506234169006,"425":0.17126387357711792,"426":-0.3138905465602875,"427":-0.44494619965553284,"428":-0.23437626659870148,"429":-0.13967151939868927,"430":0.18014636635780334,"431":-0.2896271347999573,"432":-0.18649408221244812,"433":-0.19951756298542023,"434":-0.36357662081718445,"435":0.36386391520500183,"436":0.2628842294216156,"437":0.26398035883903503,"438":0.3902409076690674,"439":0.14781001210212708,"440":-0.09584677219390869,"441":-0.3146563172340393,"442":0.11136800795793533,"443":0.3110314905643463,"444":0.28173860907554626,"445":-0.20076462626457214,"446":0.33916109800338745,"447":-0.19417554140090942,"448":-0.311635822057724,"449":-0.45125624537467957,"450":-0.4250548779964447,"451":-0.40403077006340027,"452":-0.2858109474182129,"453":0.32017505168914795,"454":0.4363187253475189,"455":-0.25751981139183044,"456":-0.14008083939552307,"457":0.4696224331855774,"458":-0.3998018503189087,"459":-0.0036795297637581825,"460":-0.3935876488685608,"461":-0.3564850687980652,"462":0.49634501338005066,"463":0.19684040546417236,"464":0.4688721299171448,"465":-0.4146866798400879,"466":0.2533280551433563,"467":0.23634831607341766,"468":-0.444670170545578,"469":-0.22196906805038452,"470":0.4032793343067169,"471":0.4761248528957367,"472":0.23727025091648102,"473":-0.16543281078338623,"474":0.2950113117694855,"475":-0.34106743335723877,"476":0.2959161400794983,"477":-0.5247015953063965,"478":0.09027867764234543,"479":-0.12306676805019379,"480":-0.38118818402290344,"481":0.4098172187805176,"482":0.2960679829120636,"483":-0.3225487768650055,"484":-0.07202636450529099,"485":0.5221222043037415,"486":-0.012020893394947052,"487":0.2755816578865051,"488":-0.48140639066696167,"489":0.12402144074440002,"490":0.3557048738002777,"491":-0.29049885272979736,"492":0.3350096642971039,"493":-0.5157167315483093,"494":-0.21734493970870972,"495":-0.1656382977962494,"496":0.1543796956539154,"497":0.15709324181079865,"498":0.3401494026184082,"499":-0.3631024658679962,"500":-0.3640975058078766,"501":0.40275025367736816,"502":0.5145829916000366,"503":0.057910528033971786,"504":-0.2095467895269394,"505":-0.33971455693244934,"506":0.3514244854450226,"507":-0.37482982873916626,"508":-0.4605351686477661,"509":0.051197584718465805,"510":0.4413442015647888,"511":0.3895045816898346,"512":-0.35429057478904724,"513":0.46462446451187134,"514":-0.4590323269367218,"515":0.048830173909664154,"516":-0.3488689959049225,"517":0.48240599036216736,"518":0.23446185886859894,"519":-0.3491651713848114,"520":-0.5244103670120239,"521":-0.41631606221199036,"522":0.116368867456913,"523":-0.2979591190814972,"524":0.5137995481491089,"525":0.2799675464630127,"526":-0.060796018689870834,"527":-0.16685743629932404,"528":-0.0775519385933876,"529":0.5129051804542542,"530":0.19281594455242157,"531":0.3534732162952423,"532":-0.31551146507263184,"533":-0.2949392795562744,"534":0.30917882919311523,"535":-0.23676583170890808,"536":-0.2047307938337326,"537":-0.25523775815963745,"538":-0.23485638201236725,"539":0.182053804397583,"540":0.32213249802589417,"541":-0.3127927780151367,"542":-0.2675577700138092,"543":0.30576762557029724,"544":0.2758461534976959,"545":0.39746996760368347,"546":-0.3426305651664734,"547":-0.372530072927475,"548":-0.267536461353302,"549":-0.12447085976600647,"550":-0.2713764011859894,"551":-0.3241019546985626,"552":0.39882737398147583,"553":0.33086076378822327,"554":-0.2876088321208954,"555":-0.22716408967971802,"556":0.25667956471443176,"557":0.40223801136016846,"558":-0.34254685044288635,"559":0.1044827327132225,"560":0.5124857425689697,"561":-0.488231360912323,"562":-0.5460667014122009,"563":-0.5465186238288879,"564":0.5805999040603638,"565":-0.5016177296638489,"566":-0.5567476749420166,"567":0.4929578900337219,"568":-0.515819787979126,"569":0.5175762176513672,"570":-0.5482086539268494,"571":0.5912816524505615,"572":-0.555565357208252,"573":0.5304885506629944,"574":-0.5324304103851318,"575":-0.5649469494819641,"576":-0.4579165577888489,"577":-0.4838225245475769,"578":-0.5556164979934692,"579":-0.4681099057197571,"580":0.4652482271194458,"581":0.5598467588424683,"582":-0.5144054889678955,"583":-0.5722517967224121,"584":-0.5656570792198181,"585":0.47444504499435425,"586":-0.5095616579055786,"587":0.43781816959381104,"588":-0.33126258850097656,"589":-0.5094146728515625,"590":0.45164600014686584,"591":-0.4998463988304138,"592":0.4445326030254364,"593":-0.5069429874420166,"594":0.529699981212616,"595":0.4473179280757904,"596":-0.4864170551300049,"597":0.31923002004623413,"598":-0.442829966545105,"599":0.5039674639701843,"600":0.5730448365211487,"601":0.569661021232605,"602":0.5025157332420349,"603":-0.5638715028762817,"604":-0.5132346749305725,"605":-0.5218809843063354,"606":0.49766862392425537,"607":-0.5601409077644348,"608":0.5028342604637146,"609":0.5161240100860596,"610":0.45094481110572815,"611":-0.5130699276924133,"612":-0.2703474760055542,"613":-0.18107250332832336,"614":-0.46592977643013,"615":0.5345869064331055,"616":0.46737807989120483,"617":0.48982560634613037,"618":-0.44941988587379456,"619":0.46872758865356445,"620":-0.49080225825309753,"621":0.555685818195343,"622":-0.5005743503570557,"623":-0.5525081157684326,"624":0.4738317131996155,"625":0.46623867750167847,"626":0.51430344581604,"627":-0.5057988166809082,"628":-0.523932695388794,"629":-0.5196261405944824,"630":-0.35348594188690186,"631":0.588144838809967,"632":0.5566427707672119,"633":-0.5466367602348328,"634":-0.4920148253440857,"635":0.5750004053115845,"636":-0.3046921193599701,"637":-0.5833817720413208,"638":0.3337528705596924,"639":0.4454841911792755,"640":-0.5899733901023865,"641":0.5859546065330505,"642":0.507693350315094,"643":-0.5605858564376831,"644":-0.4318157136440277,"645":0.1371617615222931,"646":0.295593798160553,"647":0.1917959451675415,"648":0.22659750282764435,"649":-0.300350159406662,"650":0.2681507468223572,"651":0.4689393937587738,"652":-0.14744384586811066,"653":-0.24342268705368042,"654":-0.24949167668819427,"655":-0.40006786584854126,"656":0.19367870688438416,"657":0.16670209169387817,"658":-0.18878690898418427,"659":-0.24761758744716644,"660":-0.2901092767715454,"661":0.01572812721133232,"662":0.29015129804611206,"663":0.010813913308084011,"664":-0.15363803505897522,"665":0.42882803082466125,"666":-0.373909056186676,"667":0.19163008034229279,"668":0.2154795378446579,"669":-0.23031602799892426,"670":-0.34846028685569763,"671":0.28168144822120667,"672":-0.5436024069786072,"673":-0.483865350484848,"674":0.4949474632740021,"675":0.1687760353088379,"676":-0.5332624912261963,"677":-0.5165689587593079,"678":0.5519170165061951,"679":0.5226641893386841,"680":0.49869030714035034,"681":-0.5843062996864319,"682":-0.5641897320747375,"683":0.48451775312423706,"684":0.5646953582763672,"685":0.5554641485214233,"686":0.4650996923446655,"687":-0.563737690448761,"688":-0.5267519354820251,"689":0.44535863399505615,"690":-0.46320250630378723,"691":-0.4913581609725952,"692":0.25075751543045044,"693":0.49536189436912537,"694":-0.5089010000228882,"695":0.5480183959007263,"696":0.5107221603393555,"697":-0.4279646873474121,"698":-0.4623773694038391,"699":0.5009558200836182,"700":121.18427276611328,"701":403.0609436035156,"702":-312.7902526855469,"703":-248.43093872070312,"704":175.20684814453125,"705":60.2462272644043,"706":113.6027603149414,"707":31.515413284301758,"708":-52.990421295166016,"709":-177.9219970703125,"710":-98.69591522216797,"711":-71.89063262939453,"712":54.29697036743164,"713":-54.77229309082031,"714":48.55670928955078,"715":-125.66695404052734,"716":-27.56656265258789,"717":340.2203369140625,"718":367.34912109375,"719":401.27947998046875,"720":-48.730712890625,"721":39.0064811706543,"722":35.10612869262695,"723":23.542314529418945,"724":34.59903335571289,"725":106.53178405761719,"726":-89.76387786865234,"727":23.69782066345215,"728":-0.33794739842414856,"729":0.5631197094917297,"730":0.39649295806884766,"731":0.009959613904356956,"732":0.12687428295612335,"733":-0.2123410552740097,"734":-0.15547707676887512,"735":0.2599833309650421,"736":0.20991390943527222,"737":-0.16321620345115662,"738":0.13858665525913239,"739":-0.47481968998908997,"740":0.3566609025001526,"741":0.04193491116166115,"742":-0.3306191563606262,"743":-0.4163672924041748,"744":-0.38431859016418457,"745":0.3540121018886566,"746":-0.3785533607006073,"747":-0.1998751163482666,"748":0.325643926858902,"749":0.3853242099285126,"750":-0.12590999901294708,"751":0.3067818284034729,"752":0.3790866732597351,"753":-0.21850784122943878,"754":-0.2827901244163513,"755":0.28920841217041016,"756":-0.22055508196353912,"757":-0.09958218038082123,"758":0.005458800122141838,"759":-0.17980597913265228,"760":-0.17528943717479706,"761":-0.3680255115032196,"762":-0.34600651264190674,"763":0.3595650792121887,"764":0.3300008177757263,"765":-0.35743629932403564,"766":0.17813043296337128,"767":0.31179070472717285,"768":0.27040114998817444,"769":0.32501694560050964,"770":-0.30963850021362305,"771":-0.29499003291130066,"772":-0.18899838626384735,"773":0.36574846506118774,"774":-0.3817157447338104,"775":-0.2852891981601715,"776":0.2586236000061035,"777":0.3863874673843384,"778":-0.31347423791885376,"779":-0.30311325192451477,"780":-0.3038572371006012,"781":0.31963780522346497,"782":-0.3046519458293915,"783":0.3433918058872223,"784":-0.01582234911620617,"785":0.05545470863580704,"786":-0.007575074210762978,"787":-0.06174217537045479,"788":0.037507835775613785,"789":0.00812862440943718,"790":0.03194183483719826,"791":0.025128452107310295,"792":0.07573269307613373,"793":-0.0172254778444767,"794":0.0226115919649601,"795":-0.0033824739512056112,"796":-0.04036805406212807,"797":0.039865683764219284,"798":0.044155582785606384,"799":-0.06559127569198608,"800":-0.015797758474946022,"801":0.04988892748951912,"802":0.05924457684159279,"803":0.043720684945583344,"804":0.07059359550476074,"805":-0.0005756003665737808,"806":0.0018330533057451248,"807":-0.034262120723724365,"808":0.0027083565946668386,"809":-0.0416782908141613,"810":-0.07640086114406586,"811":-0.04850858449935913}},"hiddenLayers":[{"weight":{"rows":20,"columns":28,"weights":{"0":-0.31004607677459717,"1":-0.26999014616012573,"2":-0.17074687778949738,"3":-0.4924580156803131,"4":-0.48152750730514526,"5":0.0905354917049408,"6":0.10590910911560059,"7":-0.4300439655780792,"8":-0.35822775959968567,"9":0.16000428795814514,"10":-0.4569398760795593,"11":-0.2659769356250763,"12":-0.08104152977466583,"13":0.39949411153793335,"14":0.09077299386262894,"15":-0.21137982606887817,"16":-0.4675367474555969,"17":-0.570222020149231,"18":0.2826617956161499,"19":0.18839657306671143,"20":0.4668690264225006,"21":0.31388601660728455,"22":0.3803839683532715,"23":0.09662909060716629,"24":0.5014927387237549,"25":0.3334042727947235,"26":0.1654682159423828,"27":0.08825255185365677,"28":-0.04257844761013985,"29":-0.3626673221588135,"30":-0.36064910888671875,"31":-0.4111824929714203,"32":-0.42307740449905396,"33":0.370316743850708,"34":0.28923192620277405,"35":0.155662402510643,"36":0.32599693536758423,"37":0.4783902168273926,"38":-0.10772266983985901,"39":-0.25633320212364197,"40":-0.467258483171463,"41":-0.3422392010688782,"42":-0.2815682291984558,"43":-0.2736414968967438,"44":-0.15521559119224548,"45":-0.3692469000816345,"46":0.16353417932987213,"47":0.44840896129608154,"48":0.18585124611854553,"49":0.11876632273197174,"50":0.41011032462120056,"51":-0.4115799367427826,"52":-0.5072430968284607,"53":0.2578217387199402,"54":0.46525609493255615,"55":-0.4183119237422943,"56":-0.17346712946891785,"57":0.046852804720401764,"58":0.06821911782026291,"59":0.04678388684988022,"60":0.13345178961753845,"61":0.061062633991241455,"62":0.20057663321495056,"63":-0.058195918798446655,"64":0.060575783252716064,"65":-0.18933524191379547,"66":-0.16821949183940887,"67":-0.03828306496143341,"68":-0.16696718335151672,"69":0.11427327990531921,"70":-0.07084968686103821,"71":-0.21603432297706604,"72":-0.024236584082245827,"73":-0.03376148268580437,"74":0.18859969079494476,"75":-0.02131962962448597,"76":0.13730548322200775,"77":0.093761146068573,"78":0.026612399145960808,"79":0.031957849860191345,"80":0.12103931605815887,"81":-0.09568893909454346,"82":-0.15147826075553894,"83":0.11209797859191895,"84":-0.10768289864063263,"85":-0.18785110116004944,"86":-0.11282537132501602,"87":0.009487343020737171,"88":-0.054440706968307495,"89":-0.10772489756345749,"90":0.04030006378889084,"91":0.15856756269931793,"92":0.167092964053154,"93":-0.14118671417236328,"94":-0.040494658052921295,"95":0.0389007031917572,"96":-0.011837700381875038,"97":-0.23323875665664673,"98":0.007139407563954592,"99":0.026025252416729927,"100":-0.04614078626036644,"101":0.30076977610588074,"102":-0.27496036887168884,"103":-0.10966204106807709,"104":-0.10621248930692673,"105":-0.14705267548561096,"106":-0.020442862063646317,"107":-0.11949191242456436,"108":-0.08284509927034378,"109":-0.031672555953264236,"110":0.0610002726316452,"111":0.21380427479743958,"112":-0.1493452936410904,"113":-0.260183721780777,"114":0.1435234248638153,"115":-0.4109194278717041,"116":-0.10816112905740738,"117":0.44614988565444946,"118":-0.3374318778514862,"119":0.31069257855415344,"120":-0.04927440360188484,"121":0.529534101486206,"122":0.179520383477211,"123":-0.1062919870018959,"124":-0.4233555197715759,"125":-0.1922280192375183,"126":0.40635770559310913,"127":0.3286535441875458,"128":0.3150135576725006,"129":-0.5030103325843811,"130":-0.21100129187107086,"131":0.17404936254024506,"132":0.36758366227149963,"133":0.4100379943847656,"134":-0.12953972816467285,"135":-0.2659023702144623,"136":-0.54432213306427,"137":-0.120791956782341,"138":0.43613407015800476,"139":-0.3983531594276428,"140":0.3728885054588318,"141":0.4263290762901306,"142":0.3840336501598358,"143":0.18598762154579163,"144":0.49149543046951294,"145":-0.29080119729042053,"146":-0.21032314002513885,"147":-0.38621917366981506,"148":-0.5945107936859131,"149":-0.19738107919692993,"150":0.171432226896286,"151":0.3424464166164398,"152":0.2538614571094513,"153":0.4835559129714966,"154":-0.4485546946525574,"155":0.3361518979072571,"156":-0.4043222665786743,"157":0.26242542266845703,"158":0.027459250763058662,"159":-0.34683680534362793,"160":0.2698882222175598,"161":-0.34175434708595276,"162":-0.20042961835861206,"163":-0.4636746644973755,"164":0.2536729574203491,"165":-0.24328625202178955,"166":-0.2693787217140198,"167":0.3240208327770233,"168":0.14723823964595795,"169":0.24024856090545654,"170":-0.17538440227508545,"171":0.08157174289226532,"172":0.1761210709810257,"173":0.2561105489730835,"174":-0.1331160068511963,"175":-0.0935521349310875,"176":-0.07889007776975632,"177":0.1381550282239914,"178":0.08413156867027283,"179":0.03899864852428436,"180":-0.1837393045425415,"181":0.09905418008565903,"182":-0.015025063417851925,"183":-0.11357880383729935,"184":-0.011279769241809845,"185":0.28674426674842834,"186":-0.07919631898403168,"187":0.02158382348716259,"188":0.22459708154201508,"189":-0.0473465733230114,"190":0.18117471039295197,"191":0.10903746634721756,"192":-0.11980994045734406,"193":0.07807927578687668,"194":-0.08715570718050003,"195":0.11137831211090088,"196":-0.0389682874083519,"197":0.2437761425971985,"198":0.09394727647304535,"199":-0.44096243381500244,"200":0.5899780988693237,"201":-0.07288475334644318,"202":0.21131323277950287,"203":0.2737729847431183,"204":-0.5087456703186035,"205":-0.10528521239757538,"206":-0.08659465610980988,"207":0.46552738547325134,"208":-0.004573033191263676,"209":0.46732884645462036,"210":-0.30384546518325806,"211":-0.1980176866054535,"212":-0.15261678397655487,"213":0.3111163079738617,"214":0.12589363753795624,"215":0.047056376934051514,"216":0.09829635918140411,"217":0.42787569761276245,"218":-0.09114225208759308,"219":-0.31074070930480957,"220":0.07590669393539429,"221":-0.2550502121448517,"222":-0.28259435296058655,"223":0.5228486061096191,"224":-0.1598290205001831,"225":0.2142660915851593,"226":0.1563994288444519,"227":-0.18056899309158325,"228":0.04988805577158928,"229":-0.10857462137937546,"230":-0.04478445649147034,"231":-0.18631069362163544,"232":0.10592128336429596,"233":-0.15016797184944153,"234":-0.20304986834526062,"235":-0.20155669748783112,"236":0.14876346290111542,"237":-0.02619973197579384,"238":0.054069530218839645,"239":-0.09004915505647659,"240":-0.07609449326992035,"241":0.17670416831970215,"242":0.1853099763393402,"243":0.07978396862745285,"244":0.08054665476083755,"245":0.11046192795038223,"246":0.13793686032295227,"247":0.006554808933287859,"248":0.16795140504837036,"249":-0.16802281141281128,"250":-0.12960849702358246,"251":0.13781417906284332,"252":0.19216585159301758,"253":0.17596890032291412,"254":0.3112523555755615,"255":-0.1959553062915802,"256":0.14834800362586975,"257":-0.43048131465911865,"258":0.20152489840984344,"259":-0.31202369928359985,"260":-0.22471754252910614,"261":-0.13780252635478973,"262":-0.30265629291534424,"263":-0.4049275815486908,"264":0.26087766885757446,"265":-0.13190989196300507,"266":-0.18177899718284607,"267":0.18710510432720184,"268":-0.2660539448261261,"269":0.16208353638648987,"270":0.2208913415670395,"271":0.10937314480543137,"272":0.44707828760147095,"273":0.27521103620529175,"274":0.10822620987892151,"275":-0.3746598958969116,"276":0.20201385021209717,"277":-0.2559296786785126,"278":0.30043840408325195,"279":0.22190573811531067,"280":0.48322540521621704,"281":0.24019579589366913,"282":0.06304310262203217,"283":-0.03944249451160431,"284":0.1876540184020996,"285":-0.20756347477436066,"286":-0.26190292835235596,"287":-0.13485485315322876,"288":-0.04605570435523987,"289":-0.10685595124959946,"290":0.3774779736995697,"291":-0.16777615249156952,"292":0.07567320019006729,"293":0.2182082235813141,"294":0.11501871794462204,"295":0.09074656665325165,"296":-0.14592500030994415,"297":0.38925477862358093,"298":0.049594465643167496,"299":0.276235967874527,"300":-0.26068368554115295,"301":-0.24989040195941925,"302":0.16254396736621857,"303":-0.16730472445487976,"304":0.09071514755487442,"305":-0.06479816883802414,"306":0.18451929092407227,"307":0.11746810376644135,"308":-0.3396182060241699,"309":-0.06526058167219162,"310":-0.34091612696647644,"311":-0.11990140378475189,"312":-0.12386152893304825,"313":-0.4841281771659851,"314":0.17286230623722076,"315":-0.5101673603057861,"316":0.15629635751247406,"317":-0.10180632025003433,"318":0.15568937361240387,"319":0.13109946250915527,"320":-0.42352917790412903,"321":0.39515379071235657,"322":-0.37011823058128357,"323":-0.3121422231197357,"324":0.49243447184562683,"325":0.045252181589603424,"326":-0.07834012806415558,"327":0.36419928073883057,"328":0.20540262758731842,"329":-0.25520944595336914,"330":-0.263542503118515,"331":-0.13760051131248474,"332":-0.1585775762796402,"333":-0.4114471971988678,"334":0.4317373037338257,"335":-0.45200684666633606,"336":-0.39033451676368713,"337":-0.37301772832870483,"338":-0.16614076495170593,"339":0.515495777130127,"340":-0.27460771799087524,"341":0.3736700415611267,"342":0.3325934410095215,"343":-0.44000014662742615,"344":0.17309997975826263,"345":0.5206890106201172,"346":-0.4857499599456787,"347":0.15576288104057312,"348":-0.45402461290359497,"349":-0.2024661749601364,"350":0.37848615646362305,"351":0.03012833371758461,"352":0.42242753505706787,"353":-0.5278871655464172,"354":0.4903538227081299,"355":0.24821753799915314,"356":-0.21553653478622437,"357":-0.3724631071090698,"358":0.27341967821121216,"359":-0.33886146545410156,"360":-0.13095822930335999,"361":0.27774128317832947,"362":0.44325709342956543,"363":-0.36798959970474243,"364":0.1656101495027542,"365":0.031559914350509644,"366":-0.045224521309137344,"367":-0.20708051323890686,"368":0.18152660131454468,"369":0.24503812193870544,"370":-0.014732885174453259,"371":-0.053617481142282486,"372":-0.0055482396855950356,"373":0.19523976743221283,"374":0.07431682199239731,"375":0.12311966717243195,"376":0.05610625818371773,"377":-0.04930006340146065,"378":-0.12196478247642517,"379":0.07372366636991501,"380":0.1993594616651535,"381":0.0630030632019043,"382":-0.11146333813667297,"383":-0.10812407732009888,"384":-0.005806356202811003,"385":0.06453235447406769,"386":0.12468220293521881,"387":-0.016209982335567474,"388":-0.1191723495721817,"389":-0.029165534302592278,"390":0.0770290344953537,"391":-0.13971544802188873,"392":-0.3582386374473572,"393":-0.566949725151062,"394":-0.3343341052532196,"395":-0.359948068857193,"396":-0.4600427746772766,"397":0.3308793902397156,"398":-0.1816376894712448,"399":0.1675882190465927,"400":0.12212982773780823,"401":0.5058279037475586,"402":-0.5231705904006958,"403":-0.1424681395292282,"404":-0.3002103865146637,"405":-0.26726704835891724,"406":0.5223218202590942,"407":-0.1680133193731308,"408":0.2198086977005005,"409":-0.605311930179596,"410":0.41145583987236023,"411":-0.3726855516433716,"412":0.3579636216163635,"413":0.3523749113082886,"414":-0.14063943922519684,"415":-0.4267388582229614,"416":-0.38563674688339233,"417":0.4023298919200897,"418":0.5689661502838135,"419":-0.5025646090507507,"420":0.2482154220342636,"421":0.15517985820770264,"422":0.3212810456752777,"423":-0.27597957849502563,"424":-0.1570485383272171,"425":0.02596183307468891,"426":0.5160118937492371,"427":-0.21429260075092316,"428":-0.07262063026428223,"429":-0.13446518778800964,"430":0.24000851809978485,"431":-0.17827445268630981,"432":0.2974039316177368,"433":0.0020782945211976767,"434":-0.2565576136112213,"435":0.31821295619010925,"436":-0.3769434988498688,"437":0.40021297335624695,"438":-0.2136697769165039,"439":0.3956446349620819,"440":0.2552570402622223,"441":0.27068620920181274,"442":0.301306813955307,"443":0.3338877856731415,"444":0.1503770500421524,"445":-0.12597019970417023,"446":-0.27629244327545166,"447":0.470796138048172,"448":0.2050686627626419,"449":0.3802918791770935,"450":0.35827916860580444,"451":-0.24644818902015686,"452":0.23890922963619232,"453":-0.4697120487689972,"454":-0.34706446528434753,"455":-0.26208409667015076,"456":-0.3672036826610565,"457":-0.4554731547832489,"458":-0.29774561524391174,"459":0.23084045946598053,"460":0.2787623703479767,"461":0.38373246788978577,"462":-0.418962299823761,"463":0.3825766444206238,"464":-0.5162673592567444,"465":0.33196553587913513,"466":0.2954983711242676,"467":0.342903196811676,"468":-0.01875034160912037,"469":-0.39254212379455566,"470":0.17117375135421753,"471":-0.4778534770011902,"472":0.34238606691360474,"473":-0.24475115537643433,"474":0.2518770694732666,"475":0.31377097964286804,"476":-0.2853212356567383,"477":-0.4812569320201874,"478":0.12104110419750214,"479":0.4228084981441498,"480":-0.4354761242866516,"481":-0.31830650568008423,"482":0.3259710371494293,"483":0.34101787209510803,"484":0.43867966532707214,"485":0.24485591053962708,"486":-0.1949833631515503,"487":-0.28580760955810547,"488":-0.4561518430709839,"489":0.20721693336963654,"490":-0.11805729568004608,"491":-0.24382495880126953,"492":0.5241037011146545,"493":-0.3113609850406647,"494":-0.3358508050441742,"495":0.4346064329147339,"496":-0.5155250430107117,"497":0.14131617546081543,"498":-0.36586177349090576,"499":-0.06350727379322052,"500":-0.3095230460166931,"501":0.26094111800193787,"502":-0.24871674180030823,"503":-0.3814593255519867,"504":-0.0034596985206007957,"505":0.4188132882118225,"506":0.1906527280807495,"507":-0.17776016891002655,"508":0.20049366354942322,"509":-0.5036929845809937,"510":-0.26155632734298706,"511":-0.43577611446380615,"512":0.3936307728290558,"513":-0.47881489992141724,"514":0.46743208169937134,"515":0.15328004956245422,"516":0.16392454504966736,"517":0.2554500102996826,"518":-0.5127887725830078,"519":0.06360077112913132,"520":0.21915359795093536,"521":0.4284936487674713,"522":-0.44805029034614563,"523":-0.26264703273773193,"524":0.2708353102207184,"525":-0.5288808345794678,"526":-0.5219936966896057,"527":-0.32078200578689575,"528":-0.14644543826580048,"529":-0.29493314027786255,"530":-0.2979378402233124,"531":-0.3394954204559326,"532":0.5393220782279968,"533":0.40162143111228943,"534":0.24172614514827728,"535":0.15996183454990387,"536":0.13494046032428741,"537":-0.025501184165477753,"538":-0.40271416306495667,"539":-0.4648182988166809,"540":0.4728592038154602,"541":-0.22016210854053497,"542":0.5636322498321533,"543":0.3498792350292206,"544":0.35502493381500244,"545":0.021437088027596474,"546":-0.48849713802337646,"547":0.5497211813926697,"548":0.4097767174243927,"549":0.5390893220901489,"550":0.08243933320045471,"551":-0.1742752343416214,"552":0.3745023310184479,"553":-0.5132449269294739,"554":-0.18965652585029602,"555":-0.44178634881973267,"556":-0.46733948588371277,"557":-0.11621890217065811,"558":-0.23760583996772766,"559":-0.46614885330200195}},"transition":{"rows":20,"columns":20,"weights":{"0":-0.2085135579109192,"1":-0.29126888513565063,"2":0.06276488304138184,"3":0.1300678849220276,"4":-0.30769792199134827,"5":-0.30440396070480347,"6":0.03879414498806,"7":-0.15972493588924408,"8":-0.020124828442931175,"9":-0.2820676565170288,"10":-0.31819948554039,"11":-0.2101861536502838,"12":-0.3106873333454132,"13":0.054756566882133484,"14":-0.2560703158378601,"15":-0.23816116154193878,"16":-0.18533381819725037,"17":-0.18817171454429626,"18":-0.2246379256248474,"19":-0.2731079161167145,"20":-0.22722497582435608,"21":-0.2881559133529663,"22":0.03858322650194168,"23":-0.04326293244957924,"24":-0.33754831552505493,"25":-0.3192581832408905,"26":-0.054809559136629105,"27":-0.3100223243236542,"28":-0.08093509823083878,"29":0.2928137183189392,"30":0.2754424214363098,"31":0.3100236654281616,"32":-0.35289204120635986,"33":0.04423486068844795,"34":-0.28038498759269714,"35":-0.3853142559528351,"36":-0.22479374706745148,"37":-0.22162458300590515,"38":-0.2763887643814087,"39":-0.367561012506485,"40":-0.0735200047492981,"41":-0.11384662240743637,"42":-0.06919530034065247,"43":0.011881093494594097,"44":-0.06848812103271484,"45":-0.0618739016354084,"46":0.0005585190374404192,"47":-0.08258384466171265,"48":-0.0010829040547832847,"49":-0.03045109286904335,"50":-0.10563121736049652,"51":0.053177669644355774,"52":-0.01629636250436306,"53":0.03016568347811699,"54":-0.07664390653371811,"55":-0.05411706492304802,"56":0.019728513434529305,"57":-0.08167091012001038,"58":0.048535801470279694,"59":0.07099068909883499,"60":0.12038494646549225,"61":-0.036507025361061096,"62":-0.004933773539960384,"63":0.020144790410995483,"64":-0.029983144253492355,"65":0.01843992993235588,"66":0.08662550896406174,"67":-0.002858104882761836,"68":-0.033277712762355804,"69":0.06144554167985916,"70":0.10621488839387894,"71":-0.048744067549705505,"72":-0.005947795696556568,"73":-0.008654427714645863,"74":0.01684613712131977,"75":0.041956786066293716,"76":0.0036148924846202135,"77":0.08583485335111618,"78":0.07277889549732208,"79":0.0902143344283104,"80":0.31554457545280457,"81":-0.1842859387397766,"82":0.057417046278715134,"83":-0.06774405390024185,"84":0.31783896684646606,"85":0.24610678851604462,"86":-0.010189574211835861,"87":-0.23183368146419525,"88":-0.10664074122905731,"89":0.25087010860443115,"90":-0.2223823368549347,"91":0.30639347434043884,"92":0.269050270318985,"93":0.051581889390945435,"94":0.24470368027687073,"95":0.20854219794273376,"96":0.28095096349716187,"97":0.16149011254310608,"98":-0.21947848796844482,"99":-0.3608005940914154,"100":0.28333503007888794,"101":-0.3510662019252777,"102":-0.03955439478158951,"103":0.002024242887273431,"104":-0.27555251121520996,"105":0.23389832675457,"106":-0.056416984647512436,"107":-0.29219627380371094,"108":-0.044345125555992126,"109":-0.24698324501514435,"110":-0.28928083181381226,"111":0.2974991500377655,"112":0.032528363168239594,"113":-0.06963617354631424,"114":-0.35213494300842285,"115":0.30370092391967773,"116":0.3480321168899536,"117":-0.38483914732933044,"118":0.3479284644126892,"119":0.3700636327266693,"120":0.01637730561196804,"121":-0.05422524735331535,"122":-0.021427402272820473,"123":-0.06628844141960144,"124":-0.08326827734708786,"125":-0.012977981939911842,"126":0.05478552728891373,"127":-0.10570787638425827,"128":0.036170266568660736,"129":0.012286332435905933,"130":0.013736680150032043,"131":-0.09028007835149765,"132":-0.05469457060098648,"133":-0.02626713179051876,"134":0.023530328646302223,"135":0.05300256237387657,"136":-0.0593414343893528,"137":0.05432223156094551,"138":0.029217222705483437,"139":-0.05108076333999634,"140":-0.32758238911628723,"141":-0.3069671094417572,"142":0.06343550235033035,"143":-0.12353965640068054,"144":-0.38697153329849243,"145":-0.3647502660751343,"146":-0.03546157479286194,"147":-0.41976287961006165,"148":-0.112572580575943,"149":-0.28184160590171814,"150":-0.13924647867679596,"151":-0.3239023685455322,"152":-0.3696812689304352,"153":-0.037066053599119186,"154":-0.30369794368743896,"155":0.0428810641169548,"156":-0.2545609176158905,"157":-0.17474707961082458,"158":0.21193717420101166,"159":-0.28889015316963196,"160":-0.012545076198875904,"161":-0.03765663132071495,"162":-0.002613500691950321,"163":0.0027214810252189636,"164":-0.03755800798535347,"165":0.06785589456558228,"166":0.09402474761009216,"167":-0.037745051085948944,"168":-0.008675814606249332,"169":-0.06888502091169357,"170":-0.0037638191133737564,"171":0.018490634858608246,"172":-0.05553159490227699,"173":0.07506649941205978,"174":0.0647091343998909,"175":-0.09534593671560287,"176":-0.07744155079126358,"177":0.012263035401701927,"178":-0.07692203670740128,"179":-0.01815919019281864,"180":-0.32714173197746277,"181":-0.23645295202732086,"182":-0.058083124458789825,"183":0.023128507658839226,"184":-0.3328651189804077,"185":-0.36906754970550537,"186":0.025157414376735687,"187":-0.3644258975982666,"188":0.004232540726661682,"189":-0.3176425099372864,"190":-0.30006614327430725,"191":-0.2987242043018341,"192":-0.31589508056640625,"193":0.011159293353557587,"194":-0.2431163638830185,"195":-0.331747829914093,"196":-0.34336113929748535,"197":-0.23080496490001678,"198":-0.34976527094841003,"199":-0.24927303194999695,"200":-0.29686808586120605,"201":-0.2874729633331299,"202":-0.06017940863966942,"203":-0.058812618255615234,"204":-0.2797043025493622,"205":-0.3227112591266632,"206":-0.04152148216962814,"207":-0.30719056725502014,"208":-0.009247513487935066,"209":-0.33514633774757385,"210":-0.3415331542491913,"211":-0.34520480036735535,"212":-0.26624542474746704,"213":0.018247615545988083,"214":-0.2935659885406494,"215":-0.4008122980594635,"216":-0.3195752799510956,"217":-0.26600414514541626,"218":-0.383042573928833,"219":-0.26854079961776733,"220":0.35983315110206604,"221":0.33321574330329895,"222":0.0020551402121782303,"223":-0.02659493498504162,"224":0.2940768599510193,"225":0.27140387892723083,"226":-0.08924711495637894,"227":0.3259516954421997,"228":0.0011302746133878827,"229":0.27890443801879883,"230":0.301813542842865,"231":0.24678409099578857,"232":0.33043935894966125,"233":0.04218917340040207,"234":0.36890101432800293,"235":0.26276952028274536,"236":0.2132519781589508,"237":0.2936253547668457,"238":0.24033579230308533,"239":0.3173868656158447,"240":0.24865175783634186,"241":0.1896524578332901,"242":-0.04537893831729889,"243":-0.027829023078083992,"244":0.3043288588523865,"245":0.27864235639572144,"246":-0.008926820009946823,"247":0.09799743443727493,"248":0.017183076590299606,"249":0.35780033469200134,"250":0.2702212333679199,"251":0.31886762380599976,"252":0.02675705961883068,"253":0.025004694238305092,"254":0.2662431299686432,"255":0.22501733899116516,"256":0.233293354511261,"257":0.222126305103302,"258":0.19872955977916718,"259":0.22306565940380096,"260":-0.03797317296266556,"261":0.0017480445094406605,"262":-0.04160358011722565,"263":0.06910393387079239,"264":-0.008753950707614422,"265":0.06420578807592392,"266":-0.06480797380208969,"267":-0.02609473094344139,"268":-0.043051768094301224,"269":-0.05023183301091194,"270":0.06028616055846214,"271":0.014694643206894398,"272":-0.03360892832279205,"273":0.05367405712604523,"274":0.02377820946276188,"275":0.052613597363233566,"276":-0.023986101150512695,"277":0.025122588500380516,"278":0.027247050777077675,"279":-0.008053812198340893,"280":0.237766832113266,"281":0.26883912086486816,"282":-0.053498368710279465,"283":0.055455539375543594,"284":0.35446691513061523,"285":0.40387535095214844,"286":0.0008510327897965908,"287":0.36407744884490967,"288":-0.03467291593551636,"289":0.36081361770629883,"290":0.39823535084724426,"291":0.29323098063468933,"292":0.24958695471286774,"293":0.1219228208065033,"294":0.2539622187614441,"295":0.36328935623168945,"296":0.2920588254928589,"297":0.4131801724433899,"298":0.30049261450767517,"299":0.25868579745292664,"300":-0.3022538125514984,"301":-0.3243440091609955,"302":-0.09284346550703049,"303":-0.011606133542954922,"304":-0.301903635263443,"305":-0.40541672706604004,"306":-0.07786156982183456,"307":-0.3213222622871399,"308":0.02770319953560829,"309":-0.3211551904678345,"310":-0.3349326550960541,"311":-0.28902241587638855,"312":-0.06918004900217056,"313":0.01420512143522501,"314":-0.29088249802589417,"315":0.09606976807117462,"316":-0.37048017978668213,"317":-0.342060923576355,"318":-0.2535818815231323,"319":-0.2151721715927124,"320":-0.2980477809906006,"321":-0.3233377933502197,"322":0.0667712464928627,"323":-0.06611348688602448,"324":-0.24379724264144897,"325":-0.28631874918937683,"326":-0.008894783444702625,"327":-0.23915663361549377,"328":0.053230222314596176,"329":-0.34779906272888184,"330":-0.25006040930747986,"331":-0.3117719888687134,"332":-0.3541315495967865,"333":-0.05800814554095268,"334":-0.3621188700199127,"335":-0.3550163805484772,"336":-0.27902495861053467,"337":-0.25902366638183594,"338":-0.2654300332069397,"339":-0.36368030309677124,"340":0.40519818663597107,"341":0.20235684514045715,"342":-0.023450039327144623,"343":-0.046060554683208466,"344":0.26310741901397705,"345":0.3061892092227936,"346":-0.05925409868359566,"347":0.19701164960861206,"348":-0.015310149639844894,"349":0.38951942324638367,"350":-0.23261979222297668,"351":0.2830885648727417,"352":0.2633763551712036,"353":-0.05757911875844002,"354":0.3404470384120941,"355":0.29309749603271484,"356":0.31434422731399536,"357":0.23178067803382874,"358":0.35227373242378235,"359":0.3120897710323334,"360":0.2982238531112671,"361":0.3495792746543884,"362":0.10460331290960312,"363":0.06598497182130814,"364":0.16771921515464783,"365":0.4092198312282562,"366":0.04100240767002106,"367":0.16400893032550812,"368":-0.06610404700040817,"369":0.23215226829051971,"370":-0.06658441573381424,"371":0.34204649925231934,"372":0.1331295222043991,"373":-0.03913285210728645,"374":0.2594139277935028,"375":0.3932317793369293,"376":0.32903215289115906,"377":-0.2401430308818817,"378":0.37464457750320435,"379":0.24598021805286407,"380":0.3948652744293213,"381":0.2975650131702423,"382":-0.06612695008516312,"383":-0.011232074350118637,"384":0.2604810297489166,"385":0.36094117164611816,"386":-0.00953589379787445,"387":0.41241008043289185,"388":-0.0802990272641182,"389":0.29127129912376404,"390":0.32179826498031616,"391":0.22575974464416504,"392":0.3650057911872864,"393":0.05730908364057541,"394":0.3607977628707886,"395":0.3573210835456848,"396":0.25826701521873474,"397":0.36906182765960693,"398":0.3705175518989563,"399":0.329787015914917}},"bias":{"rows":20,"columns":1,"weights":{"0":0.5197968482971191,"1":-0.04391187056899071,"2":-0.2853755056858063,"3":-0.2774871587753296,"4":0,"5":-0.024124158546328545,"6":-0.29285547137260437,"7":0,"8":-0.2295643836259842,"9":0,"10":0,"11":-0.11099965125322342,"12":0,"13":-0.24633905291557312,"14":-0.30393505096435547,"15":0,"16":0.5541459321975708,"17":-0.30389896035194397,"18":-0.293594628572464,"19":-0.05092323571443558}}},{"weight":{"rows":20,"columns":20,"weights":{"0":-0.2187294214963913,"1":-0.02979818359017372,"2":-0.1673104614019394,"3":0.087400883436203,"4":-0.0028197376523166895,"5":-0.13862344622612,"6":0.09087242931127548,"7":-0.00341695174574852,"8":-0.054073516279459,"9":-0.011546592228114605,"10":0.05685727670788765,"11":-0.04515703022480011,"12":-0.06337465345859528,"13":0.1670214980840683,"14":-0.11159083247184753,"15":-0.14611655473709106,"16":-0.04055767506361008,"17":-0.1234070435166359,"18":-0.15116478502750397,"19":-0.039007849991321564,"20":-0.1630345731973648,"21":-0.22946281731128693,"22":-0.047795023769140244,"23":-0.16400852799415588,"24":-0.2500154972076416,"25":-0.24199599027633667,"26":-0.15167556703090668,"27":-0.2529410719871521,"28":-0.08824259787797928,"29":-0.19012373685836792,"30":-0.19859525561332703,"31":0.007937737740576267,"32":-0.07919011265039444,"33":-0.09393221139907837,"34":-0.2670108377933502,"35":-0.18014322221279144,"36":-0.23803703486919403,"37":-0.19746734201908112,"38":-0.21708381175994873,"39":-0.2065495252609253,"40":-0.32858288288116455,"41":0.031154433265328407,"42":-0.09525153785943985,"43":-0.0019394978880882263,"44":-0.14671237766742706,"45":0.041719451546669006,"46":0.19708481431007385,"47":-0.19051982462406158,"48":-0.1946752816438675,"49":-0.14937005937099457,"50":0.08421239256858826,"51":0.06283789873123169,"52":0.02939714677631855,"53":-0.12113237380981445,"54":-0.013900582678616047,"55":-0.12197160720825195,"56":-0.08151548355817795,"57":0.2764529883861542,"58":0.13285274803638458,"59":0.184152752161026,"60":0.018118388950824738,"61":-0.0019525339594110847,"62":-0.13400347530841827,"63":0.01789105497300625,"64":-0.08017241209745407,"65":0.08154062926769257,"66":0.2263038456439972,"67":-0.16695518791675568,"68":0.08201068639755249,"69":0.09219775348901749,"70":0.21172240376472473,"71":-0.1763310730457306,"72":-0.05171547085046768,"73":0.019749142229557037,"74":0.0832570493221283,"75":0.19887927174568176,"76":-0.0694209486246109,"77":0.08621759712696075,"78":0.12278811633586884,"79":0.0034066075459122658,"80":0.14549222588539124,"81":0.24505376815795898,"82":-0.02052895538508892,"83":-0.10741151124238968,"84":-0.29017114639282227,"85":0.27480432391166687,"86":-0.12238754332065582,"87":-0.47844505310058594,"88":0.12962764501571655,"89":0.17370836436748505,"90":0.23981697857379913,"91":0.3901093602180481,"92":-0.2890811264514923,"93":0.15180350840091705,"94":-0.2580643594264984,"95":-0.4363747239112854,"96":0.2490687221288681,"97":0.48795855045318604,"98":0.24692361056804657,"99":0.45306843519210815,"100":-0.05847589299082756,"101":-0.02635915018618107,"102":0.008945341221988201,"103":-0.07957642525434494,"104":-0.011078674346208572,"105":-0.014579848386347294,"106":-0.07142536342144012,"107":0.02662486955523491,"108":-0.061467450112104416,"109":-0.023503070697188377,"110":0.03523913025856018,"111":-0.06267011910676956,"112":0.019600441679358482,"113":0.011747636832296848,"114":0.016753338277339935,"115":-0.019478699192404747,"116":-0.06465600430965424,"117":-0.016420109197497368,"118":-0.0013869400136172771,"119":0.009305117651820183,"120":0.37202492356300354,"121":0.22889097034931183,"122":0.10005743056535721,"123":0.21275684237480164,"124":-0.13257229328155518,"125":-0.18386684358119965,"126":-0.048807378858327866,"127":0.016672581434249878,"128":-0.12096883356571198,"129":0.4085274934768677,"130":0.4731490910053253,"131":-0.24249957501888275,"132":-0.37493136525154114,"133":0.03616610914468765,"134":-0.34601837396621704,"135":-0.09169156104326248,"136":0.4040036201477051,"137":0.5313161015510559,"138":0.6070327758789062,"139":-0.03914261609315872,"140":-0.1746625155210495,"141":-0.3341471552848816,"142":-0.015976857393980026,"143":-0.04901764169335365,"144":-0.3319774568080902,"145":-0.3638240098953247,"146":-0.03970284387469292,"147":-0.36924707889556885,"148":0.03489544987678528,"149":-0.14928068220615387,"150":-0.3842679560184479,"151":-0.15381520986557007,"152":-0.33238640427589417,"153":0.1349128633737564,"154":-0.2882983088493347,"155":-0.3688206672668457,"156":0.2977428436279297,"157":-0.25389620661735535,"158":0.22974225878715515,"159":0.30653953552246094,"160":0.6308633089065552,"161":0.6101208329200745,"162":0.06237981468439102,"163":0.22195428609848022,"164":-0.1527743935585022,"165":0.40091952681541443,"166":0.11550018191337585,"167":-0.08940330892801285,"168":0.2787085473537445,"169":0.41397157311439514,"170":-0.14422950148582458,"171":0.5036225318908691,"172":0.040917299687862396,"173":-0.008504204452037811,"174":-0.04900175333023071,"175":-0.10145602375268936,"176":0.5944843888282776,"177":-0.2637861669063568,"178":0.5545526146888733,"179":0.47032079100608826,"180":-0.19970734417438507,"181":-0.2172205001115799,"182":0.08792414516210556,"183":0.06657956540584564,"184":-0.024830326437950134,"185":-0.0966324657201767,"186":0.042403463274240494,"187":-0.16681785881519318,"188":0.1380060464143753,"189":-0.04887298494577408,"190":0.05831439420580864,"191":-0.1767866462469101,"192":-0.17736080288887024,"193":-0.06506897509098053,"194":-0.08865299820899963,"195":-0.06458837538957596,"196":-0.12360166758298874,"197":-0.15105941891670227,"198":-0.12649689614772797,"199":-0.19935421645641327,"200":0.24690908193588257,"201":0.6123513579368591,"202":-0.06975585967302322,"203":-0.14596854150295258,"204":0.4157972037792206,"205":0.1945345401763916,"206":-0.03221708908677101,"207":-0.3536348342895508,"208":-0.19569675624370575,"209":0.18582652509212494,"210":0.15543468296527863,"211":0.47429701685905457,"212":0.5628479719161987,"213":-0.13984882831573486,"214":0.5999967455863953,"215":0.30148035287857056,"216":0.07897930592298508,"217":0.5526127219200134,"218":0.2540168762207031,"219":0.16086101531982422,"220":0.22198696434497833,"221":0.3523748219013214,"222":0.14488111436367035,"223":0.09351412951946259,"224":0.26688843965530396,"225":0.1924251914024353,"226":-0.19593098759651184,"227":-0.4202096462249756,"228":0.2373092621564865,"229":0.14425857365131378,"230":-0.004272496327757835,"231":0.5544188618659973,"232":0.5711249709129333,"233":0.27973321080207825,"234":0.5534008145332336,"235":0.12019611895084381,"236":0.1522006094455719,"237":0.5757577419281006,"238":0.32042086124420166,"239":0.5881612300872803,"240":-0.38082921504974365,"241":0.5135890245437622,"242":-0.07827356457710266,"243":-0.11599604040384293,"244":0.2597885727882385,"245":-0.3374236226081848,"246":-0.04647825285792351,"247":0.000018429820556775667,"248":-0.12393247336149216,"249":0.19946067035198212,"250":0.2679746448993683,"251":0.3730260133743286,"252":0.5041616559028625,"253":-0.01883764937520027,"254":0.5855578184127808,"255":0.27904853224754333,"256":-0.3337952494621277,"257":0.4646454155445099,"258":-0.3280198872089386,"259":-0.23692162334918976,"260":0.02537822537124157,"261":0.08149158954620361,"262":0.010230348445475101,"263":-0.10717932134866714,"264":-0.39338207244873047,"265":0.30864036083221436,"266":-0.17919409275054932,"267":-0.5136284828186035,"268":0.08870024979114532,"269":0.03152571991086006,"270":0.12315776199102402,"271":0.4507160186767578,"272":-0.46440938115119934,"273":0.14844103157520294,"274":0.08061651885509491,"275":-0.3405976891517639,"276":0.2517342269420624,"277":0.14769716560840607,"278":0.28028276562690735,"279":0.46906742453575134,"280":0.1421116292476654,"281":0.14300966262817383,"282":-0.06757169216871262,"283":-0.2261044681072235,"284":0.3490695059299469,"285":0.4456498324871063,"286":0.004235242493450642,"287":0.12464213371276855,"288":-0.20677955448627472,"289":0.3137306272983551,"290":0.3994060754776001,"291":0.17763115465641022,"292":0.10328412801027298,"293":-0.22092817723751068,"294":0.23347926139831543,"295":-0.31171664595603943,"296":0.33431410789489746,"297":0.04570049047470093,"298":0.2498125284910202,"299":0.10250730067491531,"300":-0.17820945382118225,"301":0.04483453556895256,"302":-0.036417823284864426,"303":-0.17563019692897797,"304":-0.01972067914903164,"305":-0.0194815956056118,"306":-0.05850910022854805,"307":-0.006966081447899342,"308":-0.25036558508872986,"309":-0.0662560984492302,"310":0.013482991605997086,"311":-0.12867020070552826,"312":0.018737656995654106,"313":-0.2154083251953125,"314":0.18714189529418945,"315":-0.0670728012919426,"316":-0.011590931564569473,"317":0.07992035895586014,"318":-0.042850714176893234,"319":-0.14330501854419708,"320":-0.009934945032000542,"321":0.017554430291056633,"322":-0.038359981030225754,"323":0.18082493543624878,"324":-0.3043055236339569,"325":0.34321391582489014,"326":0.16152805089950562,"327":0.18855413794517517,"328":-0.06591770797967911,"329":-0.08296509832143784,"330":0.43774423003196716,"331":0.2512117326259613,"332":0.3769318163394928,"333":0.07776504755020142,"334":-0.21930478513240814,"335":-0.21554914116859436,"336":0.4483203589916229,"337":-0.20243999361991882,"338":0.4134156107902527,"339":-0.17287728190422058,"340":0.3569349944591522,"341":0.4007728099822998,"342":0.01993078738451004,"343":0.021601080894470215,"344":0.5122160911560059,"345":0.21912814676761627,"346":0.10997360944747925,"347":0.44587427377700806,"348":-0.03333833068609238,"349":0.4579503536224365,"350":0.38189852237701416,"351":0.26555076241493225,"352":0.33462414145469666,"353":0.00018013805674854666,"354":0.46167632937431335,"355":0.22989638149738312,"356":0.2433948814868927,"357":0.24383357167243958,"358":-0.3068934977054596,"359":0.18588963150978088,"360":-0.2555157542228699,"361":-0.22036318480968475,"362":-0.17497460544109344,"363":-0.1733248084783554,"364":-0.09135153144598007,"365":-0.22063910961151123,"366":0.1804923564195633,"367":-0.19700047373771667,"368":0.006904463283717632,"369":-0.17024539411067963,"370":-0.1338924616575241,"371":-0.26004764437675476,"372":-0.1379026174545288,"373":-0.18047893047332764,"374":-0.06696891784667969,"375":-0.22398065030574799,"376":-0.29387855529785156,"377":-0.1832212656736374,"378":-0.27673810720443726,"379":-0.19424696266651154,"380":-0.19561807811260223,"381":0.1334477812051773,"382":-0.10917967557907104,"383":0.05369129031896591,"384":0.01671912521123886,"385":-0.08647403120994568,"386":-0.03481695055961609,"387":0.014902894385159016,"388":-0.18705984950065613,"389":0.05159047618508339,"390":-0.09692864120006561,"391":0.04301410913467407,"392":-0.10529814660549164,"393":-0.02841194160282612,"394":-0.025838281959295273,"395":0.039599720388650894,"396":-0.08349373191595078,"397":0.15704044699668884,"398":0.006310696713626385,"399":-0.26712703704833984}},"transition":{"rows":20,"columns":20,"weights":{"0":0.040020085871219635,"1":-0.06773371994495392,"2":-0.026421763002872467,"3":0.03801584988832474,"4":-0.030267316848039627,"5":-0.03557926416397095,"6":-0.05074203386902809,"7":-0.03877377510070801,"8":0.030931707471609116,"9":0.01966221071779728,"10":0.04750055447220802,"11":0.0008977409452199936,"12":-0.014569961465895176,"13":0.03375167027115822,"14":-0.12757143378257751,"15":-0.04017435386776924,"16":-0.0533774308860302,"17":0.05426064878702164,"18":-0.0691736564040184,"19":-0.016263248398900032,"20":0.04614454135298729,"21":-0.045850496739149094,"22":-0.00972752645611763,"23":-0.06838813424110413,"24":-0.05031018331646919,"25":0.0417654886841774,"26":-0.0808420404791832,"27":-0.04251386970281601,"28":0.023632720112800598,"29":-0.049442168325185776,"30":-0.0874432623386383,"31":-0.09381570667028427,"32":0.00204436550848186,"33":-0.04151834547519684,"34":-0.0782659575343132,"35":0.022420745342969894,"36":-0.07094436883926392,"37":-0.002961870515719056,"38":-0.12852893769741058,"39":-0.07299748808145523,"40":-0.056849852204322815,"41":0.026669075712561607,"42":-0.10041097551584244,"43":0.0291096493601799,"44":0.006946189794689417,"45":-0.049893248826265335,"46":-0.07721743732690811,"47":0.015699896961450577,"48":0.07349686324596405,"49":0.022362396121025085,"50":0.07785358279943466,"51":0.0049847704358398914,"52":-0.01725761592388153,"53":-0.03588235378265381,"54":-0.003043470671400428,"55":-0.014900151640176773,"56":-0.015585980378091335,"57":-0.056562453508377075,"58":-0.0019120159558951855,"59":0.10338953882455826,"60":0.007183384615927935,"61":0.057397712022066116,"62":0.055898088961839676,"63":0.004552410915493965,"64":-0.05805075168609619,"65":0.07550662010908127,"66":0.03911201283335686,"67":0.01840493269264698,"68":-0.025279836729168892,"69":0.009160909801721573,"70":0.03206033632159233,"71":0.045979421585798264,"72":0.04786325618624687,"73":-0.01896069571375847,"74":0.08688212186098099,"75":0.015533218160271645,"76":0.07407372444868088,"77":-0.04616425558924675,"78":0.006395766045898199,"79":-0.033752888441085815,"80":0.038876164704561234,"81":-0.0002638061123434454,"82":-0.06434828042984009,"83":0.028359275311231613,"84":0.32600513100624084,"85":0.0275312140583992,"86":0.3165338337421417,"87":0.26129934191703796,"88":0.32536575198173523,"89":-0.058670345693826675,"90":0.3965783417224884,"91":0.2745417356491089,"92":0.2778891623020172,"93":0.2640020251274109,"94":0.2670537233352661,"95":0.014618273824453354,"96":0.3369103968143463,"97":0.30283835530281067,"98":-0.09440483152866364,"99":-0.06118910014629364,"100":0.04255202040076256,"101":-0.017484720796346664,"102":-0.04453393071889877,"103":-0.012837695889174938,"104":-0.00179671635851264,"105":-0.07255609333515167,"106":0.014358630403876305,"107":-0.009746797382831573,"108":-0.06740648299455643,"109":-0.05875687673687935,"110":0.04428087919950485,"111":0.0504729188978672,"112":0.041427671909332275,"113":0.0029191572684794664,"114":0.013012981973588467,"115":-0.06779229640960693,"116":-0.031131595373153687,"117":-0.05449651554226875,"118":-0.07019900530576706,"119":-0.03391407057642937,"120":-0.05533261597156525,"121":0.04459315910935402,"122":0.09030202776193619,"123":0.02625535987317562,"124":0.28079143166542053,"125":-0.0014694887213408947,"126":0.2911943793296814,"127":0.2322579175233841,"128":0.3037799596786499,"129":0.005328155588358641,"130":0.33172041177749634,"131":0.3771330416202545,"132":0.22252537310123444,"133":-0.34958285093307495,"134":-0.09773808717727661,"135":-0.056631553918123245,"136":0.3765082061290741,"137":0.21742814779281616,"138":0.01785898394882679,"139":-0.1138700321316719,"140":0.06564632803201675,"141":0.0580810010433197,"142":-0.054861895740032196,"143":-0.022270355373620987,"144":-0.2740647494792938,"145":0.03408676013350487,"146":-0.33833932876586914,"147":-0.3459160327911377,"148":-0.3497946262359619,"149":-0.05059594660997391,"150":-0.35163646936416626,"151":-0.2261023223400116,"152":-0.2783375382423401,"153":-0.35062330961227417,"154":-0.04575498402118683,"155":0.06710267066955566,"156":-0.24399247765541077,"157":-0.29945454001426697,"158":0.013868343085050583,"159":0.05552174896001816,"160":-0.0022130555007606745,"161":-0.00037768451147712767,"162":0.15577781200408936,"163":0.019582463428378105,"164":0.4520898759365082,"165":0.05259029194712639,"166":0.3817574977874756,"167":0.30972516536712646,"168":0.30477404594421387,"169":0.0264865942299366,"170":0.3555571734905243,"171":0.5629402995109558,"172":0.23561923205852509,"173":0.32941746711730957,"174":0.4630260765552521,"175":0.0534023754298687,"176":0.42508551478385925,"177":0.2950645089149475,"178":0.1430344581604004,"179":0.08463560789823532,"180":0.06219639256596565,"181":-0.0399368591606617,"182":-0.034032192081213,"183":0.009839542210102081,"184":-0.10704047232866287,"185":0.03223782032728195,"186":-0.06857195496559143,"187":0.0041133263148367405,"188":-0.019583014771342278,"189":0.03950483351945877,"190":-0.05714626982808113,"191":-0.10781021416187286,"192":-0.07530540227890015,"193":-0.053377993404865265,"194":0.014067084528505802,"195":0.03643009066581726,"196":-0.020269474014639854,"197":0.01031247153878212,"198":-0.13583333790302277,"199":-0.04479249194264412,"200":0.0032306502107530832,"201":0.06314712017774582,"202":-0.019215255975723267,"203":0.02171834371984005,"204":0.2981153428554535,"205":0.022808503359556198,"206":0.29604583978652954,"207":0.2736051082611084,"208":0.3087101876735687,"209":0.08424120396375656,"210":0.3878917992115021,"211":0.39007627964019775,"212":0.3304123282432556,"213":0.29226571321487427,"214":0.36384108662605286,"215":0.07342658191919327,"216":0.3680359721183777,"217":0.38316354155540466,"218":0.09101732075214386,"219":0.0334307998418808,"220":0.004277307540178299,"221":-0.012029577046632767,"222":-0.032004259526729584,"223":-0.021719086915254593,"224":0.3599037230014801,"225":-0.01042504794895649,"226":0.2526019215583801,"227":0.2628312110900879,"228":0.22373482584953308,"229":0.030252430588006973,"230":0.3001750111579895,"231":0.34681236743927,"232":0.2485608160495758,"233":0.3489114046096802,"234":0.3516722321510315,"235":0.056508585810661316,"236":0.34041276574134827,"237":0.25642824172973633,"238":0.030752237886190414,"239":-0.0485321506857872,"240":0.002850762801244855,"241":-0.04661571979522705,"242":-0.028026729822158813,"243":0.0014232166577130556,"244":0.3508946895599365,"245":0.04202594235539436,"246":0.33748069405555725,"247":0.20857872068881989,"248":0.2641376256942749,"249":0.013306009583175182,"250":0.2628449499607086,"251":0.4052482545375824,"252":0.31022003293037415,"253":-0.3044998049736023,"254":0.21338246762752533,"255":0.06804236769676208,"256":0.2622334659099579,"257":0.37396755814552307,"258":0.04234808683395386,"259":-0.05352438613772392,"260":-0.044957246631383896,"261":-0.07978849858045578,"262":0.010389030911028385,"263":-0.02461465820670128,"264":0.32318586111068726,"265":-0.03226030245423317,"266":0.32413914799690247,"267":0.24233466386795044,"268":0.35885363817214966,"269":-0.0984591618180275,"270":0.23400075733661652,"271":0.24320435523986816,"272":0.34705254435539246,"273":0.24072301387786865,"274":0.29642733931541443,"275":0.02107822895050049,"276":0.23917101323604584,"277":0.3347490727901459,"278":-0.01835094951093197,"279":-0.0645560622215271,"280":0.019531773403286934,"281":0.030771318823099136,"282":-0.04996965080499649,"283":0.022754020988941193,"284":0.2339470237493515,"285":-0.041506629437208176,"286":0.20868930220603943,"287":0.26544028520584106,"288":0.3508198857307434,"289":-0.10025149583816528,"290":0.30929267406463623,"291":0.2617732286453247,"292":0.37135687470436096,"293":0.35437458753585815,"294":0.21507330238819122,"295":0.027553057298064232,"296":0.241633802652359,"297":0.29175546765327454,"298":-0.024627238512039185,"299":-0.07796899974346161,"300":-0.010649601928889751,"301":0.05394895374774933,"302":0.003946205135434866,"303":-0.003512083552777767,"304":0.014796961098909378,"305":-0.04624125733971596,"306":0.016255496069788933,"307":0.03888440504670143,"308":-0.03768421709537506,"309":-0.04747605323791504,"310":-0.04720451682806015,"311":0.06953586637973785,"312":-0.04995319992303848,"313":0.01123876590281725,"314":-0.06737644970417023,"315":0.04216855764389038,"316":-0.01635936088860035,"317":-0.07153724879026413,"318":-0.0672992542386055,"319":-0.03719966113567352,"320":0.03162817656993866,"321":-0.049873217940330505,"322":0.08941511064767838,"323":0.07437245547771454,"324":0.37436312437057495,"325":0.04085352644324303,"326":-0.1880623996257782,"327":0.26796087622642517,"328":0.27601054310798645,"329":-0.014789461158216,"330":0.17558623850345612,"331":0.040556568652391434,"332":-0.21189431846141815,"333":0.2838374674320221,"334":0.44953086972236633,"335":0.06709372252225876,"336":-0.3230416774749756,"337":-0.28662464022636414,"338":0.01774914748966694,"339":-0.05409130081534386,"340":0.043619994074106216,"341":0.018775256350636482,"342":-0.07061639428138733,"343":-0.03973451256752014,"344":0.2543306052684784,"345":0.06394050270318985,"346":0.34573978185653687,"347":0.25151121616363525,"348":0.3702048063278198,"349":-0.06862948834896088,"350":0.258331298828125,"351":0.3910471498966217,"352":0.33308395743370056,"353":-0.22939544916152954,"354":0.30560794472694397,"355":-0.06953200697898865,"356":0.3336033225059509,"357":0.34520086646080017,"358":-0.025789905339479446,"359":-0.032909732311964035,"360":0.04161437600851059,"361":-0.09720176458358765,"362":-0.006994985044002533,"363":-0.025595594197511673,"364":-0.03455720469355583,"365":-0.05218959227204323,"366":-0.044852063059806824,"367":0.05451439321041107,"368":0.03656435012817383,"369":-0.012932968325912952,"370":-0.030860060825943947,"371":-0.13020913302898407,"372":0.054903533309698105,"373":0.008663136512041092,"374":-0.10634013265371323,"375":-0.0510941781103611,"376":0.007046935614198446,"377":-0.011679945513606071,"378":-0.08879486471414566,"379":0.07062886655330658,"380":0.04818142578005791,"381":0.01197109930217266,"382":-0.049253083765506744,"383":0.022848010063171387,"384":0.0439382828772068,"385":0.044341783970594406,"386":-0.07861379534006119,"387":-0.07536125928163528,"388":0.04448654502630234,"389":0.0088226068764925,"390":-0.004079569596797228,"391":-0.10417044907808304,"392":-0.007503477390855551,"393":-0.037199560552835464,"394":-0.06258509308099747,"395":0.050823863595724106,"396":0.022508474066853523,"397":-0.010714482516050339,"398":-0.0629848837852478,"399":0.016861673444509506}},"bias":{"rows":20,"columns":1,"weights":{"0":0,"1":-0.30365514755249023,"2":-0.29531580209732056,"3":-0.3038167357444763,"4":0.023561520501971245,"5":0,"6":-0.30396342277526855,"7":0.290062814950943,"8":0.008618888445198536,"9":0.302847295999527,"10":-0.15915799140930176,"11":0.008987577632069588,"12":-0.30279815196990967,"13":-0.012136739678680897,"14":0.00022542625083588064,"15":0,"16":-0.07085609436035156,"17":0,"18":-0.3034951984882355,"19":0}}}],"outputConnector":{"rows":29,"columns":20,"weights":{"0":0.009134949184954166,"1":-0.1307748407125473,"2":-0.1067541092634201,"3":0.09433995932340622,"4":-0.47485873103141785,"5":0.0052939606830477715,"6":-0.5283433198928833,"7":-0.3072117567062378,"8":-0.35884571075439453,"9":-0.10452719777822495,"10":-0.48811256885528564,"11":-0.49727723002433777,"12":-0.3150132894515991,"13":-0.29567384719848633,"14":-0.46709105372428894,"15":0.058202262967824936,"16":-0.316942423582077,"17":-0.3566920757293701,"18":-0.20159991085529327,"19":0.045939650386571884,"20":-0.046214405447244644,"21":-0.16385982930660248,"22":-8.7986421585083,"23":-2.085413932800293,"24":0.4842478334903717,"25":-0.0384955033659935,"26":0.6638660430908203,"27":-0.2502531409263611,"28":0.7138528227806091,"29":-0.046658847481012344,"30":0.3519190549850464,"31":0.3290691673755646,"32":-4.107673645019531,"33":0.6864566802978516,"34":0.6449273824691772,"35":-0.00371693167835474,"36":0.6571507453918457,"37":0.7664455771446228,"38":-0.24456480145454407,"39":-0.08154162019491196,"40":0.1442277431488037,"41":-0.06313125789165497,"42":0.17812106013298035,"43":0.051675040274858475,"44":0.32924479246139526,"45":0.01568477600812912,"46":0.32233861088752747,"47":-0.3164423108100891,"48":0.25571632385253906,"49":-0.003751823678612709,"50":-0.48276621103286743,"51":0.001209903508424759,"52":-0.3272477090358734,"53":0.20677240192890167,"54":0.12366124987602234,"55":-0.03896808996796608,"56":0.5023358464241028,"57":-0.12003197520971298,"58":0.009117676876485348,"59":-0.10901326686143875,"60":-0.05294804647564888,"61":0.10911335796117783,"62":0.29781419038772583,"63":0.05357680097222328,"64":0.5977687835693359,"65":-0.02350296825170517,"66":0.4723202884197235,"67":0.32904481887817383,"68":0.5381895899772644,"69":-0.03718363493680954,"70":0.3586284816265106,"71":0.592782199382782,"72":0.284769743680954,"73":0.40870946645736694,"74":0.5550483465194702,"75":0.03699043393135071,"76":0.5013407468795776,"77":0.24661804735660553,"78":0.2254962921142578,"79":-0.13937115669250488,"80":0.03674666956067085,"81":0.1401064693927765,"82":0.1787235587835312,"83":0.19790737330913544,"84":0.5488160252571106,"85":-0.010573667474091053,"86":0.6069529056549072,"87":0.2336876392364502,"88":0.2686588764190674,"89":0.24099087715148926,"90":0.33302631974220276,"91":0.5928918123245239,"92":0.29083871841430664,"93":0.4504297077655792,"94":0.5992669463157654,"95":0.00024263137311208993,"96":0.2893034815788269,"97":0.3726676404476166,"98":0.27382996678352356,"99":0.18222440779209137,"100":-0.014323120005428791,"101":0.05536870285868645,"102":-0.13194727897644043,"103":-0.09171221405267715,"104":0.3490475118160248,"105":0.07569370418787003,"106":0.2560522258281708,"107":0.34843698143959045,"108":0.28034231066703796,"109":-0.18086954951286316,"110":0.3112492263317108,"111":0.39542514085769653,"112":0.25228995084762573,"113":0.3836571276187897,"114":0.4490581452846527,"115":-0.08380808681249619,"116":0.29335156083106995,"117":0.2948031425476074,"118":0.007988518103957176,"119":-0.06986578553915024,"120":0.06458917260169983,"121":0.23455841839313507,"122":0.09154536575078964,"123":0.2771822512149811,"124":0.5709048509597778,"125":0.014346212148666382,"126":0.36090701818466187,"127":0.5288379192352295,"128":0.6353967189788818,"129":0.259448379278183,"130":0.4407459497451782,"131":0.6474812626838684,"132":0.2696281373500824,"133":0.6468538045883179,"134":0.5324164032936096,"135":-0.033520668745040894,"136":0.25800061225891113,"137":0.2803610563278198,"138":0.01975329965353012,"139":0.10683082789182663,"140":0.03501148894429207,"141":-0.11252640932798386,"142":0.13839372992515564,"143":-0.13441330194473267,"144":-0.05137525871396065,"145":-0.034267399460077286,"146":-0.03278542682528496,"147":-0.3573617935180664,"148":-0.20699241757392883,"149":-0.037797555327415466,"150":-0.22879564762115479,"151":-0.08528397232294083,"152":-0.30857110023498535,"153":-0.24352730810642242,"154":0.024111751466989517,"155":-0.05149737745523453,"156":-0.11515358090400696,"157":-0.23621942102909088,"158":0.2322501391172409,"159":-0.007588953711092472,"160":-0.06581723690032959,"161":-0.011158608831465244,"162":-0.12538647651672363,"163":-0.053100474178791046,"164":0.22222526371479034,"165":0.02211807295680046,"166":0.2708560526371002,"167":0.2681993842124939,"168":0.3142959773540497,"169":-0.0262098778039217,"170":0.36746442317962646,"171":0.33560043573379517,"172":0.3315432667732239,"173":-0.324215829372406,"174":-0.005679103080183268,"175":-0.0008151250658556819,"176":0.44720977544784546,"177":0.36437976360321045,"178":0.020551299676299095,"179":-0.1404924988746643,"180":0.1662435233592987,"181":0.17587004601955414,"182":0.07422462850809097,"183":0.21994037926197052,"184":-0.42583388090133667,"185":-0.0638396367430687,"186":-0.39598768949508667,"187":-0.09972971677780151,"188":-0.3320794701576233,"189":0.07936883717775345,"190":-0.4088932275772095,"191":-0.43811526894569397,"192":-0.30847224593162537,"193":-0.07455556094646454,"194":-0.4334844946861267,"195":0.025910578668117523,"196":-0.2935705780982971,"197":0.2582094669342041,"198":-0.14781516790390015,"199":-0.08419833332300186,"200":-0.02421370893716812,"201":-0.1413843333721161,"202":0.24837827682495117,"203":-0.011566347442567348,"204":-0.17468585073947906,"205":0.040346410125494,"206":-0.10721497237682343,"207":-0.3511861264705658,"208":-0.3908955454826355,"209":0.0003301995457150042,"210":-0.29924869537353516,"211":-0.3146567642688751,"212":-0.24778056144714355,"213":-0.3982514441013336,"214":-0.5323308706283569,"215":-0.0458916537463665,"216":-0.35594916343688965,"217":-0.3366546034812927,"218":0.1654348224401474,"219":-0.021841181442141533,"220":0.06963974237442017,"221":0.045694202184677124,"222":0.3398779034614563,"223":0.12191787362098694,"224":-0.17747719585895538,"225":-0.06240508332848549,"226":-0.14946028590202332,"227":-0.3764382600784302,"228":-0.38611355423927307,"229":0.15071600675582886,"230":-0.1434057652950287,"231":-0.044701140373945236,"232":-0.2741134762763977,"233":0.5223662853240967,"234":-0.20499323308467865,"235":0.019372601062059402,"236":-0.19477146863937378,"237":-0.3679250478744507,"238":0.268449604511261,"239":-0.016329053789377213,"240":-0.08322221040725708,"241":-0.1427205353975296,"242":0.04535480961203575,"243":-0.1214701235294342,"244":0.20721204578876495,"245":0.055321160703897476,"246":0.3739206790924072,"247":0.2453407645225525,"248":0.19344551861286163,"249":-0.0885462611913681,"250":0.14973382651805878,"251":0.14859803020954132,"252":-0.27513954043388367,"253":0.24526789784431458,"254":0.05439101532101631,"255":-0.06669063866138458,"256":0.27305302023887634,"257":0.2754589021205902,"258":0.05422418192028999,"259":0.0357009619474411,"260":-0.06997929513454437,"261":-0.19444558024406433,"262":0.040934205055236816,"263":-0.08237342536449432,"264":0.24200493097305298,"265":-0.022203581407666206,"266":0.31855034828186035,"267":0.3148685395717621,"268":0.3115776777267456,"269":0.1281273365020752,"270":0.23526833951473236,"271":0.4134320020675659,"272":0.3216121196746826,"273":0.18250450491905212,"274":0.5400429368019104,"275":0.0008584652678109705,"276":0.42563265562057495,"277":0.3243137300014496,"278":0.17766882479190826,"279":0.011658504605293274,"280":0.025667710229754448,"281":0.20982320606708527,"282":0.09506072103977203,"283":-0.11412254720926285,"284":0.24571946263313293,"285":-0.06835208833217621,"286":0.28321364521980286,"287":0.27738797664642334,"288":0.27951210737228394,"289":0.26160570979118347,"290":0.6651054620742798,"291":0.6021249294281006,"292":0.5412572026252747,"293":0.2771254777908325,"294":0.26884230971336365,"295":0.1579442173242569,"296":0.22904875874519348,"297":0.43950337171554565,"298":0.1339462697505951,"299":0.2222471386194229,"300":0.029902128502726555,"301":-0.1413372904062271,"302":-0.018487829715013504,"303":0.016868233680725098,"304":-0.3687313199043274,"305":0.005594936199486256,"306":-0.20787614583969116,"307":-0.3882439136505127,"308":-0.3486665189266205,"309":-0.1581324189901352,"310":-0.372677743434906,"311":-0.5463656783103943,"312":0.316858172416687,"313":-0.3898189067840576,"314":-0.4842894673347473,"315":-0.07051877677440643,"316":-0.3668992519378662,"317":-0.2773040533065796,"318":-0.23705989122390747,"319":-0.022117910906672478,"320":-0.02973031997680664,"321":0.12806646525859833,"322":-0.1105051264166832,"323":-0.044646840542554855,"324":-0.47216567397117615,"325":-0.015999572351574898,"326":-0.42690587043762207,"327":-0.3564012050628662,"328":-0.2059221714735031,"329":-0.09238602966070175,"330":-0.45850321650505066,"331":-0.5295642018318176,"332":-0.36847811937332153,"333":-0.39230772852897644,"334":-0.4688912034034729,"335":-0.048546165227890015,"336":-0.37921103835105896,"337":-0.32059621810913086,"338":-0.13048328459262848,"339":0.032392460852861404,"340":0.04211640730500221,"341":0.2121897041797638,"342":0.0750809758901596,"343":-0.10887671262025833,"344":-0.09511421620845795,"345":0.03358118608593941,"346":-0.005820124410092831,"347":-0.3267032504081726,"348":-0.30277159810066223,"349":0.1865573674440384,"350":-0.007248918991535902,"351":0.0032543791458010674,"352":-0.13903741538524628,"353":-0.22462254762649536,"354":-0.22260846197605133,"355":0.0961696058511734,"356":-0.39594733715057373,"357":0.3073748052120209,"358":0.10764295607805252,"359":0.24130800366401672,"360":-0.030065719038248062,"361":-0.1443115919828415,"362":-0.04270002990961075,"363":-0.026530586183071136,"364":-0.34392786026000977,"365":-0.02196156233549118,"366":-0.25996729731559753,"367":-0.36806565523147583,"368":-0.3318500816822052,"369":-0.10329455137252808,"370":-0.4300451874732971,"371":-0.42387551069259644,"372":-0.3286625146865845,"373":-0.3455803394317627,"374":-0.5133297443389893,"375":-0.0252769086509943,"376":-0.3022404611110687,"377":-0.32083860039711,"378":0.06594288349151611,"379":0.06820423901081085,"380":0.03445771709084511,"381":-0.010794620960950851,"382":-0.12292727828025818,"383":0.09697115421295166,"384":-0.4113685190677643,"385":0.0630996823310852,"386":-0.39610880613327026,"387":-0.2924560010433197,"388":-0.23584631085395813,"389":-0.12086589634418488,"390":-0.4611850678920746,"391":-0.5448019504547119,"392":-0.26683786511421204,"393":-0.37238743901252747,"394":-0.47795042395591736,"395":-0.08376440405845642,"396":-0.34636390209198,"397":-0.33681613206863403,"398":-0.28295063972473145,"399":-0.038245927542448044,"400":0.0382610447704792,"401":-0.14539848268032074,"402":-4.125386714935303,"403":-1.2841702699661255,"404":0.6661352515220642,"405":-0.025144964456558228,"406":0.6231665015220642,"407":-0.32634106278419495,"408":0.6748666167259216,"409":-0.14033474028110504,"410":0.5082473158836365,"411":0.5272517800331116,"412":-5.9479594230651855,"413":0.6790497899055481,"414":0.5749566555023193,"415":0.011987305246293545,"416":0.7945570349693298,"417":0.7996731400489807,"418":-0.16487997770309448,"419":-0.15823377668857574,"420":0.03736802563071251,"421":-0.10314597189426422,"422":-0.2309081107378006,"423":-0.13856427371501923,"424":0.05334875360131264,"425":0.01482325792312622,"426":0.12014129757881165,"427":0.21108844876289368,"428":0.17285914719104767,"429":-0.11999544501304626,"430":0.20194314420223236,"431":-0.017190884798765182,"432":0.3071584105491638,"433":0.1928115338087082,"434":-0.014999215491116047,"435":0.04557386785745621,"436":0.19729182124137878,"437":0.30701881647109985,"438":-0.2767641842365265,"439":-0.116932213306427,"440":0.03701772913336754,"441":-0.0776936262845993,"442":-0.22300945222377777,"443":-0.08292405307292938,"444":-0.4555361568927765,"445":0.04418302699923515,"446":-0.488640695810318,"447":-0.3154442310333252,"448":-0.4285682737827301,"449":-0.13968615233898163,"450":-0.4576895236968994,"451":-0.5395734310150146,"452":-0.3046884834766388,"453":-0.4253457188606262,"454":-0.5445801019668579,"455":0.006722291931509972,"456":-0.33844611048698425,"457":-0.3635362982749939,"458":-0.2695297300815582,"459":-0.135838121175766,"460":0.023801997303962708,"461":-0.04982435330748558,"462":-0.1863739937543869,"463":-0.04853275418281555,"464":0.13432809710502625,"465":0.05506627634167671,"466":0.12477553635835648,"467":0.2145041525363922,"468":0.35699188709259033,"469":-0.16514979302883148,"470":-0.16344459354877472,"471":0.13533823192119598,"472":-0.3085417151451111,"473":0.16166436672210693,"474":0.18363341689109802,"475":-0.03657197952270508,"476":0.23797821998596191,"477":-0.3535098135471344,"478":-0.13104915618896484,"479":-0.049775704741477966,"480":-0.06911206245422363,"481":-0.13132581114768982,"482":-0.14334113895893097,"483":-0.037626590579748154,"484":-0.45881596207618713,"485":-0.04512632265686989,"486":-0.4459346830844879,"487":-0.34317806363105774,"488":-0.43699517846107483,"489":-0.19952492415905,"490":-0.48092377185821533,"491":-0.5604996085166931,"492":-0.309077650308609,"493":-0.4465848207473755,"494":-0.5957981944084167,"495":-0.04721357673406601,"496":-0.374945729970932,"497":-0.32853662967681885,"498":-0.20797324180603027,"499":-0.15727519989013672,"500":-0.08256017416715622,"501":-0.13007615506649017,"502":-0.06948727369308472,"503":-0.03466692939400673,"504":-0.21512264013290405,"505":0.06973310559988022,"506":-0.3024083375930786,"507":-0.2728487253189087,"508":-0.3094417154788971,"509":-0.18728940188884735,"510":-0.30156612396240234,"511":-0.45215103030204773,"512":-0.2981512248516083,"513":-0.2846556007862091,"514":-0.43071141839027405,"515":0.05384591966867447,"516":-0.4051559567451477,"517":-0.3079531192779541,"518":-0.08764909952878952,"519":-0.05718241631984711,"520":-0.019358735531568527,"521":-0.010443939827382565,"522":-0.22854182124137878,"523":0.18227362632751465,"524":-0.4062108099460602,"525":-0.005979408975690603,"526":-0.4043419361114502,"527":-0.3457266092300415,"528":-0.3580779731273651,"529":-0.016449181362986565,"530":-0.4001375734806061,"531":-0.48937827348709106,"532":-0.3032614290714264,"533":-0.39884132146835327,"534":-0.5524730682373047,"535":-0.0034379842691123486,"536":-0.3439847230911255,"537":-0.36792805790901184,"538":-0.22320134937763214,"539":-0.0825585201382637,"540":0.08527074009180069,"541":-0.20599018037319183,"542":-0.030069202184677124,"543":0.15210379660129547,"544":-0.368589848279953,"545":0.032659001648426056,"546":-0.33705461025238037,"547":-0.3373911678791046,"548":-0.34644815325737,"549":0.03642123565077782,"550":-0.4424240291118622,"551":-0.34361860156059265,"552":-0.3925173282623291,"553":-0.27342337369918823,"554":-0.5317922234535217,"555":-0.0781775414943695,"556":-0.3624259829521179,"557":-0.241285502910614,"558":-0.042753078043460846,"559":0.05513836070895195,"560":-0.09390556067228317,"561":-0.188431516289711,"562":-0.16531938314437866,"563":-0.03946775570511818,"564":-0.48724910616874695,"565":0.05713875964283943,"566":-0.5051348209381104,"567":-0.25740480422973633,"568":-0.5191130042076111,"569":-0.19865573942661285,"570":-0.39690160751342773,"571":-0.6090547442436218,"572":-0.27559059858322144,"573":-0.5072985887527466,"574":-0.6980799436569214,"575":0.02482020854949951,"576":-0.37181079387664795,"577":-0.3278510868549347,"578":-0.14979718625545502,"579":-0.022582370787858963}},"output":{"rows":29,"columns":1,"weights":{"0":-0.5603371858596802,"1":1.228958249092102,"2":-6.275322437286377,"3":-10.430879592895508,"4":-9.744257926940918,"5":-8.348532676696777,"6":-10.380436897277832,"7":-2.1279289722442627,"8":-7.276504039764404,"9":-0.962058961391449,"10":-0.673214852809906,"11":-1.3413281440734863,"12":-6.789614200592041,"13":-8.7610502243042,"14":-8.387309074401855,"15":-0.6224257349967957,"16":-0.6158276200294495,"17":-2.126718759536743,"18":-0.6429321765899658,"19":-0.6204660534858704,"20":0.948798656463623,"21":-5.7748188972473145,"22":-0.5199943780899048,"23":-5.485820293426514,"24":-0.5098831653594971,"25":-0.6802350878715515,"26":-0.5593562126159668,"27":-0.6338471174240112,"28":-0.5077425837516785}}}